{"learner":{"attributes":{"scikit_learn":"{\"_estimator_type\": \"classifier\"}"},"feature_names":[],"feature_types":[],"gradient_booster":{"model":{"gbtree_model_param":{"num_parallel_tree":"1","num_trees":"100"},"iteration_indptr":[0,1,2,3,4,5,6,7,8,9,10,11,12,13,14,15,16,17,18,19,20,21,22,23,24,25,26,27,28,29,30,31,32,33,34,35,36,37,38,39,40,41,42,43,44,45,46,47,48,49,50,51,52,53,54,55,56,57,58,59,60,61,62,63,64,65,66,67,68,69,70,71,72,73,74,75,76,77,78,79,80,81,82,83,84,85,86,87,88,89,90,91,92,93,94,95,96,97,98,99,100],"tree_info":[0,0,0,0,0,0,0,0,0,0,0,0,0,0,0,0,0,0,0,0,0,0,0,0,0,0,0,0,0,0,0,0,0,0,0,0,0,0,0,0,0,0,0,0,0,0,0,0,0,0,0,0,0,0,0,0,0,0,0,0,0,0,0,0,0,0,0,0,0,0,0,0,0,0,0,0,0,0,0,0,0,0,0,0,0,0,0,0,0,0,0,0,0,0,0,0,0,0,0,0],"trees":[{"base_weights":[-1.0546281E-7,1.6846749E-1,-2.1629806E-1,5.5894252E-2,3.2914257E-1,-5.9195703E-1,-9.282433E-2,1.8283398E-1,-2.182282E-1,5.91726E-1,2.0659801E-1,1.2709789E-1,-8.16993E-1,1.5218692E-1,-2.4162309E-1,-9.673509E-2,3.27647E-1,-4.8349842E-1,-1.5539505E-1,3.7187296E-1,1.1942995E0,-6.206226E-1,2.8735492E-1,-1.236185E0,4.707395E-1,-9.2772853E-1,1.9684279E-1,3.635295E-1,-1.6236888E-1,-4.074061E-1,1.2134534E-1,5.436875E-1,-3.70394E-1,7.6341206E-1,-1.0872777E-3,-2.4526704E-2,-5.9632325E-1,-4.5314613E-1,5.19315E-1,1.6482148E0,6.4443E-1,-8.3336425E-1,4.3543527E-1,1.4788301E0,2.5447047E-1,-5.1114446E-1,3.529611E-1,1.2692207E0,2.1539477E-1,-6.517775E-1,-1.411257E0,8.629914E-1,-9.557821E-1,7.717976E-1,1.4409874E-1,-2.9611295E-1,9.810027E-1,-5.500623E-1,2.91281E-1,2.5280178E-1,-5.640336E-1,2.7590343E-1,1.3780152E-2,9.992209E-3,-2.2937533E-1,4.0770698E-1,1.6367376E-1,4.8104697E-1,-1.1509442E-2,-3.84898E-2,3.1205747E-1,2.6369097E-2,-2.7120918E-1,-2.0346417E-1,3.773012E-1,2.324974E-1,-3.9366004E-3,1.3698688E-1,5.1345915E-1,4.925213E-1,-3.3074208E-2,-2.8473347E-1,1.8171479E-1,8.2329065E-2,4.96367E-1,-2.6600849E-2,1.04284585E-1,3.4931907E-1,-1.8466094E-1,-1.8466094E-1,4.7221735E-1,1.5366894E-1,-2.3278092E-1,-4.3461543E-1,-1.07192345E-1,-1.2119715E-1,-4.710438E-1,3.2611245E-1,-1.8466094E-1,-3.7734142E-1,8.2329065E-2,3.622963E-1,9.8457046E-2,-4.8466798E-2,1.6180459E-1,3.957942E-2,-1.6175172E-1,-1.8466094E-1,3.689297E-1,1.06990695E-1,-1.90469E-1,-3.1207466E-1,1.221211E-1,5.454836E-2,3.8500515E-1,-2.6594162E-1,1.8688929E-1],"categories":[],"categories_nodes":[],"categories_segments":[],"categories_sizes":[],"default_left":[0,0,0,0,0,0,0,0,0,0,0,0,0,0,0,0,0,0,0,0,0,0,0,0,0,0,0,0,0,0,0,0,0,0,0,0,0,0,0,0,0,0,0,0,0,0,0,0,0,0,0,0,0,0,0,0,0,0,0,0,0,0,0,0,0,0,0,0,0,0,0,0,0,0,0,0,0,0,0,0,0,0,0,0,0,0,0,0,0,0,0,0,0,0,0,0,0,0,0,0,0,0,0,0,0,0,0,0,0,0,0,0,0,0,0,0,0],"id":0,"left_children":[1,3,5,7,9,11,13,15,17,19,21,23,25,27,29,31,33,-1,35,37,39,41,43,45,47,49,51,53,55,57,59,61,63,65,67,69,71,73,75,77,79,81,-1,83,85,-1,87,89,91,93,95,97,99,101,103,105,107,109,111,113,115,-1,-1,-1,-1,-1,-1,-1,-1,-1,-1,-1,-1,-1,-1,-1,-1,-1,-1,-1,-1,-1,-1,-1,-1,-1,-1,-1,-1,-1,-1,-1,-1,-1,-1,-1,-1,-1,-1,-1,-1,-1,-1,-1,-1,-1,-1,-1,-1,-1,-1,-1,-1,-1,-1,-1,-1],"loss_changes":[7.9119E1,2.2059208E1,4.404119E1,2.5056583E1,1.6052238E1,3.8128143E1,2.6165276E1,1.9947506E1,1.971218E1,2.0673325E1,2.3175545E1,2.7228138E1,2.0290977E1,1.8102055E1,2.6903727E1,2.9755692E1,4.64562E1,0E0,1.2638214E1,1.4618809E1,9.460754E0,1.4846066E1,1.1938871E1,9.315769E0,9.136328E0,2.0649048E1,1.5000202E1,1.4459763E1,1.707526E1,3.0717922E1,1.2818838E1,9.482044E0,1.8921621E1,1.7350983E1,1.1177847E1,1.8930937E1,1.0636471E1,7.9616985E0,1.3729778E1,9.1248703E-1,1.5765989E1,5.353691E0,0E0,1.2886658E0,9.845669E0,0E0,3.4630034E0,7.276348E0,1.1041839E1,2.4070023E1,8.628319E0,4.718979E0,3.0338693E0,1.0552727E1,1.3016025E1,1.0374844E1,5.4142876E0,1.9836578E1,8.538895E0,8.451746E0,9.336761E0,0E0,0E0,0E0,0E0,0E0,0E0,0E0,0E0,0E0,0E0,0E0,0E0,0E0,0E0,0E0,0E0,0E0,0E0,0E0,0E0,0E0,0E0,0E0,0E0,0E0,0E0,0E0,0E0,0E0,0E0,0E0,0E0,0E0,0E0,0E0,0E0,0E0,0E0,0E0,0E0,0E0,0E0,0E0,0E0,0E0,0E0,0E0,0E0,0E0,0E0,0E0,0E0,0E0,0E0,0E0,0E0],"parents":[2147483647,0,0,1,1,2,2,3,3,4,4,5,5,6,6,7,7,8,8,9,9,10,10,11,11,12,12,13,13,14,14,15,15,16,16,18,18,19,19,20,20,21,21,22,22,23,23,24,24,25,25,26,26,27,27,28,28,29,29,30,30,31,31,32,32,33,33,34,34,35,35,36,36,37,37,38,38,39,39,40,40,41,41,43,43,44,44,46,46,47,47,48,48,49,49,50,50,51,51,52,52,53,53,54,54,55,55,56,56,57,57,58,58,59,59,60,60],"right_children":[2,4,6,8,10,12,14,16,18,20,22,24,26,28,30,32,34,-1,36,38,40,42,44,46,48,50,52,54,56,58,60,62,64,66,68,70,72,74,76,78,80,82,-1,84,86,-1,88,90,92,94,96,98,100,102,104,106,108,110,112,114,116,-1,-1,-1,-1,-1,-1,-1,-1,-1,-1,-1,-1,-1,-1,-1,-1,-1,-1,-1,-1,-1,-1,-1,-1,-1,-1,-1,-1,-1,-1,-1,-1,-1,-1,-1,-1,-1,-1,-1,-1,-1,-1,-1,-1,-1,-1,-1,-1,-1,-1,-1,-1,-1,-1,-1,-1],"split_conditions":[-1.558981E-1,-6.6649504E-2,-5.632075E-1,-1.8384983E-1,-4.2026818E-1,-3.82213E-1,2.814516E-1,-9.972766E-1,-9.853548E-1,-5.16369E-1,-3.7018603E-1,-9.4251025E-1,1.0248044E0,1.0428594E0,8.4087455E-1,-6.775965E-1,-3.34376E-1,-4.8349842E-1,1.6750996E-1,-6.8936837E-1,-6.106902E-1,-2.4985833E-1,-7.147039E-1,-6.692799E-1,-7.868558E-1,-3.0938137E-1,2.3920855E-1,4.6952233E-2,2.23525E0,1.197547E0,6.1287767E-1,2.3920855E-1,-6.7670923E-1,4.9850914E-1,-1.7049085E0,1.370019E0,-6.297392E-1,5.510799E-1,1.0890198E0,-1.3202039E0,2.7110568E-1,1.2494565E0,4.3543527E-1,-2.3892626E-1,-5.813862E-1,-5.1114446E-1,-5.8443916E-1,-9.247032E-1,1.0092506E0,-8.5856354E-1,-5.606484E-1,8.9008224E-1,1.4759889E0,1.3469278E-2,8.3406216E-1,-3.3961394E-1,1.0701816E0,-4.6700317E-1,-1.2276707E0,1.0248044E0,8.2418627E-1,2.7590343E-1,1.3780152E-2,9.992209E-3,-2.2937533E-1,4.0770698E-1,1.6367376E-1,4.8104697E-1,-1.1509442E-2,-3.84898E-2,3.1205747E-1,2.6369097E-2,-2.7120918E-1,-2.0346417E-1,3.773012E-1,2.324974E-1,-3.9366004E-3,1.3698688E-1,5.1345915E-1,4.925213E-1,-3.3074208E-2,-2.8473347E-1,1.8171479E-1,8.2329065E-2,4.96367E-1,-2.6600849E-2,1.04284585E-1,3.4931907E-1,-1.8466094E-1,-1.8466094E-1,4.7221735E-1,1.5366894E-1,-2.3278092E-1,-4.3461543E-1,-1.07192345E-1,-1.2119715E-1,-4.710438E-1,3.2611245E-1,-1.8466094E-1,-3.7734142E-1,8.2329065E-2,3.622963E-1,9.8457046E-2,-4.8466798E-2,1.6180459E-1,3.957942E-2,-1.6175172E-1,-1.8466094E-1,3.689297E-1,1.06990695E-1,-1.90469E-1,-3.1207466E-1,1.221211E-1,5.454836E-2,3.8500515E-1,-2.6594162E-1,1.8688929E-1],"split_indices":[3,16,28,17,17,17,3,28,28,17,17,28,16,8,26,17,14,0,23,0,3,3,14,25,16,14,5,17,10,16,22,5,14,26,15,28,3,14,7,1,16,1,0,0,24,0,0,25,5,28,24,26,25,14,28,4,9,17,4,16,4,0,0,0,0,0,0,0,0,0,0,0,0,0,0,0,0,0,0,0,0,0,0,0,0,0,0,0,0,0,0,0,0,0,0,0,0,0,0,0,0,0,0,0,0,0,0,0,0,0,0,0,0,0,0,0,0],"split_type":[0,0,0,0,0,0,0,0,0,0,0,0,0,0,0,0,0,0,0,0,0,0,0,0,0,0,0,0,0,0,0,0,0,0,0,0,0,0,0,0,0,0,0,0,0,0,0,0,0,0,0,0,0,0,0,0,0,0,0,0,0,0,0,0,0,0,0,0,0,0,0,0,0,0,0,0,0,0,0,0,0,0,0,0,0,0,0,0,0,0,0,0,0,0,0,0,0,0,0,0,0,0,0,0,0,0,0,0,0,0,0,0,0,0,0,0,0],"sum_hessian":[2.1692612E3,1.2195857E3,9.4967535E2,7.1793164E2,5.016541E2,2.3398883E2,7.156865E2,4.9092755E2,2.2700409E2,1.5840396E2,3.4325015E2,5.587793E1,1.781109E2,2.7040927E2,4.4527725E2,1.6763379E2,3.2329373E2,8.7309265E0,2.1827316E2,1.1724387E2,4.1160084E1,2.9934607E1,3.1331555E2,1.0726567E1,4.5151363E1,1.6064905E2,1.7461853E1,1.6164687E2,1.08762405E2,3.0558243E2,1.3969482E2,4.989101E1,1.1774278E2,1.3844756E2,1.8484619E2,1.6913052E2,4.9142643E1,1.7461853E1,9.978202E1,2.1453135E1,1.970695E1,2.768951E1,2.2450955E0,7.2341967E0,3.0608136E2,8.232017E0,2.4945505E0,9.978202E0,3.517316E1,1.037733E2,5.687575E1,1.1225477E1,6.2363763E0,5.5628475E1,1.06018394E2,9.8035835E1,1.0726567E1,2.5394524E2,5.1637196E1,1.1774278E2,2.1952044E1,2.7938965E1,2.1952044E1,5.8621937E1,5.9120846E1,3.5672073E1,1.0277548E2,3.2429156E0,1.8160327E2,1.5491159E2,1.4218938E1,1.5466213E1,3.3676434E1,1.5965123E1,1.4967303E0,6.710341E1,3.267861E1,1.4967303E0,1.9956404E1,7.9825616E0,1.1724387E1,2.5943325E1,1.7461853E0,1.2472752E0,5.9869213E0,6.535722E1,2.4072412E2,1.2472752E0,1.2472752E0,1.2472752E0,8.7309265E0,2.7440056E1,7.7331066E0,2.6941145E1,7.683215E1,8.232017E0,4.8643734E1,9.978202E0,1.2472752E0,4.989101E0,1.2472752E0,2.7190601E1,2.8437876E1,6.0118668E1,4.589973E1,3.5672073E1,6.236376E1,1.2472752E0,9.479292E0,2.1453135E1,2.3249211E2,3.4923706E0,4.8144825E1,1.1125695E2,6.4858313E0,1.7461853E1,4.490191E0],"tree_param":{"num_deleted":"0","num_feature":"29","num_nodes":"117","size_leaf_vector":"1"}},{"base_weights":[2.3500856E-4,1.5123956E-1,-1.2962568E-1,-5.185662E-1,1.7032386E-1,-5.1881284E-1,-7.7552445E-2,5.744036E-1,-9.1225475E-1,1.8629342E-1,-5.450774E-1,-1.21499095E-2,-8.073116E-1,3.8142163E-1,-1.4445403E-1,4.1148958E-1,-3.5197723E-1,-1.0879056E0,3.1186926E-1,4.4319543E-1,1.3657789E-1,-1.1922984E0,6.747672E-2,-4.232941E-1,1.6545638E-1,4.3845809E-1,-1.0006744E0,5.120702E-1,-7.4504626E-1,-4.2794856E-1,-5.064819E-2,-2.748217E-1,1.3938613E-1,3.3115095E-1,-1.363574E0,6.558111E-1,-1.4594855E-3,-7.848197E-1,1.5870987E-1,-4.8420396E-1,1.7343098E-1,7.5959826E-1,-7.533652E-1,9.388558E-1,-2.6798925E-1,9.5508367E-1,-3.9263654E-1,-1.177091E0,2.0487931E-1,9.5366734E-1,8.8203065E-3,-1.0617306E0,2.7957934E-1,-5.3507984E-1,7.2760767E-1,6.945216E-2,-2.6074663E-1,3.7869778E-1,-2.1994524E-1,-4.657864E-1,4.8575527E-3,-1.7022654E-1,2.3116146E-1,-1.9944282E-1,1.0795043E-1,-3.2613096E-1,3.009324E-1,8.066214E-2,-5.797049E-3,-1.7149083E-1,4.2132112E-1,2.4794051E-1,-4.405288E-1,4.2247412E-1,-2.1137215E-1,2.497298E-1,-1.7905986E-1,3.7176916E-1,-1.8197295E-1,-4.693082E-1,-2.6443887E-1,3.391724E-1,-6.518188E-2,4.2582852E-1,1.1489277E-1,-1.08643346E-1,1.9046673E-1,-4.314676E-1,-4.2543816E-3,1.8000595E-2,-2.1254264E-1,3.2573172E-1,-3.224494E-1,1.5439081E-1,-3.0714236E-2,-1.07769296E-1,1.0385654E-1],"categories":[],"categories_nodes":[],"categories_segments":[],"categories_sizes":[],"default_left":[0,0,0,0,0,0,0,0,0,0,0,0,0,0,0,0,0,0,0,0,0,0,0,0,0,0,0,0,0,0,0,0,0,0,0,0,0,0,0,0,0,0,0,0,0,0,0,0,0,0,0,0,0,0,0,0,0,0,0,0,0,0,0,0,0,0,0,0,0,0,0,0,0,0,0,0,0,0,0,0,0,0,0,0,0,0,0,0,0,0,0,0,0,0,0,0,0],"id":1,"left_children":[1,3,5,7,9,11,13,15,17,19,21,23,25,27,29,-1,31,33,-1,35,37,39,41,-1,43,45,47,49,51,53,55,-1,-1,57,59,61,63,65,67,-1,-1,69,71,73,75,77,-1,79,81,83,85,87,-1,89,91,93,95,-1,-1,-1,-1,-1,-1,-1,-1,-1,-1,-1,-1,-1,-1,-1,-1,-1,-1,-1,-1,-1,-1,-1,-1,-1,-1,-1,-1,-1,-1,-1,-1,-1,-1,-1,-1,-1,-1,-1,-1],"loss_changes":[4.217457E1,1.2799547E1,2.339387E1,1.2483968E1,1.11561165E1,1.9910603E1,3.140699E1,6.372012E0,8.269182E0,1.2037445E1,8.557727E0,1.2769901E1,2.1352558E1,1.9538778E1,2.3696009E1,0E0,2.4911869E0,8.11516E0,0E0,1.4478842E1,1.6338219E1,8.735549E0,7.3510394E0,0E0,1.5561555E1,1.2407567E1,1.6289963E1,2.6044987E1,8.390226E0,2.782304E1,1.6955894E1,0E0,0E0,4.8810077E0,4.354912E0,1.4976738E1,1.2350835E1,1.1260978E1,1.5249632E1,0E0,0E0,6.787027E0,7.947016E0,1.3816831E1,1.1370446E1,5.2414436E0,0E0,6.174446E0,4.3428817E0,1.6051346E1,1.3189811E1,4.7870483E0,0E0,2.1028011E1,1.3578418E1,3.278563E1,1.4730717E1,0E0,0E0,0E0,0E0,0E0,0E0,0E0,0E0,0E0,0E0,0E0,0E0,0E0,0E0,0E0,0E0,0E0,0E0,0E0,0E0,0E0,0E0,0E0,0E0,0E0,0E0,0E0,0E0,0E0,0E0,0E0,0E0,0E0,0E0,0E0,0E0,0E0,0E0,0E0,0E0],"parents":[2147483647,0,0,1,1,2,2,3,3,4,4,5,5,6,6,7,7,8,8,9,9,10,10,11,11,12,12,13,13,14,14,16,16,17,17,19,19,20,20,21,21,22,22,24,24,25,25,26,26,27,27,28,28,29,29,30,30,33,33,34,34,35,35,36,36,37,37,38,38,41,41,42,42,43,43,44,44,45,45,47,47,48,48,49,49,50,50,51,51,53,53,54,54,55,55,56,56],"right_children":[2,4,6,8,10,12,14,16,18,20,22,24,26,28,30,-1,32,34,-1,36,38,40,42,-1,44,46,48,50,52,54,56,-1,-1,58,60,62,64,66,68,-1,-1,70,72,74,76,78,-1,80,82,84,86,88,-1,90,92,94,96,-1,-1,-1,-1,-1,-1,-1,-1,-1,-1,-1,-1,-1,-1,-1,-1,-1,-1,-1,-1,-1,-1,-1,-1,-1,-1,-1,-1,-1,-1,-1,-1,-1,-1,-1,-1,-1,-1,-1,-1],"split_conditions":[-2.9594353E-1,-8.877314E-1,-8.5856354E-1,-6.1392224E-1,9.350074E-1,-3.8985643E-1,-5.1910216E-1,1.5742931E-1,1.5487741E0,-6.686362E-1,-6.184016E-1,-1.0657744E0,-2.5536665E-1,9.867836E-1,-5.0161738E-2,4.1148958E-1,2.4974024E-1,-1.1029412E0,3.1186926E-1,1.0433358E0,-1.1453034E0,8.3340335E-1,-3.5247087E-1,-4.232941E-1,-7.711939E-1,1.451627E0,1.2589239E0,-2.8868535E-1,7.040374E-1,1.4333831E0,4.5532295E-1,-2.748217E-1,1.3938613E-1,-5.51938E-1,1.7945987E-1,-1.2143155E0,-4.782039E-1,-8.2996255E-3,-1.245159E-1,-4.8420396E-1,1.7343098E-1,-1.6231861E0,4.6832874E-1,-4.1786954E-2,-1.3877751E0,1.5945252E0,-3.9263654E-1,-9.316545E-1,2.0421872E0,-1.9028051E-1,-4.6752474E-1,-4.8143634E-1,2.7957934E-1,-3.1220487E-1,2.1559038E0,-1.7151198E-1,1.3354876E0,3.7869778E-1,-2.1994524E-1,-4.657864E-1,4.8575527E-3,-1.7022654E-1,2.3116146E-1,-1.9944282E-1,1.0795043E-1,-3.2613096E-1,3.009324E-1,8.066214E-2,-5.797049E-3,-1.7149083E-1,4.2132112E-1,2.4794051E-1,-4.405288E-1,4.2247412E-1,-2.1137215E-1,2.497298E-1,-1.7905986E-1,3.7176916E-1,-1.8197295E-1,-4.693082E-1,-2.6443887E-1,3.391724E-1,-6.518188E-2,4.2582852E-1,1.1489277E-1,-1.08643346E-1,1.9046673E-1,-4.314676E-1,-4.2543816E-3,1.8000595E-2,-2.1254264E-1,3.2573172E-1,-3.224494E-1,1.5439081E-1,-3.0714236E-2,-1.07769296E-1,1.0385654E-1],"split_indices":[3,16,28,18,26,17,24,5,5,17,3,28,3,22,28,0,26,2,0,7,28,22,17,0,1,5,3,14,28,24,17,0,0,0,18,28,23,16,23,0,0,2,15,3,26,1,0,28,3,17,28,16,0,17,14,14,16,0,0,0,0,0,0,0,0,0,0,0,0,0,0,0,0,0,0,0,0,0,0,0,0,0,0,0,0,0,0,0,0,0,0,0,0,0,0,0,0],"split_type":[0,0,0,0,0,0,0,0,0,0,0,0,0,0,0,0,0,0,0,0,0,0,0,0,0,0,0,0,0,0,0,0,0,0,0,0,0,0,0,0,0,0,0,0,0,0,0,0,0,0,0,0,0,0,0,0,0,0,0,0,0,0,0,0,0,0,0,0,0,0,0,0,0,0,0,0,0,0,0,0,0,0,0,0,0,0,0,0,0,0,0,0,0,0,0,0,0],"sum_hessian":[2.1487153E3,9.9340265E2,1.1553126E3,2.6795145E1,9.6660754E2,1.3528098E2,1.0200317E3,6.9741826E0,1.9820961E1,9.46225E2,2.0382534E1,4.946044E1,8.582054E1,1.2916974E2,8.9086194E2,3.4900591E0,3.4841235E0,1.8590553E1,1.2304084E0,1.5213934E2,7.9408563E2,9.4506235E0,1.093191E1,4.7899876E0,4.4670452E1,1.1360594E1,7.4459946E1,1.1623422E2,1.293551E1,2.2060384E2,6.702581E2,1.988605E0,1.4955186E0,2.9912496E0,1.5599304E1,1.0260364E2,4.9535706E1,1.7818192E1,7.7626746E2,7.703874E0,1.7467498E0,5.9714684E0,4.9604416E0,1.5624874E1,2.9045578E1,9.117971E0,2.2426226E0,6.497529E1,9.484653E0,6.1432632E1,5.480159E1,1.1189363E1,1.7461474E0,2.0237836E2,1.8225483E1,4.2689688E2,2.4336125E2,1.4961678E0,1.4950817E0,1.3609354E1,1.9899502E0,8.459683E0,9.414395E1,1.7170303E1,3.2365402E1,1.5576639E1,2.241553E0,4.7922263E2,2.970448E2,1.98559E0,3.9858785E0,1.497073E0,3.4633684E0,1.2264914E1,3.359961E0,6.3309817E0,2.2714598E1,7.8890166E0,1.2289546E0,2.6270098E1,3.8705193E1,2.445043E0,7.0396104E0,3.300715E1,2.8425484E1,3.4676353E1,2.0125237E1,7.95673E0,3.2326326E0,4.581125E1,1.5656711E2,1.553593E1,2.6895533E0,1.1833087E2,3.08566E2,2.0973647E2,3.3624783E1],"tree_param":{"num_deleted":"0","num_feature":"29","num_nodes":"97","size_leaf_vector":"1"}},{"base_weights":[-8.434003E-4,8.533107E-2,-1.365444E-1,-1.8312013E-1,1.4112085E-1,-7.2404236E-1,-5.0953683E-2,3.1270015E-1,-3.9872977E-1,2.9140574E-1,5.684751E-2,-9.203385E-1,-2.6257088E-2,2.8386688E-1,-1.2377722E-1,-3.4457546E-1,4.0747392E-1,-5.8131176E-1,-1.1388286E-2,1.02095995E-2,6.1999863E-1,-2.2899555E-1,1.3032426E-1,-2.347783E-1,-1.1587443E0,-8.617883E-1,1.9596325E-1,7.9461944E-1,-1.01137474E-1,-3.757793E-1,-1.1578896E-2,9.4079053E-1,1.073867E-1,3.9263892E-1,-6.797502E-1,-4.1695246E-1,4.6873543E-1,2.4199578E-1,-5.7109064E-1,9.624446E-1,3.8510686E-1,-1.2043548E-1,-8.909793E-1,-1.997647E-1,2.2754836E-1,5.9177554E-1,-5.4715073E-1,1.8733624E-1,-1.2220355E0,-3.780778E-1,-3.1824104E-2,1.0624607E0,-1.813252E-1,3.064488E-2,1.2223257E0,3.7319115E-1,-4.7553557E-1,-2.3257744E-2,-5.8067954E-1,-2.760821E-1,1.8316187E-1,6.1485145E-2,3.9102867E-1,-1.1662906E-1,1.7553116E-1,-2.5469837E-1,3.2129455E-1,-1.2204755E-1,-2.887792E-1,7.49748E-2,-3.0721092E-1,3.5858282E-1,-4.438918E-2,-1.3921626E-1,1.1625671E-1,-2.9671443E-1,4.122456E-2,3.5741186E-1,3.858746E-2,-1.3486352E-2,1.9785498E-1,2.4032528E-2,-1.3909706E-1,-5.5022286E-3,-4.403317E-1,1.9841824E-1,-1.0579296E-1,2.8790432E-1,5.6399528E-2,3.6501038E-1,-2.9398724E-1,-2.7935627E-1,1.4785148E-1,2.7258923E-2,-3.8439307E-1,-7.299924E-2,4.5193234E-1,8.201708E-2,-2.0344624E-1,-1.4535317E-1,2.6062715E-1,5.1380515E-1,1.3195188E-1,4.2079918E-2,5.151958E-1,3.225309E-2,-2.566305E-1,-3.149074E-1,7.7422746E-2,-1.282573E-1,-3.617236E-1,-1.07972875E-1,1.7899896E-1,2.2089483E-1,2.7523888E-2],"categories":[],"categories_nodes":[],"categories_segments":[],"categories_sizes":[],"default_left":[0,0,0,0,0,0,0,0,0,0,0,0,0,0,0,0,0,0,0,0,0,0,0,0,0,0,0,0,0,0,0,0,0,0,0,0,0,0,0,0,0,0,0,0,0,0,0,0,0,0,0,0,0,0,0,0,0,0,0,0,0,0,0,0,0,0,0,0,0,0,0,0,0,0,0,0,0,0,0,0,0,0,0,0,0,0,0,0,0,0,0,0,0,0,0,0,0,0,0,0,0,0,0,0,0,0,0,0,0,0,0,0,0,0,0],"id":2,"left_children":[1,3,5,7,9,11,13,15,17,19,21,23,25,27,29,-1,31,33,35,37,39,41,43,45,47,49,51,53,55,57,59,61,63,65,67,69,71,73,75,77,79,81,83,85,87,89,91,-1,93,-1,-1,95,97,99,101,103,105,107,109,111,113,-1,-1,-1,-1,-1,-1,-1,-1,-1,-1,-1,-1,-1,-1,-1,-1,-1,-1,-1,-1,-1,-1,-1,-1,-1,-1,-1,-1,-1,-1,-1,-1,-1,-1,-1,-1,-1,-1,-1,-1,-1,-1,-1,-1,-1,-1,-1,-1,-1,-1,-1,-1,-1,-1],"loss_changes":[2.488122E1,1.9515568E1,4.151694E1,2.4107948E1,1.3636061E1,1.4358948E1,1.7648535E1,9.9618225E0,1.1082037E1,3.575766E1,1.4562112E1,1.31176605E1,4.6405644E0,2.551624E1,1.6791042E1,0E0,1.0319984E1,1.0481583E1,1.0175007E1,2.8377703E1,1.3985161E1,1.0086913E1,1.7730652E1,6.105334E0,7.5946884E0,1.4457157E0,6.6783476E0,1.8165901E1,1.3432967E1,1.320244E1,2.1275192E1,5.9549103E0,1.0371255E1,9.680307E0,7.10635E0,1.17177925E1,1.0902833E1,1.564809E1,1.7916796E1,1.3579872E1,1.271917E1,8.50496E0,9.953612E0,1.681012E1,1.2159206E1,7.6964993E0,7.156931E0,0E0,4.69191E0,0E0,0E0,3.9399247E0,3.5007498E0,9.4966135E0,1.2940479E1,1.0243269E1,9.429237E0,1.9993141E1,1.0557705E1,1.3027116E1,1.1963531E1,0E0,0E0,0E0,0E0,0E0,0E0,0E0,0E0,0E0,0E0,0E0,0E0,0E0,0E0,0E0,0E0,0E0,0E0,0E0,0E0,0E0,0E0,0E0,0E0,0E0,0E0,0E0,0E0,0E0,0E0,0E0,0E0,0E0,0E0,0E0,0E0,0E0,0E0,0E0,0E0,0E0,0E0,0E0,0E0,0E0,0E0,0E0,0E0,0E0,0E0,0E0,0E0,0E0,0E0],"parents":[2147483647,0,0,1,1,2,2,3,3,4,4,5,5,6,6,7,7,8,8,9,9,10,10,11,11,12,12,13,13,14,14,16,16,17,17,18,18,19,19,20,20,21,21,22,22,23,23,24,24,25,25,26,26,27,27,28,28,29,29,30,30,31,31,32,32,33,33,34,34,35,35,36,36,37,37,38,38,39,39,40,40,41,41,42,42,43,43,44,44,45,45,46,46,48,48,51,51,52,52,53,53,54,54,55,55,56,56,57,57,58,58,59,59,60,60],"right_children":[2,4,6,8,10,12,14,16,18,20,22,24,26,28,30,-1,32,34,36,38,40,42,44,46,48,50,52,54,56,58,60,62,64,66,68,70,72,74,76,78,80,82,84,86,88,90,92,-1,94,-1,-1,96,98,100,102,104,106,108,110,112,114,-1,-1,-1,-1,-1,-1,-1,-1,-1,-1,-1,-1,-1,-1,-1,-1,-1,-1,-1,-1,-1,-1,-1,-1,-1,-1,-1,-1,-1,-1,-1,-1,-1,-1,-1,-1,-1,-1,-1,-1,-1,-1,-1,-1,-1,-1,-1,-1,-1,-1,-1,-1,-1,-1],"split_conditions":[-2.7033128E-2,-6.758433E-1,-6.7044085E-1,-4.6700317E-1,-5.410502E-1,2.5472507E-1,-5.30208E-1,-1.0605845E0,2.4252659E-1,-9.507416E-1,-8.736236E-1,-7.178239E-1,1.0093435E-1,-3.7461632E-1,-5.1782805E-1,-3.4457546E-1,3.125179E-1,-1.3922657E0,-9.4791317E-1,-3.4236434E-1,-1.2001991E0,-1.8444268E-1,-6.043553E-1,-6.790125E-1,-1.789701E0,1.0733801E0,8.9774793E-1,-7.516464E-1,-1.3431892E-1,2.3650314E-1,9.20381E-1,-5.3915876E-1,1.9858699E0,-1.3925053E0,-5.825591E-1,2.5577298E-1,4.6417058E-1,-4.8941103E-1,9.9761076E-2,-3.064E-1,-8.80803E-1,8.373358E-2,-8.144877E-1,-7.293671E-1,-5.9833086E-1,7.741925E-2,-7.965385E-1,1.8733624E-1,-1.5629215E0,-3.780778E-1,-3.1824104E-2,-5.0851756E-1,2.9683822E-1,7.5935096E-2,3.63775E-1,1.5474759E0,-6.6121334E-1,-2.0902469E-3,1.0443773E0,2.3606708E0,-3.6512533E-1,6.1485145E-2,3.9102867E-1,-1.1662906E-1,1.7553116E-1,-2.5469837E-1,3.2129455E-1,-1.2204755E-1,-2.887792E-1,7.49748E-2,-3.0721092E-1,3.5858282E-1,-4.438918E-2,-1.3921626E-1,1.1625671E-1,-2.9671443E-1,4.122456E-2,3.5741186E-1,3.858746E-2,-1.3486352E-2,1.9785498E-1,2.4032528E-2,-1.3909706E-1,-5.5022286E-3,-4.403317E-1,1.9841824E-1,-1.0579296E-1,2.8790432E-1,5.6399528E-2,3.6501038E-1,-2.9398724E-1,-2.7935627E-1,1.4785148E-1,2.7258923E-2,-3.8439307E-1,-7.299924E-2,4.5193234E-1,8.201708E-2,-2.0344624E-1,-1.4535317E-1,2.6062715E-1,5.1380515E-1,1.3195188E-1,4.2079918E-2,5.151958E-1,3.225309E-2,-2.566305E-1,-3.149074E-1,7.7422746E-2,-1.282573E-1,-3.617236E-1,-1.07972875E-1,1.7899896E-1,2.2089483E-1,2.7523888E-2],"split_indices":[17,25,28,17,18,0,14,28,28,28,28,14,16,24,16,0,24,26,25,17,26,14,16,1,4,2,8,15,25,17,28,2,18,26,16,20,14,25,25,14,28,4,17,17,25,3,28,0,15,0,0,1,5,28,17,9,14,28,5,9,14,0,0,0,0,0,0,0,0,0,0,0,0,0,0,0,0,0,0,0,0,0,0,0,0,0,0,0,0,0,0,0,0,0,0,0,0,0,0,0,0,0,0,0,0,0,0,0,0,0,0,0,0,0,0],"split_type":[0,0,0,0,0,0,0,0,0,0,0,0,0,0,0,0,0,0,0,0,0,0,0,0,0,0,0,0,0,0,0,0,0,0,0,0,0,0,0,0,0,0,0,0,0,0,0,0,0,0,0,0,0,0,0,0,0,0,0,0,0,0,0,0,0,0,0,0,0,0,0,0,0,0,0,0,0,0,0,0,0,0,0,0,0,0,0,0,0,0,0,0,0,0,0,0,0,0,0,0,0,0,0,0,0,0,0,0,0,0,0,0,0,0,0],"sum_hessian":[2.1257014E3,1.3003248E3,8.253765E2,2.2334471E2,1.0769801E3,1.0400729E2,7.2136926E2,6.755154E1,1.5579318E2,3.8606015E2,6.909199E2,8.092351E1,2.3083788E1,1.2835121E2,5.9301807E2,3.4370823E0,6.4114456E1,1.0554258E2,5.02506E1,2.0858925E2,1.7747092E2,1.4085234E2,5.500676E2,2.1392365E1,5.953114E1,4.2449656E0,1.8838821E1,5.4709225E1,7.364199E1,1.8196588E2,4.1105215E2,2.2317183E1,4.179727E1,9.413793E0,9.612879E1,2.7311737E1,2.293886E1,1.495441E2,5.9045143E1,7.094445E1,1.0652647E2,1.220234E2,1.8828936E1,1.2491378E2,4.2515384E2,5.621946E0,1.5770419E1,1.7366107E0,5.779453E1,2.3422737E0,1.902692E0,5.163668E0,1.3675153E1,2.0020317E1,3.4688908E1,3.2487053E1,4.115494E1,6.729735E1,1.1466853E2,1.7412808E2,2.3692407E2,7.884228E0,1.4432953E1,2.0594414E1,2.1202856E1,3.2370856E0,6.176707E0,5.0163395E1,4.5965393E1,1.3295384E1,1.4016354E1,1.0100805E1,1.2838056E1,2.5181662E1,1.2436244E2,3.688827E1,2.215687E1,5.532575E1,1.5618701E1,4.182053E1,6.470594E1,7.750431E1,4.451909E1,7.903466E0,1.092547E1,1.83308E1,1.06582985E2,2.0597431E1,4.045564E2,4.1841865E0,1.4377596E0,1.1593795E1,4.1766243E0,2.4735665E0,5.5320965E1,1.4248813E0,3.738787E0,7.375011E0,6.3001423E0,1.2660374E1,7.3599434E0,2.0594341E1,1.40945635E1,2.8630081E1,3.8569696E0,1.6519245E1,2.4635696E1,1.3889817E1,5.3407536E1,9.345413E1,2.1214403E1,1.5940482E2,1.4723268E1,3.260105E1,2.0432303E2],"tree_param":{"num_deleted":"0","num_feature":"29","num_nodes":"115","size_leaf_vector":"1"}},{"base_weights":[-1.4123745E-3,5.8928907E-2,-1.4002544E-1,1.07644826E-1,-8.69544E-2,-3.1524196E-1,2.0822812E-2,2.584108E-1,2.4698345E-2,-2.2516601E-1,1.411025E-1,-4.6330255E-1,9.957388E-2,1.7845716E-1,-4.6013892E-1,-2.8551924E-3,3.9806765E-1,-1.0019993E-1,1.8337308E-1,1.0303717E-2,-5.1143855E-1,4.1262498E-1,-1.8269084E-1,-3.078022E-2,-5.9686553E-1,5.494306E-1,-5.4040782E-2,8.2292175E-1,-1.3208811E-3,-8.6196765E-2,-8.752163E-1,-3.0347472E-1,3.129422E-1,1.0033234E0,2.7451748E-1,-1.4417315E-1,4.724805E-1,9.484246E-2,5.1243734E-1,-1.6354585E-1,4.5007706E-1,-1.2104696E0,-3.9572668E-1,6.022181E-1,-4.3672472E-1,-4.1950727E-1,5.5421543E-1,4.4406006E-1,-7.973371E-1,-1.695104E-1,-7.329122E-1,6.996153E-1,-2.4935333E-1,-5.3315973E-1,1.6109024E-1,1.302225E0,3.7371692E-1,-1.5054733E-1,5.365847E-1,-3.9252016E-1,8.1082016E-1,-1.4189528E0,-3.66735E-1,-1.201813E-2,-3.9755055E-1,2.0129715E-1,2.399379E-4,3.2456008E-1,-6.989892E-2,1.5436047E-1,1.8128054E-2,3.6102567E-2,-7.826697E-2,2.664025E-1,-4.9768955E-2,6.413214E-2,-2.0953286E-1,8.406988E-2,3.4504366E-1,7.996262E-2,-1.3583013E-1,-1.782825E-1,1.9558217E-1,1.2918471E-1,-4.5737767E-1,-1.5001882E-2,-2.2345275E-1,3.0623907E-3,2.7131316E-1,8.9710906E-2,-2.1838872E-1,7.380284E-2,-2.2606142E-1,3.0622652E-1,-1.4452136E-1,-5.49545E-2,2.7710596E-1,-4.0288204E-1,-1.1321632E-1,2.4611427E-1,-1.18254766E-1,-2.921352E-1,-7.175722E-2,5.4531638E-2,4.243426E-1,-3.649699E-1,-2.4539907E-2,1.9232644E-1,-5.611192E-2,5.1720744E-1,8.527721E-2,-1.917329E-1,2.0145176E-1,-1.1936132E-1,7.6266326E-2,2.0099069E-1,-2.5403765E-1,-2.203781E-1,2.0192052E-1,-7.088574E-2,4.455205E-1,-4.6209583E-1,-4.820003E-3,-2.750514E-1,4.6183426E-2],"categories":[],"categories_nodes":[],"categories_segments":[],"categories_sizes":[],"default_left":[0,0,0,0,0,0,0,0,0,0,0,0,0,0,0,0,0,0,0,0,0,0,0,0,0,0,0,0,0,0,0,0,0,0,0,0,0,0,0,0,0,0,0,0,0,0,0,0,0,0,0,0,0,0,0,0,0,0,0,0,0,0,0,0,0,0,0,0,0,0,0,0,0,0,0,0,0,0,0,0,0,0,0,0,0,0,0,0,0,0,0,0,0,0,0,0,0,0,0,0,0,0,0,0,0,0,0,0,0,0,0,0,0,0,0,0,0,0,0,0,0,0,0,0,0],"id":3,"left_children":[1,3,5,7,9,11,13,15,17,19,21,23,25,27,29,31,33,35,37,39,41,43,45,47,49,51,53,55,57,59,61,63,65,67,69,71,73,75,77,79,81,83,85,87,89,91,93,95,97,99,101,103,-1,105,107,109,111,113,115,117,119,121,123,-1,-1,-1,-1,-1,-1,-1,-1,-1,-1,-1,-1,-1,-1,-1,-1,-1,-1,-1,-1,-1,-1,-1,-1,-1,-1,-1,-1,-1,-1,-1,-1,-1,-1,-1,-1,-1,-1,-1,-1,-1,-1,-1,-1,-1,-1,-1,-1,-1,-1,-1,-1,-1,-1,-1,-1,-1,-1,-1,-1,-1,-1],"loss_changes":[1.7587212E1,1.042079E1,1.7979908E1,1.373329E1,1.1609037E1,1.8796665E1,2.5361956E1,1.4225033E1,1.408655E1,1.5447416E1,1.2314751E1,1.29892235E1,5.6360493E0,2.9180546E1,1.2743235E1,1.30806465E1,1.872179E1,1.0087099E1,9.070034E0,9.758455E0,7.885275E0,1.2505539E1,1.1434168E1,2.007527E1,9.875046E0,4.8820677E0,6.413315E0,1.1340771E1,1.5967482E1,1.2561062E1,1.0270969E1,1.8943163E1,7.50997E0,4.397461E0,1.0880796E1,1.1462209E1,7.735042E0,2.3535646E1,9.47028E0,1.1504808E1,8.009631E0,7.976948E0,1.0850488E1,1.1183844E1,3.3147752E0,1.1110847E1,8.245042E0,1.0427416E1,4.3236017E0,9.848998E0,1.5245537E1,6.8686113E0,0E0,5.8397913E0,7.327516E0,1.0748405E1,9.404886E0,1.5689622E1,8.53884E0,1.2846607E1,8.588787E0,3.1273727E0,6.3044996E0,0E0,0E0,0E0,0E0,0E0,0E0,0E0,0E0,0E0,0E0,0E0,0E0,0E0,0E0,0E0,0E0,0E0,0E0,0E0,0E0,0E0,0E0,0E0,0E0,0E0,0E0,0E0,0E0,0E0,0E0,0E0,0E0,0E0,0E0,0E0,0E0,0E0,0E0,0E0,0E0,0E0,0E0,0E0,0E0,0E0,0E0,0E0,0E0,0E0,0E0,0E0,0E0,0E0,0E0,0E0,0E0,0E0,0E0,0E0,0E0,0E0,0E0],"parents":[2147483647,0,0,1,1,2,2,3,3,4,4,5,5,6,6,7,7,8,8,9,9,10,10,11,11,12,12,13,13,14,14,15,15,16,16,17,17,18,18,19,19,20,20,21,21,22,22,23,23,24,24,25,25,26,26,27,27,28,28,29,29,30,30,31,31,32,32,33,33,34,34,35,35,36,36,37,37,38,38,39,39,40,40,41,41,42,42,43,43,44,44,45,45,46,46,47,47,48,48,49,49,50,50,51,51,53,53,54,54,55,55,56,56,57,57,58,58,59,59,60,60,61,61,62,62],"right_children":[2,4,6,8,10,12,14,16,18,20,22,24,26,28,30,32,34,36,38,40,42,44,46,48,50,52,54,56,58,60,62,64,66,68,70,72,74,76,78,80,82,84,86,88,90,92,94,96,98,100,102,104,-1,106,108,110,112,114,116,118,120,122,124,-1,-1,-1,-1,-1,-1,-1,-1,-1,-1,-1,-1,-1,-1,-1,-1,-1,-1,-1,-1,-1,-1,-1,-1,-1,-1,-1,-1,-1,-1,-1,-1,-1,-1,-1,-1,-1,-1,-1,-1,-1,-1,-1,-1,-1,-1,-1,-1,-1,-1,-1,-1,-1,-1,-1,-1,-1,-1,-1,-1,-1,-1],"split_conditions":[7.741925E-2,6.9640666E-1,1.1045572E0,-4.89189E-1,-6.8006057E-1,7.7090913E-1,8.047279E-1,-9.853548E-1,3.1750612E-2,-5.0975275E-1,1.824825E-1,-4.5768532E-1,-4.725914E-1,-2.423013E-1,7.80035E-2,-4.7206727E-1,-4.6183556E-1,1.1725948E0,9.9990535E-1,5.426641E-1,-9.8174083E-1,2.3793593E-1,8.5098124E-1,2.3650314E-1,-1.335633E0,2.98334E0,-1.0531438E-1,9.367934E-1,6.101058E-1,8.7385494E-1,-2.3925205E-1,-5.719165E-1,-6.7670923E-1,1.1754099E0,-5.076972E-1,-5.37876E-1,2.611627E-1,1.5471542E-1,1.5640213E0,-2.365953E-1,-9.065105E-1,-1.3217306E0,-5.876816E-1,7.6336235E-1,-5.809001E-1,-6.3100386E-1,-1.8766183E-1,-6.0303843E-1,1.996943E-1,-6.820491E-1,-2.1609532E-2,-1.5147872E-1,-2.4935333E-1,9.728194E-1,1.0246427E0,6.4948976E-1,-6.712504E-1,8.239493E-1,2.0495114E0,2.0556214E0,-1.2186971E-1,2.699446E0,-1.895533E-1,-1.201813E-2,-3.9755055E-1,2.0129715E-1,2.399379E-4,3.2456008E-1,-6.989892E-2,1.5436047E-1,1.8128054E-2,3.6102567E-2,-7.826697E-2,2.664025E-1,-4.9768955E-2,6.413214E-2,-2.0953286E-1,8.406988E-2,3.4504366E-1,7.996262E-2,-1.3583013E-1,-1.782825E-1,1.9558217E-1,1.2918471E-1,-4.5737767E-1,-1.5001882E-2,-2.2345275E-1,3.0623907E-3,2.7131316E-1,8.9710906E-2,-2.1838872E-1,7.380284E-2,-2.2606142E-1,3.0622652E-1,-1.4452136E-1,-5.49545E-2,2.7710596E-1,-4.0288204E-1,-1.1321632E-1,2.4611427E-1,-1.18254766E-1,-2.921352E-1,-7.175722E-2,5.4531638E-2,4.243426E-1,-3.649699E-1,-2.4539907E-2,1.9232644E-1,-5.611192E-2,5.1720744E-1,8.527721E-2,-1.917329E-1,2.0145176E-1,-1.1936132E-1,7.6266326E-2,2.0099069E-1,-2.5403765E-1,-2.203781E-1,2.0192052E-1,-7.088574E-2,4.455205E-1,-4.6209583E-1,-4.820003E-3,-2.750514E-1,4.6183426E-2],"split_indices":[3,22,28,18,28,6,17,28,16,3,17,14,17,14,15,16,17,23,28,2,28,14,17,17,26,9,17,7,16,26,22,16,14,7,23,17,5,17,16,15,4,2,24,22,3,18,3,28,28,18,18,16,0,18,3,3,16,26,27,11,13,12,1,0,0,0,0,0,0,0,0,0,0,0,0,0,0,0,0,0,0,0,0,0,0,0,0,0,0,0,0,0,0,0,0,0,0,0,0,0,0,0,0,0,0,0,0,0,0,0,0,0,0,0,0,0,0,0,0,0,0,0,0,0,0],"split_type":[0,0,0,0,0,0,0,0,0,0,0,0,0,0,0,0,0,0,0,0,0,0,0,0,0,0,0,0,0,0,0,0,0,0,0,0,0,0,0,0,0,0,0,0,0,0,0,0,0,0,0,0,0,0,0,0,0,0,0,0,0,0,0,0,0,0,0,0,0,0,0,0,0,0,0,0,0,0,0,0,0,0,0,0,0,0,0,0,0,0,0,0,0,0,0,0,0,0,0,0,0,0,0,0,0,0,0,0,0,0,0,0,0,0,0,0,0,0,0,0,0,0,0,0,0],"sum_hessian":[2.1007183E3,1.4639875E3,6.367308E2,1.0976898E3,3.6629773E2,3.042944E2,3.3243637E2,3.888284E2,7.088614E2,2.28083E2,1.3821475E2,2.2416582E2,8.012859E1,2.5084976E2,8.15866E1,1.3578511E2,2.5304329E2,3.9685324E2,3.1200815E2,1.2567483E2,1.02408165E2,7.502603E1,6.318872E1,5.3180317E1,1.709855E2,1.974097E1,6.0387623E1,5.393331E1,1.9691646E2,4.3555355E1,3.8031246E1,6.958425E1,6.620087E1,4.1689793E1,2.113535E2,3.6924878E2,2.7604488E1,2.4687717E2,6.5131E1,9.051922E1,3.515561E1,1.320059E1,8.920757E1,6.157266E1,1.3453374E1,4.8146732E1,1.504199E1,3.309838E1,2.0081938E1,4.1830826E1,1.2915468E2,1.8249065E1,1.4919058E0,1.825455E1,4.213307E1,2.5173807E1,2.8759504E1,1.5471527E2,4.2201187E1,3.288711E1,1.0668243E1,1.7513205E1,2.051804E1,5.6147457E1,1.3436793E1,3.029772E1,3.590315E1,3.9316914E1,2.3728757E0,9.898164E1,1.1237185E2,1.1303854E2,2.5621024E2,1.6483877E1,1.1120609E1,2.1532553E2,3.1551628E1,4.880089E1,1.6330105E1,3.6427677E1,5.409154E1,5.3796644E0,2.9775944E1,2.0612185E0,1.1139371E1,4.539616E1,4.3811417E1,2.1156069E1,4.0416588E1,3.8075314E0,9.645843E0,1.617783E1,3.19689E1,1.0381412E1,4.6605787E0,1.46099615E1,1.8488419E1,7.7783523E0,1.2303585E1,7.247471E0,3.4583355E1,8.615158E1,4.30031E1,1.1310231E1,6.938833E0,6.586525E0,1.1668026E1,1.7358221E1,2.477485E1,1.7308397E1,7.8654103E0,6.2741075E0,2.2485397E1,9.604586E1,5.866941E1,3.8960354E1,3.2408319E0,2.5130411E1,7.7567005E0,4.4331408E0,6.2351027E0,1.6028576E1,1.4846292E0,9.60715E0,1.0910891E1],"tree_param":{"num_deleted":"0","num_feature":"29","num_nodes":"125","size_leaf_vector":"1"}},{"base_weights":[-2.005886E-3,7.9649344E-2,-6.5641485E-2,2.2919899E-1,-1.0761685E-2,-4.7245485E-1,-3.456912E-2,1.4268862E-1,7.2165066E-1,3.2270074E-1,-5.559237E-2,-8.2615507E-1,-1.3605136E-1,1.9209266E-1,-7.984257E-2,2.2273818E-1,-2.6558846E-1,3.6417287E-2,8.919729E-1,4.2427817E-1,-3.7103617E-1,1.978794E-2,-2.6611122E-1,-9.7050333E-1,3.902993E-1,1.9903028E-1,-7.511038E-1,2.5803623E-1,-9.437312E-1,-3.2689232E-1,-1.6524281E-2,5.395013E-1,1.2033879E-1,3.240849E-1,-5.888335E-1,-9.735219E-1,5.856937E-1,1.2651184E0,4.378851E-1,1.6307732E-1,1.1106893E0,-3.4345865E-1,8.609945E-2,1.3824521E-1,-5.244998E-1,-5.2956E-1,-1.3185812E0,9.5986575E-1,-2.1272694E-1,6.5807563E-1,-3.4428835E-1,-9.537326E-1,1.6480722E-1,7.791968E-1,1.3919275E-1,-1.241425E0,1.9963576E-1,2.18793E-1,-4.1433236E-1,-1.1044548E-1,1.2237305E-1,2.2900288E-1,-3.1064635E-2,-1.2044519E-1,7.0448555E-2,-8.24164E-2,3.0424386E-1,-2.1771654E-1,2.3875211E-1,-5.081851E-2,-3.8389108E-1,3.9974082E-1,-1.0917462E-1,-8.3937615E-2,4.1054192E-1,2.8713322E-1,-1.5936893E-1,1.1041718E-1,-2.803296E-1,3.9983526E-1,-1.4599173E-1,1.0366843E-1,-1.6885486E-1,1.5283968E-1,-1.5505922E-3,-1.8518528E-1,1.21687524E-1,-1.8851481E-1,4.2517513E-1,1.489046E-1,-3.0372256E-1,-5.5166487E-2,-4.4402173E-1,8.909389E-2,3.4998912E-1,4.2290375E-1,9.284948E-2,2.033436E-1,-2.5991312E-1,-3.6004934E-1,8.038213E-3,3.0965218E-1,2.4225188E-3,-1.12616464E-1,7.820666E-2,-4.3403247E-1,-1.2901884E-1,1.3060582E-1,-2.8887028E-1,-1.7194256E-1,-2.3733309E-2,-6.2046345E-2,2.9266594E-2,8.181836E-2,-3.3191472E-2],"categories":[],"categories_nodes":[],"categories_segments":[],"categories_sizes":[],"default_left":[0,0,0,0,0,0,0,0,0,0,0,0,0,0,0,0,0,0,0,0,0,0,0,0,0,0,0,0,0,0,0,0,0,0,0,0,0,0,0,0,0,0,0,0,0,0,0,0,0,0,0,0,0,0,0,0,0,0,0,0,0,0,0,0,0,0,0,0,0,0,0,0,0,0,0,0,0,0,0,0,0,0,0,0,0,0,0,0,0,0,0,0,0,0,0,0,0,0,0,0,0,0,0,0,0,0,0,0,0,0,0,0,0,0,0],"id":4,"left_children":[1,3,5,7,9,11,13,15,17,19,21,23,25,27,29,31,33,35,37,39,-1,41,43,45,47,49,51,53,55,57,59,61,63,65,67,69,71,73,75,77,79,81,83,85,87,89,91,93,-1,95,97,99,-1,101,103,105,-1,107,109,111,113,-1,-1,-1,-1,-1,-1,-1,-1,-1,-1,-1,-1,-1,-1,-1,-1,-1,-1,-1,-1,-1,-1,-1,-1,-1,-1,-1,-1,-1,-1,-1,-1,-1,-1,-1,-1,-1,-1,-1,-1,-1,-1,-1,-1,-1,-1,-1,-1,-1,-1,-1,-1,-1,-1],"loss_changes":[1.0772032E1,1.2279333E1,1.4710941E1,1.4473448E1,8.491789E0,9.715195E0,1.1133724E1,9.611338E0,5.90563E0,1.1189074E1,7.9479375E0,7.4139347E0,9.120608E0,1.3776325E1,1.4132532E1,7.8789196E0,9.410082E0,6.767389E0,6.3435364E0,1.1284419E1,0E0,8.929403E0,1.3867716E1,4.8427544E0,3.7884128E0,7.451559E0,4.6244125E0,1.0516676E1,5.678293E0,8.885973E0,9.41232E0,8.649628E0,1.122825E1,7.6217537E0,6.566531E0,8.4443235E-1,6.059046E0,3.866333E0,1.0517657E1,1.1028606E1,6.840885E0,8.846811E0,1.2106274E1,1.08094015E1,1.7182362E1,9.219622E0,3.3018684E0,1.5986943E-1,0E0,3.7675042E0,8.016956E0,3.37362E0,0E0,6.1634274E0,8.90756E0,8.600817E-1,0E0,7.1014915E0,8.4309025E0,8.647074E0,1.0229319E1,0E0,0E0,0E0,0E0,0E0,0E0,0E0,0E0,0E0,0E0,0E0,0E0,0E0,0E0,0E0,0E0,0E0,0E0,0E0,0E0,0E0,0E0,0E0,0E0,0E0,0E0,0E0,0E0,0E0,0E0,0E0,0E0,0E0,0E0,0E0,0E0,0E0,0E0,0E0,0E0,0E0,0E0,0E0,0E0,0E0,0E0,0E0,0E0,0E0,0E0,0E0,0E0,0E0,0E0],"parents":[2147483647,0,0,1,1,2,2,3,3,4,4,5,5,6,6,7,7,8,8,9,9,10,10,11,11,12,12,13,13,14,14,15,15,16,16,17,17,18,18,19,19,21,21,22,22,23,23,24,24,25,25,26,26,27,27,28,28,29,29,30,30,31,31,32,32,33,33,34,34,35,35,36,36,37,37,38,38,39,39,40,40,41,41,42,42,43,43,44,44,45,45,46,46,47,47,49,49,50,50,51,51,53,53,54,54,55,55,57,57,58,58,59,59,60,60],"right_children":[2,4,6,8,10,12,14,16,18,20,22,24,26,28,30,32,34,36,38,40,-1,42,44,46,48,50,52,54,56,58,60,62,64,66,68,70,72,74,76,78,80,82,84,86,88,90,92,94,-1,96,98,100,-1,102,104,106,-1,108,110,112,114,-1,-1,-1,-1,-1,-1,-1,-1,-1,-1,-1,-1,-1,-1,-1,-1,-1,-1,-1,-1,-1,-1,-1,-1,-1,-1,-1,-1,-1,-1,-1,-1,-1,-1,-1,-1,-1,-1,-1,-1,-1,-1,-1,-1,-1,-1,-1,-1,-1,-1,-1,-1,-1,-1],"split_conditions":[-3.6200532E-1,-1.28018E0,-8.877869E-1,-1.3587024E0,-4.2206362E-1,-3.8135868E-1,-5.6017643E-1,9.1354173E-1,-1.085176E0,1.6470999E0,-4.6645597E-1,-8.232034E-3,3.3743104E-1,1.5945252E0,-6.764376E-1,-1.3923919E0,-4.4539982E-1,-9.162865E-1,4.8015544E-1,3.0118343E-1,-3.7103617E-1,-1.0302163E0,-3.0219263E-1,-6.454417E-1,1.1509804E0,-4.2032972E-1,1.3537762E0,-2.3026782E-1,9.0006495E-1,-6.0992146E-1,3.04626E-1,-7.970144E-2,-1.0400751E0,-1.3917979E0,3.123245E-1,-5.3622556E-1,-4.4994304E-1,-1.1263462E0,-3.2717434E-1,1.2324146E0,2.905859E-1,-7.4210614E-1,-6.4080465E-1,-6.694899E-1,9.717562E-1,-6.1011225E-1,-1.4166361E0,7.7957326E-1,-2.1272694E-1,-7.182833E-1,-1.0302163E0,2.9014156E0,1.6480722E-1,4.7637743E-1,-1.4273544E-1,-5.6377895E-2,1.9963576E-1,-3.8607118E-1,-1.5996964E-1,1.3257266E0,7.6476026E-1,2.2900288E-1,-3.1064635E-2,-1.2044519E-1,7.0448555E-2,-8.24164E-2,3.0424386E-1,-2.1771654E-1,2.3875211E-1,-5.081851E-2,-3.8389108E-1,3.9974082E-1,-1.0917462E-1,-8.3937615E-2,4.1054192E-1,2.8713322E-1,-1.5936893E-1,1.1041718E-1,-2.803296E-1,3.9983526E-1,-1.4599173E-1,1.0366843E-1,-1.6885486E-1,1.5283968E-1,-1.5505922E-3,-1.8518528E-1,1.21687524E-1,-1.8851481E-1,4.2517513E-1,1.489046E-1,-3.0372256E-1,-5.5166487E-2,-4.4402173E-1,8.909389E-2,3.4998912E-1,4.2290375E-1,9.284948E-2,2.033436E-1,-2.5991312E-1,-3.6004934E-1,8.038213E-3,3.0965218E-1,2.4225188E-3,-1.12616464E-1,7.820666E-2,-4.3403247E-1,-1.2901884E-1,1.3060582E-1,-2.8887028E-1,-1.7194256E-1,-2.3733309E-2,-6.2046345E-2,2.9266594E-2,8.181836E-2,-3.3191472E-2],"split_indices":[14,26,28,26,22,25,17,22,5,15,14,14,1,1,16,26,15,28,5,25,0,28,17,18,15,18,4,13,26,18,15,3,15,26,25,0,3,28,0,7,3,3,24,3,16,24,4,26,0,3,28,0,0,16,24,25,0,25,25,28,2,0,0,0,0,0,0,0,0,0,0,0,0,0,0,0,0,0,0,0,0,0,0,0,0,0,0,0,0,0,0,0,0,0,0,0,0,0,0,0,0,0,0,0,0,0,0,0,0,0,0,0,0,0,0],"split_type":[0,0,0,0,0,0,0,0,0,0,0,0,0,0,0,0,0,0,0,0,0,0,0,0,0,0,0,0,0,0,0,0,0,0,0,0,0,0,0,0,0,0,0,0,0,0,0,0,0,0,0,0,0,0,0,0,0,0,0,0,0,0,0,0,0,0,0,0,0,0,0,0,0,0,0,0,0,0,0,0,0,0,0,0,0,0,0,0,0,0,0,0,0,0,0,0,0,0,0,0,0,0,0,0,0,0,0,0,0,0,0,0,0,0,0],"sum_hessian":[2.0710615E3,9.0698926E2,1.1640721E3,3.4115192E2,5.6583734E2,8.159456E1,1.0824777E3,2.9127292E2,4.987899E1,6.63216E1,4.9951575E2,3.9065063E1,4.25295E1,1.7967763E2,9.028E2,2.4390558E2,4.7367332E1,1.0171452E1,3.970754E1,6.2949326E1,3.3722742E0,3.684803E2,1.3103543E2,3.5101944E1,3.963119E0,2.7968573E1,1.45609255E1,1.7054874E2,9.128887E0,1.833313E2,7.194687E2,5.8542164E1,1.8536342E2,1.6770847E1,3.0596483E1,3.3110833E0,6.860368E0,2.0815992E1,1.8891548E1,4.6494354E1,1.6454973E1,5.623765E1,3.1224265E2,5.1268894E1,7.976654E1,1.6597588E1,1.8504354E1,2.6942196E0,1.2688993E0,1.5045523E1,1.292305E1,1.2828671E1,1.7322543E0,3.0637705E1,1.3991104E2,7.8965816E0,1.2323053E0,2.5112152E1,1.5821915E2,4.2935043E2,2.901183E2,4.3287125E1,1.5255039E1,3.2900833E1,1.5246259E2,9.301385E0,7.469463E0,2.827693E1,2.3195548E0,1.3412231E0,1.9698602E0,3.6146324E0,3.2457354E0,1.1982255E0,1.9617765E1,1.2309069E1,6.5824795E0,3.9737324E1,6.757029E0,1.4591734E1,1.8632392E0,1.3443097E1,4.2794556E1,5.4562233E1,2.5768042E2,1.3059189E1,3.8209705E1,7.635781E1,3.4087288E0,5.3027883E0,1.12948E1,2.571911E0,1.5932444E1,1.2198155E0,1.4744041E0,3.8024905E0,1.1243032E1,4.268425E0,8.654625E0,1.0073051E1,2.7556198E0,2.2814545E1,7.8231616E0,2.632504E1,1.1358599E2,5.676707E0,2.219875E0,2.1756582E1,3.3555708E0,1.06876945E2,5.13422E1,2.9340775E2,1.3594269E2,1.7623132E2,1.1388695E2],"tree_param":{"num_deleted":"0","num_feature":"29","num_nodes":"115","size_leaf_vector":"1"}},{"base_weights":[-1.777487E-3,4.3213105E-1,-1.251113E-2,-1.0839768E-1,7.6743954E-1,-2.9712971E-2,2.562735E-1,1.5179326E-1,-3.8678226E-1,9.7693187E-1,-3.2662234E-1,1.713089E-2,-1.5818712E-1,-3.603684E-1,4.216155E-1,-3.9813146E-1,1.1591831E0,1.2148699E0,1.9896603E-1,-5.6771647E-2,1.328276E-1,-6.786484E-1,-7.6331675E-2,-1.0930797E0,2.2470152E-1,2.3755293E-1,7.999548E-1,8.2014866E-2,-4.1558158E-1,-7.07744E-2,4.5589373E-1,1.3827583E0,1.0818246E-1,-2.9544935E-1,7.67295E-1,2.7744565E-2,-3.0346987E-1,4.7460705E-1,-9.191771E-2,-1.0101306E0,-7.911801E-3,1.1007346E-1,-2.1993719E-1,3.3891478E-1,-1.5188187E0,5.152171E-1,-5.9449035E-1,4.3774307E-1,1.2501475E-1,-2.4960048E-1,9.5158577E-1,-3.6466563E-1,2.2033316E-1,4.4245592E-1,1.1547763E-2,2.9394946E-1,-2.7510247E-1,3.767697E-1,-7.390744E-2,2.306144E-2,-1.2518413E-1,-4.063145E-2,-3.8518795E-1,2.0672809E-1,-2.5899036E-2,-9.6301414E-2,1.3297424E-2,-3.4401035E-1,2.1531127E-1,1.4906424E-1,-1.5026802E-1,1.8235412E-1,-1.4022396E-2,7.585719E-2,-8.7694734E-2,-1.1440541E-1,-5.0986975E-1,-1.5534648E-1,2.2939126E-1,-3.580285E-1,4.186834E-2,1.4183159E-1,-8.818799E-2,1.9453646E-1,-2.5661513E-1,8.817759E-2,3.5644907E-1],"categories":[],"categories_nodes":[],"categories_segments":[],"categories_sizes":[],"default_left":[0,0,0,0,0,0,0,0,0,0,0,0,0,0,0,0,0,0,0,0,0,0,0,0,0,0,0,0,0,0,0,0,0,0,0,0,0,0,0,0,0,0,0,0,0,0,0,0,0,0,0,0,0,0,0,0,0,0,0,0,0,0,0,0,0,0,0,0,0,0,0,0,0,0,0,0,0,0,0,0,0,0,0,0,0,0,0],"id":5,"left_children":[1,3,5,7,9,11,13,15,-1,17,-1,19,21,23,25,27,29,31,33,35,37,39,41,43,45,47,49,51,-1,-1,-1,53,55,-1,57,59,61,63,65,67,69,71,73,-1,75,77,79,-1,81,83,85,-1,-1,-1,-1,-1,-1,-1,-1,-1,-1,-1,-1,-1,-1,-1,-1,-1,-1,-1,-1,-1,-1,-1,-1,-1,-1,-1,-1,-1,-1,-1,-1,-1,-1,-1,-1],"loss_changes":[9.557191E0,9.061315E0,9.265608E0,6.291864E0,1.2999678E1,1.1333797E1,1.2442101E1,9.964155E0,0E0,4.961548E0,0E0,1.1812286E1,2.1384493E1,1.14029045E1,6.4615345E0,5.7255883E0,3.5331097E0,3.8135166E0,5.9895563E0,1.7588778E1,4.1403305E1,1.5167507E1,1.1693115E1,1.2812364E1,3.947695E0,8.84672E0,5.1452484E0,8.435578E0,0E0,0E0,0E0,2.2255363E0,4.378647E0,0E0,3.1909797E0,1.3782477E1,3.5287502E1,2.5778633E1,1.0179035E1,1.1600143E1,6.117576E0,1.48873E1,8.511178E0,0E0,1.4628086E0,3.4442904E0,2.1317744E0,0E0,9.060514E0,3.1034615E0,3.875454E0,0E0,0E0,0E0,0E0,0E0,0E0,0E0,0E0,0E0,0E0,0E0,0E0,0E0,0E0,0E0,0E0,0E0,0E0,0E0,0E0,0E0,0E0,0E0,0E0,0E0,0E0,0E0,0E0,0E0,0E0,0E0,0E0,0E0,0E0,0E0,0E0],"parents":[2147483647,0,0,1,1,2,2,3,3,4,4,5,5,6,6,7,7,9,9,11,11,12,12,13,13,14,14,15,15,16,16,17,17,18,18,19,19,20,20,21,21,22,22,23,23,24,24,25,25,26,26,27,27,31,31,32,32,34,34,35,35,36,36,37,37,38,38,39,39,40,40,41,41,42,42,44,44,45,45,46,46,48,48,49,49,50,50],"right_children":[2,4,6,8,10,12,14,16,-1,18,-1,20,22,24,26,28,30,32,34,36,38,40,42,44,46,48,50,52,-1,-1,-1,54,56,-1,58,60,62,64,66,68,70,72,74,-1,76,78,80,-1,82,84,86,-1,-1,-1,-1,-1,-1,-1,-1,-1,-1,-1,-1,-1,-1,-1,-1,-1,-1,-1,-1,-1,-1,-1,-1,-1,-1,-1,-1,-1,-1,-1,-1,-1,-1,-1,-1],"split_conditions":[-7.928273E-1,4.3816268E-1,1.5640213E0,9.070544E-1,3.0607352E-1,1.4843147E-1,-3.682765E-1,6.7630506E-1,-3.8678226E-1,1.0575498E0,-3.2662234E-1,-6.1004245E-1,-1.09969415E-1,1.8030275E0,9.60623E-1,1.1468426E0,-8.965023E-1,1.2667972E0,-1.0386734E0,-3.064E-1,1.3469278E-2,1.383818E-1,-2.8868535E-1,-2.0742649E-1,-6.6319126E-1,-1.5091069E0,-4.4896126E-1,-1.290262E0,-4.1558158E-1,-7.07744E-2,4.5589373E-1,1.41832E0,-5.9662926E-1,-2.9544935E-1,-9.3780005E-1,-2.7033128E-2,-2.3558944E-1,5.5119807E-1,6.9117707E-1,1.9239168E0,8.4856555E-2,3.1998667E-1,-4.6869415E-1,3.3891478E-1,-1.2538909E0,1.0020677E0,1.1282104E0,4.3774307E-1,1.4362772E-1,9.2663795E-2,-6.027334E-1,-3.6466563E-1,2.2033316E-1,4.4245592E-1,1.1547763E-2,2.9394946E-1,-2.7510247E-1,3.767697E-1,-7.390744E-2,2.306144E-2,-1.2518413E-1,-4.063145E-2,-3.8518795E-1,2.0672809E-1,-2.5899036E-2,-9.6301414E-2,1.3297424E-2,-3.4401035E-1,2.1531127E-1,1.4906424E-1,-1.5026802E-1,1.8235412E-1,-1.4022396E-2,7.585719E-2,-8.7694734E-2,-1.1440541E-1,-5.0986975E-1,-1.5534648E-1,2.2939126E-1,-3.580285E-1,4.186834E-2,1.4183159E-1,-8.818799E-2,1.9453646E-1,-2.5661513E-1,8.817759E-2,3.5644907E-1],"split_indices":[3,22,16,26,23,17,25,26,0,5,0,28,28,19,28,8,28,15,28,14,14,25,14,24,25,2,18,26,0,0,0,1,14,0,28,17,17,16,28,4,16,17,0,0,15,7,14,0,28,17,5,0,0,0,0,0,0,0,0,0,0,0,0,0,0,0,0,0,0,0,0,0,0,0,0,0,0,0,0,0,0,0,0,0,0,0,0],"split_type":[0,0,0,0,0,0,0,0,0,0,0,0,0,0,0,0,0,0,0,0,0,0,0,0,0,0,0,0,0,0,0,0,0,0,0,0,0,0,0,0,0,0,0,0,0,0,0,0,0,0,0,0,0,0,0,0,0,0,0,0,0,0,0,0,0,0,0,0,0,0,0,0,0,0,0,0,0,0,0,0,0,0,0,0,0,0,0],"sum_hessian":[2.0498745E3,4.8536163E1,2.0013384E3,1.8840828E1,2.9695335E1,1.8817955E3,1.1954282E2,1.6153147E1,2.6876814E0,2.7109402E1,2.585935E0,1.3796268E3,5.0216873E2,2.502663E1,9.451619E1,1.0840312E1,5.3128357E0,2.032996E1,6.779441E0,8.421827E2,5.374441E2,6.72544E1,4.3491434E2,1.0725846E1,1.4300784E1,6.467809E1,2.9838102E1,7.909862E0,2.9304497E0,1.1618092E0,4.1510262E0,1.7435478E1,2.8944812E0,1.961303E0,4.818138E0,6.279434E2,2.1423927E2,2.1276772E2,3.2467636E2,4.467148E1,2.2582926E1,1.893564E2,2.4555794E2,1.4583288E0,9.267518E0,1.0830837E1,3.469947E0,4.446459E0,6.0231632E1,3.6850336E0,2.6153069E1,2.357697E0,5.552165E0,1.6226658E1,1.2088218E0,1.5883019E0,1.3061793E0,3.0898004E0,1.7283376E0,5.6626044E2,6.168297E1,1.8386714E2,3.037214E1,1.537497E2,5.901802E1,1.2057595E2,2.0410042E2,4.1710926E1,2.960553E0,1.1153893E1,1.1429032E1,4.467365E1,1.4468275E2,3.2269867E1,2.1328807E2,1.6971254E0,7.5703926E0,1.8971605E0,8.933677E0,1.5662112E0,1.903736E0,3.2842945E1,2.7388689E1,1.456047E0,2.2289865E0,7.5122457E0,1.8640823E1],"tree_param":{"num_deleted":"0","num_feature":"29","num_nodes":"87","size_leaf_vector":"1"}},{"base_weights":[-2.0510287E-3,-1.8275891E-1,2.0503279E-2,-4.3376762E-2,-5.610271E-1,-1.324212E-2,2.0000963E-1,-1.5900238E-1,1.1282077E0,-1.0099732E0,-1.4445864E-2,5.490024E-2,-1.2257467E-1,3.2284594E-1,-3.724006E-1,-7.830012E-1,1.5167809E-3,1.3513142E-1,4.937588E-1,1.3821839E-1,-1.1152242E0,-3.012946E-1,7.896054E-1,-3.5378304E-1,8.2580574E-2,-2.2358909E-1,7.933324E-2,4.3101797E-1,-6.419659E-1,3.1784683E-1,-4.66782E-1,4.6460444E-1,-9.0871286E-1,8.57056E-2,-7.7735794E-1,-5.830438E-1,3.6377674E-1,-1.2800608E0,3.402627E-2,1.0498434E0,-5.870384E-1,1.2860745E0,-1.1171236E-1,-2.952533E-2,-8.65738E-1,2.6414886E-1,-2.8026279E-2,-6.874758E-2,-3.7695464E-1,6.3520193E-1,-1.11060655E-2,3.9117157E-1,4.9938363E-1,-1.8932381E-1,-1.0655589E0,4.6738565E-1,-5.937359E-1,-2.7065331E-2,2.3959996E-1,5.6068327E-2,-2.9274023E-1,7.899521E-2,-1.0973053E-1,3.8750154E-1,-3.579159E-1,1.6230239E-1,-3.4854192E-1,-4.1315457E-1,-5.6786265E-2,-3.1270048E-1,3.9113322E-1,1.09423675E-1,3.832346E-1,-2.6492304E-1,8.9494474E-2,4.5152354E-1,7.989931E-2,2.0021611E-1,-2.2664766E-1,-2.620897E-1,8.590941E-2,1.016275E-2,-3.900924E-1,1.5688294E-1,4.0054876E-2,-8.015472E-2,2.3280844E-2,-2.166373E-1,5.3443843E-3,1.1447287E-1,-1.3082741E-1,2.3727575E-1,-3.8410607E-1,-3.6138948E-2,1.3286828E-1,1.381269E-1,-7.441789E-2,-2.6593947E-1,3.012681E-1,-3.738893E-1,-3.4682356E-2,3.0715254E-1,-1.20251365E-1,-2.840519E-1,-8.253517E-2],"categories":[],"categories_nodes":[],"categories_segments":[],"categories_sizes":[],"default_left":[0,0,0,0,0,0,0,0,0,0,0,0,0,0,0,0,0,0,0,0,0,0,0,0,0,0,0,0,0,0,0,0,0,0,0,0,0,0,0,0,0,0,0,0,0,0,0,0,0,0,0,0,0,0,0,0,0,0,0,0,0,0,0,0,0,0,0,0,0,0,0,0,0,0,0,0,0,0,0,0,0,0,0,0,0,0,0,0,0,0,0,0,0,0,0,0,0,0,0,0,0,0,0,0,0],"id":6,"left_children":[1,3,5,7,9,11,13,15,17,19,21,23,25,27,29,31,33,35,-1,-1,37,39,41,43,45,47,49,51,53,-1,55,57,59,61,63,65,-1,67,69,71,73,75,77,79,81,83,85,87,89,91,93,95,-1,97,99,101,103,-1,-1,-1,-1,-1,-1,-1,-1,-1,-1,-1,-1,-1,-1,-1,-1,-1,-1,-1,-1,-1,-1,-1,-1,-1,-1,-1,-1,-1,-1,-1,-1,-1,-1,-1,-1,-1,-1,-1,-1,-1,-1,-1,-1,-1,-1,-1,-1],"loss_changes":[8.272826E0,1.185043E1,1.09342E1,2.262128E1,1.4846031E1,1.1330979E1,2.0203667E1,1.51921E1,7.4910564E0,5.658413E0,6.770807E0,1.0629894E1,1.1927135E1,2.4875742E1,7.3773584E0,5.2893696E0,8.042063E0,5.528429E0,0E0,0E0,5.9745064E0,8.955928E0,3.6000466E0,9.873653E0,1.7648958E1,9.222822E0,9.833076E0,9.795937E0,4.431308E0,0E0,6.026376E0,7.2120905E-1,2.2794247E0,8.97014E0,1.1830804E1,3.5001569E0,0E0,2.6427078E0,8.057669E0,1.7796135E-1,5.1047673E0,7.293215E-1,2.3417323E0,1.026104E1,9.070238E0,1.1175842E1,1.3833963E1,1.1042891E1,8.933321E0,9.176039E0,8.448257E0,9.28619E0,0E0,1.1621756E1,1.961956E0,3.4826381E0,4.590208E0,0E0,0E0,0E0,0E0,0E0,0E0,0E0,0E0,0E0,0E0,0E0,0E0,0E0,0E0,0E0,0E0,0E0,0E0,0E0,0E0,0E0,0E0,0E0,0E0,0E0,0E0,0E0,0E0,0E0,0E0,0E0,0E0,0E0,0E0,0E0,0E0,0E0,0E0,0E0,0E0,0E0,0E0,0E0,0E0,0E0,0E0,0E0,0E0],"parents":[2147483647,0,0,1,1,2,2,3,3,4,4,5,5,6,6,7,7,8,8,9,9,10,10,11,11,12,12,13,13,14,14,15,15,16,16,17,17,20,20,21,21,22,22,23,23,24,24,25,25,26,26,27,27,28,28,30,30,31,31,32,32,33,33,34,34,35,35,37,37,38,38,39,39,40,40,41,41,42,42,43,43,44,44,45,45,46,46,47,47,48,48,49,49,50,50,51,51,53,53,54,54,55,55,56,56],"right_children":[2,4,6,8,10,12,14,16,18,20,22,24,26,28,30,32,34,36,-1,-1,38,40,42,44,46,48,50,52,54,-1,56,58,60,62,64,66,-1,68,70,72,74,76,78,80,82,84,86,88,90,92,94,96,-1,98,100,102,104,-1,-1,-1,-1,-1,-1,-1,-1,-1,-1,-1,-1,-1,-1,-1,-1,-1,-1,-1,-1,-1,-1,-1,-1,-1,-1,-1,-1,-1,-1,-1,-1,-1,-1,-1,-1,-1,-1,-1,-1,-1,-1,-1,-1,-1,-1,-1,-1],"split_conditions":[-8.252819E-1,2.9990935E-1,1.3342898E0,1.824825E-1,2.2484943E-1,-1.2354183E-1,1.6296638E0,-4.266631E-1,1.1701726E0,-6.742826E-1,8.162691E-1,-1.1263462E0,2.7756003E-1,1.0853454E0,-7.673594E-1,-7.1136427E-1,6.762424E-2,6.789599E-2,4.937588E-1,1.3821839E-1,8.0896807E-1,-1.3810362E0,-1.0418723E0,-6.364545E-1,2.4974024E-1,9.3465716E-2,3.8410884E-1,9.344127E-1,-1.7868684E-1,3.1784683E-1,-1.0958685E0,-9.247032E-1,-4.4324046E-1,1.8558025E0,-1.8226167E0,-8.7398034E-1,3.6377674E-1,3.8392313E0,6.573879E-1,-1.1181598E-1,1.2396853E0,1.0491201E0,8.865026E-1,-3.7489662E-1,-7.5353056E-1,-5.134541E-1,-8.736236E-1,-8.655772E-1,-6.530163E-1,1.2864031E0,1.1801165E0,2.0409553E0,4.9938363E-1,-6.993061E-1,8.945986E-1,-2.4986416E-1,1.1455199E-1,-2.7065331E-2,2.3959996E-1,5.6068327E-2,-2.9274023E-1,7.899521E-2,-1.0973053E-1,3.8750154E-1,-3.579159E-1,1.6230239E-1,-3.4854192E-1,-4.1315457E-1,-5.6786265E-2,-3.1270048E-1,3.9113322E-1,1.09423675E-1,3.832346E-1,-2.6492304E-1,8.9494474E-2,4.5152354E-1,7.989931E-2,2.0021611E-1,-2.2664766E-1,-2.620897E-1,8.590941E-2,1.016275E-2,-3.900924E-1,1.5688294E-1,4.0054876E-2,-8.015472E-2,2.3280844E-2,-2.166373E-1,5.3443843E-3,1.1447287E-1,-1.3082741E-1,2.3727575E-1,-3.8410607E-1,-3.6138948E-2,1.3286828E-1,1.381269E-1,-7.441789E-2,-2.6593947E-1,3.012681E-1,-3.738893E-1,-3.4682356E-2,3.0715254E-1,-1.20251365E-1,-2.840519E-1,-8.253517E-2],"split_indices":[25,17,28,17,4,17,14,18,28,14,26,28,25,17,25,18,17,14,0,0,22,26,25,17,26,4,25,26,15,0,1,25,17,12,22,1,0,3,26,14,23,17,26,25,14,16,28,28,24,23,1,9,0,15,1,17,4,0,0,0,0,0,0,0,0,0,0,0,0,0,0,0,0,0,0,0,0,0,0,0,0,0,0,0,0,0,0,0,0,0,0,0,0,0,0,0,0,0,0,0,0,0,0,0,0],"split_type":[0,0,0,0,0,0,0,0,0,0,0,0,0,0,0,0,0,0,0,0,0,0,0,0,0,0,0,0,0,0,0,0,0,0,0,0,0,0,0,0,0,0,0,0,0,0,0,0,0,0,0,0,0,0,0,0,0,0,0,0,0,0,0,0,0,0,0,0,0,0,0,0,0,0,0,0,0,0,0,0,0,0,0,0,0,0,0,0,0,0,0,0,0,0,0,0,0,0,0,0,0,0,0,0,0],"sum_hessian":[2.0278528E3,2.2422572E2,1.8036271E3,1.6466542E2,5.9560314E1,1.5189971E3,2.8463004E2,1.5066074E2,1.4004676E1,3.223534E1,2.7324972E1,9.360774E2,5.829196E2,2.347005E2,4.992954E1,3.0033031E1,1.2062771E2,5.2308283E0,8.773848E0,1.9272983E0,3.0308043E1,2.060082E1,6.724152E0,5.863191E1,8.774455E2,3.8846396E2,1.9445569E2,2.1153683E2,2.316366E1,2.455206E0,4.7474335E1,2.502415E0,2.7530617E1,1.0966405E2,1.096366E1,3.4140663E0,1.8167617E0,2.6406715E1,3.9013267E0,3.129399E0,1.7471422E1,4.060591E0,2.663561E0,3.6543785E1,2.2088125E1,3.3164334E2,5.458021E2,1.9402249E2,1.9444147E2,2.636773E1,1.6808795E2,2.0619366E2,5.343173E0,1.1897355E1,1.1266305E1,5.3590646E0,4.211527E1,1.2147882E0,1.2876267E0,1.4854829E0,2.6045135E1,7.900135E1,3.06627E1,1.4816785E0,9.481982E0,1.1825647E0,2.2315016E0,2.4006622E1,2.4000933E0,2.2083895E0,1.6929371E0,1.4294001E0,1.6999991E0,1.3095283E1,4.3761396E0,2.9509053E0,1.1096855E0,1.1885335E0,1.4750276E0,9.470778E0,2.7073006E1,7.4948673E0,1.4593258E1,1.1024181E2,2.2140154E2,1.6674449E2,3.7905765E2,2.18389E1,1.721836E2,1.3668373E1,1.807731E2,2.4928387E1,1.4393436E0,1.3605133E2,3.2036633E1,1.8629143E2,1.9902233E1,7.67295E0,4.224406E0,9.203314E0,2.0629914E0,3.1566734E0,2.2023914E0,1.9041334E1,2.3073935E1],"tree_param":{"num_deleted":"0","num_feature":"29","num_nodes":"105","size_leaf_vector":"1"}},{"base_weights":[-2.0162382E-3,8.0136634E-2,-3.781099E-2,-1.2090843E-1,1.6036843E-1,1.018164E-1,-7.339622E-2,6.567593E-2,-5.60601E-1,-4.2461333E-1,2.1086615E-1,4.0400398E-1,-5.6802705E-2,2.4381883E-1,-9.611146E-2,1.8054497E-1,-6.632276E-1,-9.3230265E-1,8.21725E-2,-8.563589E-1,4.373593E-1,4.512666E-1,-2.3328342E-2,5.0966546E-2,7.610723E-1,-4.7813103E-4,-1.3960195E0,3.4926885E-1,-1.216813E0,-3.3247477E-1,-5.911259E-2,-1.4656511E-1,7.06886E-1,-1.0454161E0,-1.2955143E-1,-4.055269E-1,-1.2401274E0,3.50021E-1,-1.0987184E0,4.0455583E-1,-1.1217821E0,8.2932925E-1,-2.6805905E-1,8.995898E-1,2.8494525E-1,3.1367826E-1,-1.6099766E-1,-1.3193998E-1,9.576827E-1,1.0314549E0,1.2350415E-1,-2.2463255E-1,2.3349257E-1,7.6183885E-2,-5.245816E-1,9.5644885E-1,-4.7768295E-2,-4.4678226E-1,-2.6884936E-2,5.3958993E-2,-5.1109946E-1,4.2266083E-1,-7.747668E-2,2.9935828E-1,-7.0308656E-2,-2.311813E-2,2.8267002E-1,-3.5787505E-1,9.251423E-3,1.9319499E-1,-1.6735044E-1,6.3358486E-2,-3.3222246E-1,-5.422094E-2,-4.1431218E-1,-8.7574504E-2,2.9448903E-1,-1.019009E-1,-3.9298514E-1,2.8094465E-1,-2.1851204E-1,-1.9775253E-2,-4.0864372E-1,3.5697225E-1,-2.9415593E-1,3.729377E-1,1.8288852E-1,-3.3212956E-2,1.427735E-1,-5.9068788E-2,1.8215635E-1,-1.2467364E-1,2.8024955E-2,2.7428959E-2,-3.3106822E-1,3.918287E-1,-1.8662873E-1,4.0518752E-1,1.0308538E-1,1.5552473E-1,-3.234952E-1,7.9742596E-2,-1.3698234E-1,1.1570319E-1,-2.3080137E-1,3.5596085E-1,-3.0346494E-2,1.4349142E-1,-1.6609378E-1,1.9703013E-1,-1.1118701E-1,-1.9319634E-1,9.8076604E-2,-1.0158541E-1,2.6428205E-1,-4.5064326E-2,9.104216E-3],"categories":[],"categories_nodes":[],"categories_segments":[],"categories_sizes":[],"default_left":[0,0,0,0,0,0,0,0,0,0,0,0,0,0,0,0,0,0,0,0,0,0,0,0,0,0,0,0,0,0,0,0,0,0,0,0,0,0,0,0,0,0,0,0,0,0,0,0,0,0,0,0,0,0,0,0,0,0,0,0,0,0,0,0,0,0,0,0,0,0,0,0,0,0,0,0,0,0,0,0,0,0,0,0,0,0,0,0,0,0,0,0,0,0,0,0,0,0,0,0,0,0,0,0,0,0,0,0,0,0,0,0,0,0,0,0,0],"id":7,"left_children":[1,3,5,7,9,11,13,15,17,19,21,23,25,27,29,31,33,35,37,39,41,43,45,47,49,51,53,55,57,59,61,63,65,67,69,71,73,75,77,79,81,83,-1,85,87,89,91,93,95,97,99,101,103,-1,-1,105,107,-1,-1,109,111,113,115,-1,-1,-1,-1,-1,-1,-1,-1,-1,-1,-1,-1,-1,-1,-1,-1,-1,-1,-1,-1,-1,-1,-1,-1,-1,-1,-1,-1,-1,-1,-1,-1,-1,-1,-1,-1,-1,-1,-1,-1,-1,-1,-1,-1,-1,-1,-1,-1,-1,-1,-1,-1,-1,-1],"loss_changes":[5.9173985E0,9.8700285E0,6.9713464E0,1.4374552E1,1.2996542E1,1.3687192E1,8.075598E0,1.0468037E1,1.2541576E1,1.3419228E1,2.2692715E1,1.2346537E1,1.4166795E1,1.1970095E1,9.106179E0,1.8621304E1,3.3400602E0,4.870476E0,6.7215695E0,8.383078E0,7.1886683E0,1.4571346E1,9.562672E0,8.497506E0,8.28075E0,9.55771E0,4.8538513E0,1.7086306E1,1.485084E0,9.761893E0,8.026356E0,6.9818063E0,7.7099533E0,1.5905514E0,3.093083E0,6.167564E0,2.800148E0,7.215356E0,1.8768644E-1,3.6078632E0,4.9447727E0,7.735924E0,0E0,4.5560493E0,1.1122371E1,9.081352E0,9.509476E0,9.40758E0,5.5428367E0,7.025154E0,7.991864E0,1.0710148E1,1.390526E1,0E0,0E0,6.932333E0,1.18924055E1,0E0,0E0,1.188471E1,1.0961359E1,1.192638E1,6.837082E0,0E0,0E0,0E0,0E0,0E0,0E0,0E0,0E0,0E0,0E0,0E0,0E0,0E0,0E0,0E0,0E0,0E0,0E0,0E0,0E0,0E0,0E0,0E0,0E0,0E0,0E0,0E0,0E0,0E0,0E0,0E0,0E0,0E0,0E0,0E0,0E0,0E0,0E0,0E0,0E0,0E0,0E0,0E0,0E0,0E0,0E0,0E0,0E0,0E0,0E0,0E0,0E0,0E0,0E0],"parents":[2147483647,0,0,1,1,2,2,3,3,4,4,5,5,6,6,7,7,8,8,9,9,10,10,11,11,12,12,13,13,14,14,15,15,16,16,17,17,18,18,19,19,20,20,21,21,22,22,23,23,24,24,25,25,26,26,27,27,28,28,29,29,30,30,31,31,32,32,33,33,34,34,35,35,36,36,37,37,38,38,39,39,40,40,41,41,43,43,44,44,45,45,46,46,47,47,48,48,49,49,50,50,51,51,52,52,55,55,56,56,59,59,60,60,61,61,62,62],"right_children":[2,4,6,8,10,12,14,16,18,20,22,24,26,28,30,32,34,36,38,40,42,44,46,48,50,52,54,56,58,60,62,64,66,68,70,72,74,76,78,80,82,84,-1,86,88,90,92,94,96,98,100,102,104,-1,-1,106,108,-1,-1,110,112,114,116,-1,-1,-1,-1,-1,-1,-1,-1,-1,-1,-1,-1,-1,-1,-1,-1,-1,-1,-1,-1,-1,-1,-1,-1,-1,-1,-1,-1,-1,-1,-1,-1,-1,-1,-1,-1,-1,-1,-1,-1,-1,-1,-1,-1,-1,-1,-1,-1,-1,-1,-1,-1,-1,-1],"split_conditions":[-5.076972E-1,-9.507416E-1,-5.809001E-1,-3.4236434E-1,-7.0937836E-1,-3.1184083E-1,-7.1127194E-1,-3.7819466E-1,1.2955782E-1,-5.8867484E-1,-3.718183E-2,-6.87858E-1,2.1590054E0,1.2432535E0,-8.325192E-1,-1.0657744E0,2.7066046E-1,-2.5483274E-1,-6.447937E-1,-6.7254615E-1,1.1487542E0,-4.6888265E-1,-1.378884E0,-6.106902E-1,1.0451251E0,6.931108E-1,-1.1831553E0,3.6342728E-1,-1.1261311E-1,-7.937799E-1,-6.1585224E-1,-8.427264E-1,-4.9988893E-1,-9.148784E-2,-8.5119426E-1,-1.3136739E0,-8.0573857E-1,-9.926905E-1,-7.525705E-1,-7.4210614E-1,-7.986568E-1,7.319255E-1,-2.6805905E-1,-7.1687746E-1,-3.4514987E-1,-4.01304E-1,8.642682E-1,1.1643437E0,1.4419771E0,1.1754099E0,8.965809E-1,-7.378373E-1,4.6952233E-2,7.6183885E-2,-5.245816E-1,2.1662214E-1,-3.060642E-1,-4.4678226E-1,-2.6884936E-2,-3.6805475E-1,-7.615754E-2,-7.132264E-1,8.4087455E-1,2.9935828E-1,-7.0308656E-2,-2.311813E-2,2.8267002E-1,-3.5787505E-1,9.251423E-3,1.9319499E-1,-1.6735044E-1,6.3358486E-2,-3.3222246E-1,-5.422094E-2,-4.1431218E-1,-8.7574504E-2,2.9448903E-1,-1.019009E-1,-3.9298514E-1,2.8094465E-1,-2.1851204E-1,-1.9775253E-2,-4.0864372E-1,3.5697225E-1,-2.9415593E-1,3.729377E-1,1.8288852E-1,-3.3212956E-2,1.427735E-1,-5.9068788E-2,1.8215635E-1,-1.2467364E-1,2.8024955E-2,2.7428959E-2,-3.3106822E-1,3.918287E-1,-1.8662873E-1,4.0518752E-1,1.0308538E-1,1.5552473E-1,-3.234952E-1,7.9742596E-2,-1.3698234E-1,1.1570319E-1,-2.3080137E-1,3.5596085E-1,-3.0346494E-2,1.4349142E-1,-1.6609378E-1,1.9703013E-1,-1.1118701E-1,-1.9319634E-1,9.8076604E-2,-1.0158541E-1,2.6428205E-1,-4.5064326E-2,9.104216E-3],"split_indices":[23,28,3,17,3,5,14,14,25,28,17,28,11,7,28,28,15,17,23,24,7,14,26,3,16,5,1,22,18,4,24,17,25,25,23,26,14,28,5,3,3,18,0,23,3,5,28,15,1,7,26,3,17,0,0,25,23,0,0,3,24,15,26,0,0,0,0,0,0,0,0,0,0,0,0,0,0,0,0,0,0,0,0,0,0,0,0,0,0,0,0,0,0,0,0,0,0,0,0,0,0,0,0,0,0,0,0,0,0,0,0,0,0,0,0,0,0],"split_type":[0,0,0,0,0,0,0,0,0,0,0,0,0,0,0,0,0,0,0,0,0,0,0,0,0,0,0,0,0,0,0,0,0,0,0,0,0,0,0,0,0,0,0,0,0,0,0,0,0,0,0,0,0,0,0,0,0,0,0,0,0,0,0,0,0,0,0,0,0,0,0,0,0,0,0,0,0,0,0,0,0,0,0,0,0,0,0,0,0,0,0,0,0,0,0,0,0,0,0,0,0,0,0,0,0,0,0,0,0,0,0,0,0,0,0,0,0],"sum_hessian":[2.010251E3,6.096951E2,1.4005559E3,1.7376566E2,4.3592947E2,2.840713E2,1.1164846E3,1.2259351E2,5.117215E1,3.4051975E1,4.018775E2,9.725065E1,1.8682063E2,7.3956665E1,1.042528E3,1.0655383E2,1.6039677E1,3.2137383E1,1.903477E1,2.2692331E1,1.1359641E1,1.9785384E2,2.0402367E2,4.9475952E1,4.7774693E1,1.8024046E2,6.5801687E0,6.968654E1,4.2701283E0,1.4002258E2,9.025054E2,6.615895E1,4.0394882E1,8.787602E0,7.252075E0,1.2707919E1,1.9429462E1,1.608906E1,2.9457092E0,3.854938E0,1.8837395E1,9.066316E0,2.2933261E0,5.2345783E1,1.4550806E2,5.8801785E1,1.452219E2,4.188186E1,7.5940948E0,3.3113842E1,1.4660853E1,9.2071625E1,8.816884E1,1.2078161E0,5.3723526E0,2.699489E1,4.2691643E1,3.1802032E0,1.0899249E0,4.4484177E1,9.553841E1,3.23299E1,8.701755E2,3.9753335E0,6.2183617E1,9.482166E0,3.0912714E1,7.63309E0,1.1545119E0,2.4048927E0,4.8471828E0,7.1364436E0,5.571476E0,2.5489495E0,1.6880512E1,8.246029E0,7.8430314E0,1.209062E0,1.7366471E0,2.7412705E0,1.1136675E0,3.7293634E0,1.5108031E1,7.8457384E0,1.220577E0,2.2454857E1,2.9890924E1,4.7504913E1,9.8003136E1,2.158419E1,3.7217594E1,7.227049E1,7.295139E1,3.478979E1,7.092067E0,6.363824E0,1.2302705E0,2.1960257E1,1.1153583E1,1.1462864E1,3.1979892E0,2.9518295E1,6.255333E1,7.7086044E1,1.1082795E1,2.2071262E1,4.923628E0,2.0954802E1,2.1736843E1,1.8157665E1,2.6326513E1,8.266193E1,1.2876479E1,1.22468815E1,2.0083015E1,5.193982E2,3.507773E2],"tree_param":{"num_deleted":"0","num_feature":"29","num_nodes":"117","size_leaf_vector":"1"}},{"base_weights":[-2.03729E-3,9.2575945E-2,-3.4429513E-2,3.3423385E-1,3.1947393E-2,-1.9614907E-1,-6.293377E-4,-3.4436136E-1,4.982827E-1,-2.6009956E-1,1.2038565E-1,-5.053177E-2,-5.153658E-1,8.165731E-2,-7.774719E-2,2.0891052E-1,-1.2147707E0,5.573427E-1,-3.5827294E-1,2.2514638E-1,-5.2382475E-1,2.8574762E-1,-6.340565E-2,1.4306681E-1,-2.4567242E-1,-6.391356E-1,4.391142E-1,6.2770106E-2,6.258318E-1,-1.6880776E-1,4.6289224E-2,-9.446476E-1,6.417692E-1,-4.2796686E-1,-1.9123431E-2,2.4080113E-1,8.701298E-1,-1.510952E-1,8.243582E-1,-6.652728E-1,6.359956E-1,6.1299187E-1,8.619266E-3,-1.3653158E-1,8.3448976E-1,-1.3272434E-3,7.110902E-1,-1.1196083E-1,-8.232329E-1,-9.235989E-1,-2.00806E-1,3.3172745E-1,-9.153023E-2,1.8045063E-1,-5.7685036E-2,-3.3303484E-1,8.2377857E-1,2.7373368E-1,-2.840341E-1,6.807713E-1,-3.6301173E-2,-2.7920937E-2,-3.7116963E-1,-1.1728612E-2,3.903865E-1,1.4358506E-1,-1.3824706E-1,7.398201E-2,3.4398773E-1,-1.7334105E-1,1.3685894E-1,4.291322E-1,-4.761291E-2,-1.348171E-1,-3.2521316E-1,-2.819843E-1,3.471888E-1,2.4157742E-1,-3.2966927E-2,2.574138E-1,-2.6840223E-2,-1.7296508E-1,1.7645973E-3,-9.936233E-2,3.6441323E-1,1.9307205E-2,-2.7587926E-1,2.9576293E-1,-1.0492838E-1,2.19578E-2,-1.754953E-1,-4.2956573E-1,1.1468881E-3,-3.183912E-1,-2.5451532E-2,4.965031E-2,-1.7724283E-1,1.2810726E-1,-2.8545684E-1,2.6646712E-1,3.6289353E-2,7.164838E-2,-5.2879646E-2,2.9980215E-1,-2.7939162E-1,1.0723623E-1,-2.9411843E-1,-1.1730558E-1,-4.7540525E-3,-1.20473495E-2,2.8109297E-1,-1.7879021E-1,9.0363715E-3],"categories":[],"categories_nodes":[],"categories_segments":[],"categories_sizes":[],"default_left":[0,0,0,0,0,0,0,0,0,0,0,0,0,0,0,0,0,0,0,0,0,0,0,0,0,0,0,0,0,0,0,0,0,0,0,0,0,0,0,0,0,0,0,0,0,0,0,0,0,0,0,0,0,0,0,0,0,0,0,0,0,0,0,0,0,0,0,0,0,0,0,0,0,0,0,0,0,0,0,0,0,0,0,0,0,0,0,0,0,0,0,0,0,0,0,0,0,0,0,0,0,0,0,0,0,0,0,0,0,0,0,0,0],"id":8,"left_children":[1,3,5,7,9,11,13,15,17,19,21,23,25,27,29,31,33,35,-1,37,39,41,43,45,47,49,51,53,55,57,59,61,63,-1,-1,65,67,69,71,73,75,77,79,81,83,85,87,89,91,93,95,-1,97,99,101,-1,103,105,107,109,111,-1,-1,-1,-1,-1,-1,-1,-1,-1,-1,-1,-1,-1,-1,-1,-1,-1,-1,-1,-1,-1,-1,-1,-1,-1,-1,-1,-1,-1,-1,-1,-1,-1,-1,-1,-1,-1,-1,-1,-1,-1,-1,-1,-1,-1,-1,-1,-1,-1,-1,-1,-1],"loss_changes":[6.0973053E0,7.4237375E0,8.100953E0,1.1489332E1,1.0537036E1,1.1883164E1,7.791603E0,1.0070175E1,8.890564E0,1.2257414E1,9.527634E0,6.723975E0,9.749397E0,6.0659933E0,7.166742E0,7.255109E0,1.8759012E0,7.730036E0,0E0,7.8126698E0,1.0554987E1,1.4948057E1,9.89771E0,7.3423996E0,6.7456765E0,8.712093E0,3.5655425E0,8.164054E0,7.7231216E0,1.8726286E1,1.4126747E1,8.908911E-1,4.666086E0,0E0,0E0,7.101446E0,6.6049004E0,5.911026E0,8.1562805E0,4.5334835E0,7.0230045E0,1.0594788E1,7.599825E0,8.691577E0,5.438275E0,4.423982E0,5.6338453E0,6.441119E0,8.305204E0,4.876129E0,4.292412E0,0E0,3.2498624E0,1.2152652E1,1.0063187E1,0E0,6.5878935E0,8.336426E0,8.333155E0,5.7720375E0,8.90507E0,0E0,0E0,0E0,0E0,0E0,0E0,0E0,0E0,0E0,0E0,0E0,0E0,0E0,0E0,0E0,0E0,0E0,0E0,0E0,0E0,0E0,0E0,0E0,0E0,0E0,0E0,0E0,0E0,0E0,0E0,0E0,0E0,0E0,0E0,0E0,0E0,0E0,0E0,0E0,0E0,0E0,0E0,0E0,0E0,0E0,0E0,0E0,0E0,0E0,0E0,0E0,0E0],"parents":[2147483647,0,0,1,1,2,2,3,3,4,4,5,5,6,6,7,7,8,8,9,9,10,10,11,11,12,12,13,13,14,14,15,15,16,16,17,17,19,19,20,20,21,21,22,22,23,23,24,24,25,25,26,26,27,27,28,28,29,29,30,30,31,31,32,32,35,35,36,36,37,37,38,38,39,39,40,40,41,41,42,42,43,43,44,44,45,45,46,46,47,47,48,48,49,49,50,50,52,52,53,53,54,54,56,56,57,57,58,58,59,59,60,60],"right_children":[2,4,6,8,10,12,14,16,18,20,22,24,26,28,30,32,34,36,-1,38,40,42,44,46,48,50,52,54,56,58,60,62,64,-1,-1,66,68,70,72,74,76,78,80,82,84,86,88,90,92,94,96,-1,98,100,102,-1,104,106,108,110,112,-1,-1,-1,-1,-1,-1,-1,-1,-1,-1,-1,-1,-1,-1,-1,-1,-1,-1,-1,-1,-1,-1,-1,-1,-1,-1,-1,-1,-1,-1,-1,-1,-1,-1,-1,-1,-1,-1,-1,-1,-1,-1,-1,-1,-1,-1,-1,-1,-1,-1,-1,-1],"split_conditions":[-1.2983077E0,-4.363539E-1,-8.736236E-1,-6.8856686E-1,-9.1433567E-1,-3.8546672E-1,-1.558981E-1,-7.0937836E-1,1.9695799E0,-7.147039E-1,1.4843147E-1,-1.6834341E-1,1.3285426E0,1.939636E0,1.3257266E0,-1.380699E0,7.6336235E-1,-3.0018033E-2,-3.5827294E-1,-9.853548E-1,-1.335633E0,-3.700065E-1,1.9225482E0,1.075662E0,-4.7857168E-1,4.7878176E-3,-7.383466E-1,9.2917544E-1,-7.7301234E-1,-3.5721132E-1,-2.622159E-1,1.9365367E-1,-7.661127E-1,-4.2796686E-1,-1.9123431E-2,-2.702427E-1,-1.1263462E0,3.335802E-1,-1.3893452E0,-1.7692098E-1,-7.2090936E-1,5.407999E-1,-6.38231E-1,-1.6621539E-1,9.348665E-1,5.407999E-1,-3.34376E-1,-4.4994304E-1,8.701257E-1,-4.3120638E-1,2.8454602E-1,3.3172745E-1,-2.072908E-1,-8.395613E-1,-5.745945E-1,-3.3303484E-1,2.866338E0,6.33058E-1,7.8070027E-1,-4.0437486E-2,1.5844102E-1,-2.7920937E-2,-3.7116963E-1,-1.1728612E-2,3.903865E-1,1.4358506E-1,-1.3824706E-1,7.398201E-2,3.4398773E-1,-1.7334105E-1,1.3685894E-1,4.291322E-1,-4.761291E-2,-1.348171E-1,-3.2521316E-1,-2.819843E-1,3.471888E-1,2.4157742E-1,-3.2966927E-2,2.574138E-1,-2.6840223E-2,-1.7296508E-1,1.7645973E-3,-9.936233E-2,3.6441323E-1,1.9307205E-2,-2.7587926E-1,2.9576293E-1,-1.0492838E-1,2.19578E-2,-1.754953E-1,-4.2956573E-1,1.1468881E-3,-3.183912E-1,-2.5451532E-2,4.965031E-2,-1.7724283E-1,1.2810726E-1,-2.8545684E-1,2.6646712E-1,3.6289353E-2,7.164838E-2,-5.2879646E-2,2.9980215E-1,-2.7939162E-1,1.0723623E-1,-2.9411843E-1,-1.1730558E-1,-4.7540525E-3,-1.20473495E-2,2.8109297E-1,-1.7879021E-1,9.0363715E-3],"split_indices":[26,17,28,24,28,17,3,3,19,14,17,1,2,23,28,2,22,15,0,28,26,23,19,5,17,25,14,8,16,17,24,5,3,0,0,14,28,15,26,17,16,16,3,28,7,16,14,3,1,16,25,0,17,16,1,0,20,22,15,26,6,0,0,0,0,0,0,0,0,0,0,0,0,0,0,0,0,0,0,0,0,0,0,0,0,0,0,0,0,0,0,0,0,0,0,0,0,0,0,0,0,0,0,0,0,0,0,0,0,0,0,0,0],"split_type":[0,0,0,0,0,0,0,0,0,0,0,0,0,0,0,0,0,0,0,0,0,0,0,0,0,0,0,0,0,0,0,0,0,0,0,0,0,0,0,0,0,0,0,0,0,0,0,0,0,0,0,0,0,0,0,0,0,0,0,0,0,0,0,0,0,0,0,0,0,0,0,0,0,0,0,0,0,0,0,0,0,0,0,0,0,0,0,0,0,0,0,0,0,0,0,0,0,0,0,0,0,0,0,0,0,0,0,0,0,0,0,0,0],"sum_hessian":[1.987466E3,5.064212E2,1.4810447E3,1.0066603E2,4.057552E2,2.5520302E2,1.2258417E3,1.9384026E1,8.1282005E1,9.3860725E1,3.1189444E2,1.760517E2,7.915132E1,5.93018E2,6.3282367E2,1.2315633E1,7.068393E0,7.918943E1,2.0925808E0,3.310143E1,6.0759293E1,1.6388657E2,1.4800789E2,8.850899E1,8.754271E1,7.035818E1,8.79314E0,5.742039E2,1.8814116E1,3.6471182E2,2.6811188E2,3.037751E0,9.277882E0,5.7677627E0,1.3006302E0,4.0238144E1,3.8951286E1,2.0793291E1,1.230814E1,5.45348E1,6.2244906E0,7.459264E1,8.929392E1,1.3764575E2,1.0362132E1,7.136529E1,1.7143705E1,7.205503E1,1.5487679E1,4.1996544E1,2.8361637E1,3.4168193E0,5.3763213E0,2.9019516E2,2.8400873E2,1.4540733E0,1.7360043E1,7.505974E1,2.8965207E2,3.0046179E1,2.380657E2,1.1138743E0,1.9238768E0,5.0279365E0,4.2499456E0,3.0289394E1,9.948748E0,1.2547485E1,2.64038E1,1.224089E1,8.552401E0,7.3324504E0,4.9756894E0,3.7352287E1,1.7182516E1,1.3475695E0,4.8769207E0,5.8831234E1,1.5761406E1,8.441659E0,8.085226E1,3.2911102E1,1.0473466E2,2.5802867E0,7.7818456E0,6.7469086E1,3.8962018E0,1.3672795E1,3.4709096E0,5.2392525E1,1.9662508E1,8.500572E0,6.987106E0,3.5846115E1,6.150429E0,1.4921964E1,1.3439672E1,3.6680393E0,1.7082819E0,2.1418898E1,2.6877625E2,8.0843575E1,2.0316516E2,1.6172865E1,1.1871773E0,7.103286E1,4.0268817E0,2.0672711E2,8.2924965E1,8.099231E0,2.1946947E1,2.4410847E1,2.1365486E2],"tree_param":{"num_deleted":"0","num_feature":"29","num_nodes":"113","size_leaf_vector":"1"}},{"base_weights":[-2.1017408E-3,-9.49927E-3,3.0505303E-1,1.2202406E-2,-1.522819E-1,7.225061E-1,7.632276E-2,2.2227147E-1,-9.401893E-3,-7.21816E-1,-4.648644E-2,8.4234035E-1,-1.3223629E-1,-6.737329E-1,2.7905965E-1,2.5134591E-2,4.548129E-1,-7.357802E-2,7.603652E-2,3.5769525E-1,-8.314345E-1,-3.7236398E-1,8.933162E-2,9.745468E-1,-1.3418804E-1,-1.0552348E0,2.030627E-1,1.1474229E0,-6.055586E-3,1.4169833E-1,-1.0472983E0,-8.92326E-2,7.416345E-1,-2.4939155E-2,-4.739549E-1,2.533267E-1,-7.118186E-2,7.5892204E-1,-9.8614854E-1,3.3229518E-1,-5.304361E-1,3.7913826E-1,-2.4021588E-1,2.1860501E-1,1.2758254E0,3.3595394E-2,-4.062235E-1,8.5742936E-2,1.2891109E0,-5.4514647E-1,3.6400098E-1,7.4421994E-2,-2.865468E-1,-3.523643E-1,-4.21144E-2,-1.9342758E-1,1.235087E-1,-3.0994668E-4,3.1801033E-1,1.6624376E-2,-5.4957133E-2,-4.131211E-2,-2.7090302E-1,1.4326908E-1,1.8398136E-2,-5.9938055E-2,4.391268E-2,3.2689685E-1,-1.4526698E-2,-3.38325E-1,8.6221166E-2,-2.0586358E-1,2.0247051E-1,-2.1087267E-1,1.2830028E-1,5.4535694E-2,3.505742E-1,2.9853124E-2,-1.8369523E-1,2.52549E-1,-1.6483296E-1,4.1303205E-1,9.3376055E-2,4.4477168E-1,1.392155E-1,-3.1844452E-1,1.4534079E-2,2.7531394E-1,-6.1528254E-2],"categories":[],"categories_nodes":[],"categories_segments":[],"categories_sizes":[],"default_left":[0,0,0,0,0,0,0,0,0,0,0,0,0,0,0,0,0,0,0,0,0,0,0,0,0,0,0,0,0,0,0,0,0,0,0,0,0,0,0,0,0,0,0,0,0,0,0,0,0,0,0,0,0,0,0,0,0,0,0,0,0,0,0,0,0,0,0,0,0,0,0,0,0,0,0,0,0,0,0,0,0,0,0,0,0,0,0,0,0],"id":9,"left_children":[1,3,5,7,9,11,13,15,17,19,21,23,-1,25,27,29,31,33,35,-1,37,39,41,43,-1,45,-1,47,49,51,53,55,57,59,61,63,65,67,69,71,73,75,77,79,81,-1,-1,-1,83,85,87,-1,-1,-1,-1,-1,-1,-1,-1,-1,-1,-1,-1,-1,-1,-1,-1,-1,-1,-1,-1,-1,-1,-1,-1,-1,-1,-1,-1,-1,-1,-1,-1,-1,-1,-1,-1,-1,-1],"loss_changes":[4.467812E0,5.9505534E0,4.3603377E0,7.569504E0,1.5232817E1,2.6366663E0,4.9008493E0,7.1185894E0,8.300919E0,9.305189E0,9.537825E0,3.0064125E0,0E0,4.2631254E0,6.2225237E0,1.080308E1,1.1192151E1,1.6822433E1,1.6968517E1,0E0,1.0114529E1,7.2343054E0,1.4643986E1,2.9071226E0,0E0,2.161272E0,0E0,3.8975716E-1,4.1672287E0,9.309562E0,8.131685E-1,7.363214E0,1.1066309E1,9.825292E0,1.3377037E1,1.2664808E1,9.978776E0,1.1047919E0,6.6586227E0,4.728923E0,8.916632E0,1.2479813E1,9.1516075E0,2.9484E0,5.253134E-1,0E0,0E0,0E0,1.1787033E-1,2.6560316E0,4.094447E0,0E0,0E0,0E0,0E0,0E0,0E0,0E0,0E0,0E0,0E0,0E0,0E0,0E0,0E0,0E0,0E0,0E0,0E0,0E0,0E0,0E0,0E0,0E0,0E0,0E0,0E0,0E0,0E0,0E0,0E0,0E0,0E0,0E0,0E0,0E0,0E0,0E0,0E0],"parents":[2147483647,0,0,1,1,2,2,3,3,4,4,5,5,6,6,7,7,8,8,9,9,10,10,11,11,13,13,14,14,15,15,16,16,17,17,18,18,20,20,21,21,22,22,23,23,25,25,27,27,28,28,29,29,30,30,31,31,32,32,33,33,34,34,35,35,36,36,37,37,38,38,39,39,40,40,41,41,42,42,43,43,44,44,48,48,49,49,50,50],"right_children":[2,4,6,8,10,12,14,16,18,20,22,24,-1,26,28,30,32,34,36,-1,38,40,42,44,-1,46,-1,48,50,52,54,56,58,60,62,64,66,68,70,72,74,76,78,80,82,-1,-1,-1,84,86,88,-1,-1,-1,-1,-1,-1,-1,-1,-1,-1,-1,-1,-1,-1,-1,-1,-1,-1,-1,-1,-1,-1,-1,-1,-1,-1,-1,-1,-1,-1,-1,-1,-1,-1,-1,-1,-1,-1],"split_conditions":[1.714766E0,4.5532295E-1,7.888008E-1,-8.101204E-1,8.3406216E-1,3.7390637E0,1.2589239E0,-8.713483E-1,-3.502291E-1,-1.5747536E0,-7.397617E-1,7.31695E0,-1.3223629E-1,7.082118E-1,1.915499E0,-5.9505075E-2,-1.9549476E-1,-1.1480557E-2,1.0225063E-1,3.5769525E-1,-1.2021405E0,-4.9244863E-1,8.047279E-1,4.3043727E-1,-1.3418804E-1,-1.565862E0,2.030627E-1,-7.6779395E-1,3.0826366E0,-1.558981E-1,2.7756003E-1,-4.4539982E-1,-4.424997E-1,-3.1340265E-1,-5.624826E-1,3.3934687E-3,2.2138388E-1,1.3579533E0,1.901441E0,5.556136E-1,1.4279671E0,1.6695783E0,4.515159E-2,2.6296973E0,9.020433E-1,3.3595394E-2,-4.062235E-1,8.5742936E-2,7.940999E-1,-2.9784462E-1,4.4463706E0,7.4421994E-2,-2.865468E-1,-3.523643E-1,-4.21144E-2,-1.9342758E-1,1.235087E-1,-3.0994668E-4,3.1801033E-1,1.6624376E-2,-5.4957133E-2,-4.131211E-2,-2.7090302E-1,1.4326908E-1,1.8398136E-2,-5.9938055E-2,4.391268E-2,3.2689685E-1,-1.4526698E-2,-3.38325E-1,8.6221166E-2,-2.0586358E-1,2.0247051E-1,-2.1087267E-1,1.2830028E-1,5.4535694E-2,3.505742E-1,2.9853124E-2,-1.8369523E-1,2.52549E-1,-1.6483296E-1,4.1303205E-1,9.3376055E-2,4.4477168E-1,1.392155E-1,-3.1844452E-1,1.4534079E-2,2.7531394E-1,-6.1528254E-2],"split_indices":[17,17,3,23,28,23,3,28,28,5,2,17,0,4,3,17,17,17,14,0,2,18,17,25,0,4,0,15,3,3,25,15,25,14,14,23,16,1,21,17,16,28,15,17,4,0,0,0,5,15,3,0,0,0,0,0,0,0,0,0,0,0,0,0,0,0,0,0,0,0,0,0,0,0,0,0,0,0,0,0,0,0,0,0,0,0,0,0,0],"split_type":[0,0,0,0,0,0,0,0,0,0,0,0,0,0,0,0,0,0,0,0,0,0,0,0,0,0,0,0,0,0,0,0,0,0,0,0,0,0,0,0,0,0,0,0,0,0,0,0,0,0,0,0,0,0,0,0,0,0,0,0,0,0,0,0,0,0,0,0,0,0,0,0,0,0,0,0,0,0,0,0,0,0,0,0,0,0,0,0,0],"sum_hessian":[1.9640303E3,1.9187871E3,4.524308E1,1.6664207E3,2.5236644E2,1.5250605E1,2.9992476E1,1.5453302E2,1.5118877E3,3.862292E1,2.1374353E2,1.4076449E1,1.1741551E0,5.8875203E0,2.4104956E1,8.4232796E1,7.0300224E1,8.634531E2,6.484346E2,1.5570512E0,3.706587E1,6.236508E1,1.5137845E2,1.2989188E1,1.0872605E0,4.7613063E0,1.1262138E0,5.210658E0,1.8894297E1,7.675779E1,7.4750037E0,2.450598E1,4.5794243E1,7.708682E2,9.258487E1,2.938455E2,3.5458908E2,2.93994E0,3.412593E1,1.1224767E1,5.1140316E1,8.046575E1,7.091269E1,4.193305E0,8.795883E0,1.0980047E0,3.6633017E0,1.1619494E0,4.048709E0,7.4980893E0,1.1396208E1,7.0677216E1,6.0805764E0,6.296451E0,1.1785526E0,1.1483608E1,1.302237E1,1.4040811E1,3.1753433E1,5.1169806E2,2.591702E2,5.264683E1,3.993804E1,1.348576E2,1.5898787E2,2.229005E2,1.3168858E2,1.8375115E0,1.1024283E0,3.0814291E1,3.3116388E0,2.5729465E0,8.65182E0,4.356443E1,7.5758853E0,6.5357346E1,1.5108404E1,3.745191E1,3.346078E1,2.26187E0,1.9314353E0,7.5757008E0,1.2201828E0,2.634126E0,1.414583E0,3.5884538E0,3.9096355E0,5.4656825E0,5.930525E0],"tree_param":{"num_deleted":"0","num_feature":"29","num_nodes":"89","size_leaf_vector":"1"}},{"base_weights":[-1.8250538E-3,-1.6099942E-1,1.7334776E-2,-5.7650156E-2,-5.605072E-1,2.2355281E-1,-3.896229E-3,7.529557E-2,-3.4491777E-1,-2.2617526E-1,-1.0065318E0,2.9643613E-1,-5.502326E-1,-8.47047E-1,2.3115287E-3,-1.9492891E-1,2.9141518E-1,-9.256013E-1,-2.563415E-2,4.7212836E-1,-5.882194E-1,-1.2434522E0,1.3474296E-1,1.992355E-1,7.868644E-1,2.877894E-1,-7.8796935E-1,5.8267176E-1,-1.3354986E0,1.819788E-1,-1.5822222E-2,1.2457349E-1,-5.1134E-1,5.4113805E-1,-7.7938706E-2,-1.1705982E-1,-1.1890408E0,3.435538E-1,-3.811357E-1,-4.0136662E-1,3.668435E-1,2.0234384E-1,-8.420035E-1,-1.4778283E0,-8.828961E-3,2.7167153E-1,-1.4784238E-1,1.1659374E-1,1.0019708E0,1.090107E0,-1.4928916E-1,2.0187822E-1,-1.1390007E0,-9.917672E-2,3.391064E-1,-4.963633E-2,-1.4955958E0,2.5082865E-1,-5.4307824E-1,-4.5100057E-1,-4.580133E-3,-2.7362934E-1,1.1178405E-1,-2.8277776E-1,-4.32248E-2,-1.1676004E-1,2.2749309E-1,-6.957869E-2,3.3610365E-1,1.2339103E-1,-2.6491654E-1,-3.9604446E-1,1.4299012E-2,1.9078298E-1,-3.1926906E-1,-1.9387911E-1,1.7053023E-1,-3.6131528E-1,2.2634222E-1,3.576959E-2,-3.4588194E-1,-1.2407594E-1,-4.7460675E-1,2.4731913E-1,-2.8774074E-1,5.9568673E-2,-2.4898914E-1,-6.3373245E-2,4.6102786E-1,3.6581406E-1,-8.37777E-3,2.824728E-1,-2.2020647E-1,-2.5261694E-1,2.930343E-1,3.04532E-2,-4.493635E-1,-4.8796028E-1,-1.4409555E-1,1.01602115E-1,-1.378556E-1,-2.6235867E-1,2.3902403E-1,8.8709004E-2,-2.0210513E-1,2.9576635E-2,-1.3360461E-2],"categories":[],"categories_nodes":[],"categories_segments":[],"categories_sizes":[],"default_left":[0,0,0,0,0,0,0,0,0,0,0,0,0,0,0,0,0,0,0,0,0,0,0,0,0,0,0,0,0,0,0,0,0,0,0,0,0,0,0,0,0,0,0,0,0,0,0,0,0,0,0,0,0,0,0,0,0,0,0,0,0,0,0,0,0,0,0,0,0,0,0,0,0,0,0,0,0,0,0,0,0,0,0,0,0,0,0,0,0,0,0,0,0,0,0,0,0,0,0,0,0,0,0,0,0,0,0],"id":10,"left_children":[1,3,5,7,9,11,13,15,17,19,21,23,25,27,29,31,33,35,37,39,41,43,45,47,49,-1,51,53,55,57,59,61,63,65,67,69,71,73,75,77,-1,-1,79,81,83,-1,-1,85,87,89,91,93,95,-1,-1,-1,97,99,101,103,105,-1,-1,-1,-1,-1,-1,-1,-1,-1,-1,-1,-1,-1,-1,-1,-1,-1,-1,-1,-1,-1,-1,-1,-1,-1,-1,-1,-1,-1,-1,-1,-1,-1,-1,-1,-1,-1,-1,-1,-1,-1,-1,-1,-1,-1,-1],"loss_changes":[5.939827E0,8.60734E0,7.612299E0,6.4175415E0,6.1682816E0,9.315825E0,8.257055E0,6.7863703E0,9.826235E0,6.801626E0,5.0578995E0,6.9447536E0,5.895198E0,8.830101E0,5.1071014E0,5.300873E0,5.984554E0,3.8694286E0,4.76497E0,6.6319513E0,6.1564064E0,4.349102E0,2.3867075E0,8.220058E0,7.0618515E0,0E0,4.7196608E0,2.1904674E0,1.4192696E0,7.310016E0,6.9643335E0,7.174701E0,4.0176063E0,8.086665E0,5.216549E0,2.6839423E0,2.3467636E0,8.022738E0,5.0151396E0,5.6251845E0,0E0,0E0,4.610442E0,7.499409E-1,3.491745E0,0E0,0E0,9.09296E0,7.849862E0,2.7045765E0,5.0450044E0,4.2460747E0,4.465575E0,0E0,0E0,0E0,2.4268723E-1,8.387946E0,6.3715296E0,6.16001E0,5.730378E0,0E0,0E0,0E0,0E0,0E0,0E0,0E0,0E0,0E0,0E0,0E0,0E0,0E0,0E0,0E0,0E0,0E0,0E0,0E0,0E0,0E0,0E0,0E0,0E0,0E0,0E0,0E0,0E0,0E0,0E0,0E0,0E0,0E0,0E0,0E0,0E0,0E0,0E0,0E0,0E0,0E0,0E0,0E0,0E0,0E0,0E0],"parents":[2147483647,0,0,1,1,2,2,3,3,4,4,5,5,6,6,7,7,8,8,9,9,10,10,11,11,12,12,13,13,14,14,15,15,16,16,17,17,18,18,19,19,20,20,21,21,22,22,23,23,24,24,26,26,27,27,28,28,29,29,30,30,31,31,32,32,33,33,34,34,35,35,36,36,37,37,38,38,39,39,42,42,43,43,44,44,47,47,48,48,49,49,50,50,51,51,52,52,56,56,57,57,58,58,59,59,60,60],"right_children":[2,4,6,8,10,12,14,16,18,20,22,24,26,28,30,32,34,36,38,40,42,44,46,48,50,-1,52,54,56,58,60,62,64,66,68,70,72,74,76,78,-1,-1,80,82,84,-1,-1,86,88,90,92,94,96,-1,-1,-1,98,100,102,104,106,-1,-1,-1,-1,-1,-1,-1,-1,-1,-1,-1,-1,-1,-1,-1,-1,-1,-1,-1,-1,-1,-1,-1,-1,-1,-1,-1,-1,-1,-1,-1,-1,-1,-1,-1,-1,-1,-1,-1,-1,-1,-1,-1,-1,-1,-1],"split_conditions":[-9.926905E-1,8.9008224E-1,-6.2979203E-1,-4.163891E-1,-6.162068E-1,1.4366249E0,-6.2634456E-1,-6.654484E-1,-6.2846386E-1,-3.5295647E-1,-1.9064024E-1,1.8533485E-1,-6.9383895E-1,-4.8143634E-1,-6.569839E-1,-6.9383895E-1,-6.177215E-1,-7.1898824E-1,-2.4985833E-1,-6.562481E-1,-1.380699E0,8.4411776E-1,-6.184016E-1,-6.1004245E-1,-1.8384983E-1,2.877894E-1,-5.7742393E-1,-1.5418711E-1,1.2228831E-2,1.1942776E0,-9.3780005E-1,-1.2948382E0,-1.1263462E0,-1.1141311E0,1.4681287E0,-5.9217834E-1,1.4631529E0,-5.588773E-1,7.5777596E-1,-7.213852E-1,3.668435E-1,2.0234384E-1,-6.786271E-1,-1.2256826E0,1.1120034E0,2.7167153E-1,-1.4784238E-1,-8.232034E-3,-6.184016E-1,-1.3240798E-1,-7.5800264E-1,-1.1042409E-1,-1.244283E0,-9.917672E-2,3.391064E-1,-4.963633E-2,-3.2113177E-1,9.0206456E-1,1.1256076E0,-7.8107244E-1,-3.260962E-1,-2.7362934E-1,1.1178405E-1,-2.8277776E-1,-4.32248E-2,-1.1676004E-1,2.2749309E-1,-6.957869E-2,3.3610365E-1,1.2339103E-1,-2.6491654E-1,-3.9604446E-1,1.4299012E-2,1.9078298E-1,-3.1926906E-1,-1.9387911E-1,1.7053023E-1,-3.6131528E-1,2.2634222E-1,3.576959E-2,-3.4588194E-1,-1.2407594E-1,-4.7460675E-1,2.4731913E-1,-2.8774074E-1,5.9568673E-2,-2.4898914E-1,-6.3373245E-2,4.6102786E-1,3.6581406E-1,-8.37777E-3,2.824728E-1,-2.2020647E-1,-2.5261694E-1,2.930343E-1,3.04532E-2,-4.493635E-1,-4.8796028E-1,-1.4409555E-1,1.01602115E-1,-1.378556E-1,-2.6235867E-1,2.3902403E-1,8.8709004E-2,-2.0210513E-1,2.9576635E-2,-1.3360461E-2],"split_indices":[28,26,24,3,17,15,24,24,18,25,16,25,17,16,14,17,24,18,3,16,2,22,3,28,17,0,14,15,22,7,28,5,28,15,4,24,5,14,25,0,0,0,18,5,15,0,0,14,3,14,14,1,26,0,0,0,17,22,5,23,17,0,0,0,0,0,0,0,0,0,0,0,0,0,0,0,0,0,0,0,0,0,0,0,0,0,0,0,0,0,0,0,0,0,0,0,0,0,0,0,0,0,0,0,0,0,0],"split_type":[0,0,0,0,0,0,0,0,0,0,0,0,0,0,0,0,0,0,0,0,0,0,0,0,0,0,0,0,0,0,0,0,0,0,0,0,0,0,0,0,0,0,0,0,0,0,0,0,0,0,0,0,0,0,0,0,0,0,0,0,0,0,0,0,0,0,0,0,0,0,0,0,0,0,0,0,0,0,0,0,0,0,0,0,0,0,0,0,0,0,0,0,0,0,0,0,0,0,0,0,0,0,0,0,0,0,0],"sum_hessian":[1.9457262E3,2.0824915E2,1.737477E3,1.6635803E2,4.189111E1,1.6129356E2,1.5761835E3,1.1423066E2,5.212737E1,2.4804903E1,1.7086208E1,1.4797281E2,1.332075E1,1.0529978E1,1.5656536E3,5.080493E1,6.342573E1,1.7819647E1,3.4307724E1,8.365543E0,1.643936E1,1.4074843E1,3.0113652E0,1.2467003E2,2.3302778E1,1.3994828E0,1.19212675E1,2.6322815E0,7.897696E0,1.4270566E2,1.4229479E3,2.558065E1,2.522428E1,3.756361E1,2.586212E1,4.734131E0,1.3085517E1,1.6846382E1,1.746134E1,4.0815654E0,4.283978E0,2.4737191E0,1.396564E1,1.1663671E1,2.4111724E0,1.1525941E0,1.8587712E0,1.1407158E2,1.0598448E1,1.7477081E1,5.8256974E0,3.2321274E0,8.689139E0,1.1353958E0,1.4968858E0,1.1953244E0,6.7023716E0,1.3092715E2,1.17785015E1,3.4848648E1,1.3880992E3,4.42198E0,2.115867E1,1.0880853E1,1.4343428E1,6.959192E0,3.0604418E1,2.3631685E1,2.230434E0,3.0756655E0,1.6584655E0,1.177024E1,1.3152771E0,1.4403183E1,2.4431996E0,1.389981E1,3.561531E0,2.3835802E0,1.6979852E0,3.5640848E0,1.0401555E1,1.4832367E0,1.0180434E1,1.3553231E0,1.0558493E0,1.05707886E2,8.363697E0,3.4276102E0,7.1708374E0,1.558447E1,1.8926111E0,1.8200256E0,4.0056715E0,1.3401036E0,1.8920237E0,2.110622E0,6.578518E0,5.4034405E0,1.2989312E0,1.16983604E2,1.3943542E1,9.720974E0,2.0575275E0,7.9300075E0,2.6918638E1,3.870954E2,1.00100385E3],"tree_param":{"num_deleted":"0","num_feature":"29","num_nodes":"107","size_leaf_vector":"1"}},{"base_weights":[-2.1373918E-3,-2.9313514E-2,9.335325E-2,4.3453958E-2,-1.2017971E-1,2.2678898E-1,-1.06640846E-1,7.191179E-2,-4.412161E-1,-1.6208841E-1,2.9369408E-1,3.2493156E-1,-2.4428102E-1,-5.2695137E-2,-7.667795E-1,-1.7120555E-1,1.113249E-1,4.269765E-2,-9.07666E-1,2.7464703E-1,-2.0896174E-1,-1.352695E-1,4.5797402E-1,-7.7686423E-1,3.590879E-1,-4.641014E-1,4.489058E-1,-9.3935356E-2,8.81495E-1,-1.1378636E0,3.2165098E-1,5.645732E-1,-2.6063693E-1,3.7810174E-1,7.1174294E-2,-4.0177867E-1,7.140938E-1,-1.1799042E0,-9.067154E-2,5.7929534E-2,8.472684E-1,-5.29737E-1,-1.3514073E-1,-5.242322E-1,3.2219383E-1,8.9695E-1,2.2367129E-1,1.6775526E-1,-1.1606935E0,4.785753E-1,-2.1684978E-2,6.009171E-1,-6.0436165E-1,7.1932256E-1,-2.7142346E-1,1.8239628E-4,-4.6161872E-1,-6.479435E-2,4.333834E-1,-1.5340817E0,2.8837293E-1,-1.4730346E-1,3.2475388E-1,-2.7670212E-2,-2.2036737E-1,5.7190806E-2,2.6492187E-1,4.068056E-2,-7.8748174E-2,-1.8237786E-1,1.3841684E-1,-3.155774E-1,3.2432413E-1,-4.0855438E-1,-1.10103235E-1,1.8396176E-1,-3.0175847E-1,8.302447E-2,-2.0909609E-1,-1.05646856E-1,3.004851E-1,2.8825876E-1,-1.7703174E-1,-1.4630999E-1,-2.33322E-2,-3.271184E-1,-3.8395498E-2,3.2192874E-1,-2.8228324E-2,3.9419886E-1,5.7978157E-2,-4.7981698E-2,1.6301255E-1,-4.0190426E-1,-7.38299E-2,1.8304043E-1,2.1833424E-2,-1.01978585E-1,1.5181804E-1,3.306343E-1,-1.5732558E-1,1.7283069E-1,-2.2168885E-1,-7.729931E-2,3.6766174E-1,-2.9849311E-2,1.379663E-1,2.2972522E-2,-2.1407501E-1,-1.0903646E-1,-5.182034E-1],"categories":[],"categories_nodes":[],"categories_segments":[],"categories_sizes":[],"default_left":[0,0,0,0,0,0,0,0,0,0,0,0,0,0,0,0,0,0,0,0,0,0,0,0,0,0,0,0,0,0,0,0,0,0,0,0,0,0,0,0,0,0,0,0,0,0,0,0,0,0,0,0,0,0,0,0,0,0,0,0,0,0,0,0,0,0,0,0,0,0,0,0,0,0,0,0,0,0,0,0,0,0,0,0,0,0,0,0,0,0,0,0,0,0,0,0,0,0,0,0,0,0,0,0,0,0,0,0,0,0,0],"id":11,"left_children":[1,3,5,7,9,11,13,15,17,19,21,23,25,27,29,31,33,35,37,39,41,43,45,47,49,51,53,55,57,59,-1,61,63,65,67,69,71,73,75,77,79,81,83,85,87,89,91,-1,93,95,97,99,101,103,-1,105,107,-1,-1,109,-1,-1,-1,-1,-1,-1,-1,-1,-1,-1,-1,-1,-1,-1,-1,-1,-1,-1,-1,-1,-1,-1,-1,-1,-1,-1,-1,-1,-1,-1,-1,-1,-1,-1,-1,-1,-1,-1,-1,-1,-1,-1,-1,-1,-1,-1,-1,-1,-1,-1,-1],"loss_changes":[5.0114164E0,9.944812E0,1.1441593E1,1.1555336E1,1.1647072E1,1.1958239E1,6.081122E0,7.588968E0,1.0529377E1,1.250199E1,4.4202967E0,8.2974205E0,7.0457764E0,6.2464023E0,1.0031333E1,7.4248896E0,7.2611456E0,7.379158E0,5.1665077E0,7.316433E0,1.2941814E1,3.3536901E0,4.422456E0,4.0965614E0,9.444086E0,5.525744E0,4.7915344E0,5.3336377E0,4.551714E0,1.0814047E1,0E0,7.2574615E0,7.8572645E0,8.235605E0,1.2775738E1,2.9388142E0,7.505871E0,2.1181374E0,5.131997E0,7.4828134E0,3.3559484E0,9.787651E0,9.024681E0,2.1159956E0,2.8656363E0,4.239069E0,3.8444493E0,0E0,5.7844114E-1,8.383408E0,8.650415E0,3.1291447E0,5.357214E0,5.2542853E0,0E0,5.7146916E0,4.3142676E0,0E0,0E0,1.5964432E0,0E0,0E0,0E0,0E0,0E0,0E0,0E0,0E0,0E0,0E0,0E0,0E0,0E0,0E0,0E0,0E0,0E0,0E0,0E0,0E0,0E0,0E0,0E0,0E0,0E0,0E0,0E0,0E0,0E0,0E0,0E0,0E0,0E0,0E0,0E0,0E0,0E0,0E0,0E0,0E0,0E0,0E0,0E0,0E0,0E0,0E0,0E0,0E0,0E0,0E0,0E0],"parents":[2147483647,0,0,1,1,2,2,3,3,4,4,5,5,6,6,7,7,8,8,9,9,10,10,11,11,12,12,13,13,14,14,15,15,16,16,17,17,18,18,19,19,20,20,21,21,22,22,23,23,24,24,25,25,26,26,27,27,28,28,29,29,31,31,32,32,33,33,34,34,35,35,36,36,37,37,38,38,39,39,40,40,41,41,42,42,43,43,44,44,45,45,46,46,48,48,49,49,50,50,51,51,52,52,53,53,55,55,56,56,59,59],"right_children":[2,4,6,8,10,12,14,16,18,20,22,24,26,28,30,32,34,36,38,40,42,44,46,48,50,52,54,56,58,60,-1,62,64,66,68,70,72,74,76,78,80,82,84,86,88,90,92,-1,94,96,98,100,102,104,-1,106,108,-1,-1,110,-1,-1,-1,-1,-1,-1,-1,-1,-1,-1,-1,-1,-1,-1,-1,-1,-1,-1,-1,-1,-1,-1,-1,-1,-1,-1,-1,-1,-1,-1,-1,-1,-1,-1,-1,-1,-1,-1,-1,-1,-1,-1,-1,-1,-1,-1,-1,-1,-1,-1,-1],"split_conditions":[1.2073553E0,-1.9549476E-1,8.5509986E-1,2.0144677E0,9.9737453E-1,1.0246427E0,9.331935E-1,-1.0605845E0,-5.965498E-1,-1.3176929E0,-5.958933E-1,-1.0089543E0,1.8529482E0,9.282029E-1,9.3479675E-1,-7.7956176E-1,-1.3858982E0,1.7765929E-1,1.2396096E0,3.123245E-1,7.8718774E-2,1.9671829E0,1.2860689E-1,-7.410795E-1,7.4840844E-1,-6.333066E-1,9.2417836E-1,1.303098E0,1.0866333E0,6.113315E-1,3.2165098E-1,-1.1783012E0,-5.102337E-1,-1.3908354E0,6.7513734E-1,4.1039845E-1,-1.0089543E0,1.1085932E0,3.0389738E-1,2.8956117E-2,-6.9409317E-1,-8.5768497E-1,-8.655772E-1,9.3457925E-1,-4.569831E-2,1.9571248E0,1.8558025E0,1.6775526E-1,1.7532527E-1,5.0459194E-1,2.3488599E-1,4.8169222E-1,-2.732903E-1,-1.128938E0,-2.7142346E-1,2.6181283E0,-4.1786954E-2,-6.479435E-2,4.333834E-1,1.8320076E0,2.8837293E-1,-1.4730346E-1,3.2475388E-1,-2.7670212E-2,-2.2036737E-1,5.7190806E-2,2.6492187E-1,4.068056E-2,-7.8748174E-2,-1.8237786E-1,1.3841684E-1,-3.155774E-1,3.2432413E-1,-4.0855438E-1,-1.10103235E-1,1.8396176E-1,-3.0175847E-1,8.302447E-2,-2.0909609E-1,-1.05646856E-1,3.004851E-1,2.8825876E-1,-1.7703174E-1,-1.4630999E-1,-2.33322E-2,-3.271184E-1,-3.8395498E-2,3.2192874E-1,-2.8228324E-2,3.9419886E-1,5.7978157E-2,-4.7981698E-2,1.6301255E-1,-4.0190426E-1,-7.38299E-2,1.8304043E-1,2.1833424E-2,-1.01978585E-1,1.5181804E-1,3.306343E-1,-1.5732558E-1,1.7283069E-1,-2.2168885E-1,-7.729931E-2,3.6766174E-1,-2.9849311E-2,1.379663E-1,2.2972522E-2,-2.1407501E-1,-1.0903646E-1,-5.182034E-1],"split_indices":[28,17,6,11,6,3,26,28,17,4,4,25,19,26,26,3,26,28,18,25,22,27,17,0,17,14,5,8,8,5,0,28,17,26,22,2,25,5,3,25,3,16,28,16,16,27,12,0,17,14,16,15,24,25,0,6,3,0,0,10,0,0,0,0,0,0,0,0,0,0,0,0,0,0,0,0,0,0,0,0,0,0,0,0,0,0,0,0,0,0,0,0,0,0,0,0,0,0,0,0,0,0,0,0,0,0,0,0,0,0,0],"split_type":[0,0,0,0,0,0,0,0,0,0,0,0,0,0,0,0,0,0,0,0,0,0,0,0,0,0,0,0,0,0,0,0,0,0,0,0,0,0,0,0,0,0,0,0,0,0,0,0,0,0,0,0,0,0,0,0,0,0,0,0,0,0,0,0,0,0,0,0,0,0,0,0,0,0,0,0,0,0,0,0,0,0,0,0,0,0,0,0,0,0,0,0,0,0,0,0,0,0,0,0,0,0,0,0,0,0,0,0,0,0,0],"sum_hessian":[1.9290786E3,1.5022417E3,4.2683688E2,8.3448846E2,6.677533E2,2.559401E2,1.7089677E2,7.890125E2,4.5475945E1,6.069065E2,6.0846756E1,2.1206812E2,4.3871983E1,1.5898457E2,1.1912198E1,1.0960109E2,6.7941144E2,2.2766024E1,2.2709919E1,5.835285E1,5.4855365E2,1.6898476E1,4.394828E1,5.7227426E0,2.0634537E2,3.356005E1,1.0311934E1,1.531243E2,5.8602896E0,1.0229263E1,1.682935E0,1.1302132E1,9.829896E1,8.777589E1,5.9163556E2,1.3939442E1,8.826583E0,1.670072E1,6.009199E0,4.3130577E1,1.5222275E1,1.01467926E2,4.4708572E2,9.054145E0,7.8443303E0,1.4309906E1,2.9638374E1,1.1752006E0,4.547542E0,1.5686418E2,4.9481182E1,3.523239E0,3.0036812E1,8.985517E0,1.3264174E0,1.2271247E2,3.0411823E1,2.1963003E0,3.663989E0,8.831452E0,1.3978112E0,3.7373114E0,7.564821E0,7.340859E1,2.4890364E1,6.501661E1,2.275928E1,4.9638315E2,9.5252396E1,1.1490829E1,2.448612E0,1.1975121E0,7.6290708E0,1.3094556E1,3.6061635E0,3.5832624E0,2.425937E0,3.39293E1,9.20128E0,1.5894314E0,1.3632843E1,3.3688633E0,9.809907E1,6.1517246E1,3.8556848E2,3.0065494E0,6.0475955E0,2.2350214E0,5.609309E0,8.44037E0,5.8695364E0,1.3699806E1,1.5938567E1,3.4145317E0,1.1330104E0,1.1807932E2,3.8784866E1,3.1089384E1,1.8391798E1,2.4518704E0,1.0713685E0,2.7386386E0,2.7298172E1,3.2343302E0,5.7511864E0,1.0148956E2,2.1222906E1,9.919648E0,2.0492174E1,1.6595987E0,7.1718535E0],"tree_param":{"num_deleted":"0","num_feature":"29","num_nodes":"111","size_leaf_vector":"1"}},{"base_weights":[-1.4541467E-3,6.627508E-2,-3.438537E-2,1.2760626E-1,-1.7562053E-1,-1.0731848E0,-2.6932945E-2,1.6841263E-2,4.9278548E-1,1.9424866E-1,-3.1520385E-1,-4.537269E-1,-5.192022E-1,-1.3405046E-1,1.8686099E-2,5.210762E-1,-2.3473019E-2,9.483666E-1,2.7955762E-1,-4.670391E-1,5.1513815E-1,-9.0325624E-1,-1.7249946E-1,9.806754E-2,-2.9958385E-1,1.6974676E-2,-4.1016424E-1,3.044016E-1,-1.4137327E-2,-2.71397E-1,6.25351E-1,4.1507434E-2,-3.570757E-1,1.4397949E0,7.557192E-4,-1.2302803E-2,8.516521E-1,-1.0334885E0,5.7130444E-1,2.1253446E-2,1.3155968E0,-1.2590904E0,-8.933227E-2,4.5756283E-1,-4.1815862E-1,9.131383E-2,-3.8171482E-1,-5.7509416E-1,2.9813286E-2,3.8040817E-1,-4.0525612E-1,2.1248025E-1,-4.761241E-2,-3.2252062E-2,2.3767237E-1,2.315116E-2,-2.3866613E-1,-1.3956665E-1,1.0188963E-1,4.7243404E-1,3.853665E-2,-4.0651786E-1,1.1462927E-1,4.8939392E-2,-2.3850733E-1,3.6441666E-1,3.8794704E-2,-3.859E-1,-1.880645E-2,3.974035E-1,-2.2310628E-1,1.8538749E-1,-1.7766193E-1,4.7173613E-1,5.8460545E-2,4.1762413E-3,-4.2705646E-1,2.5374717E-1,-1.7016189E-1,-2.9557228E-1,2.0990016E-1,1.1765844E-1,-1.9106482E-1,1.16233654E-1,-1.8988775E-2,8.79665E-3,-2.3664534E-1,1.869246E-2,-2.1408902E-1,-1.7683543E-1,8.141725E-2,3.9012173E-1,8.175756E-2,8.861889E-2,-2.3299578E-1,-7.2224535E-2,4.3621236E-3],"categories":[],"categories_nodes":[],"categories_segments":[],"categories_sizes":[],"default_left":[0,0,0,0,0,0,0,0,0,0,0,0,0,0,0,0,0,0,0,0,0,0,0,0,0,0,0,0,0,0,0,0,0,0,0,0,0,0,0,0,0,0,0,0,0,0,0,0,0,0,0,0,0,0,0,0,0,0,0,0,0,0,0,0,0,0,0,0,0,0,0,0,0,0,0,0,0,0,0,0,0,0,0,0,0,0,0,0,0,0,0,0,0,0,0,0,0],"id":12,"left_children":[1,3,5,7,9,11,13,15,17,19,21,-1,23,25,27,29,31,33,35,37,39,41,43,-1,-1,45,47,49,51,-1,53,55,57,59,61,63,65,67,69,71,73,75,77,79,81,83,85,87,89,91,-1,93,95,-1,-1,-1,-1,-1,-1,-1,-1,-1,-1,-1,-1,-1,-1,-1,-1,-1,-1,-1,-1,-1,-1,-1,-1,-1,-1,-1,-1,-1,-1,-1,-1,-1,-1,-1,-1,-1,-1,-1,-1,-1,-1,-1,-1],"loss_changes":[4.264412E0,9.302207E0,9.930007E0,2.0198708E1,6.614629E0,1.4381504E0,6.2489557E0,7.825034E0,1.1025484E1,7.751958E0,7.609806E0,0E0,2.5831938E0,1.5932951E1,8.419938E0,4.8022704E0,7.7503357E0,1.706025E1,1.3466719E1,7.700989E0,9.581917E0,5.0529757E0,1.1908749E1,0E0,0E0,7.3804398E0,9.818968E0,1.2152853E1,6.1233497E0,0E0,3.4052896E0,9.004006E0,4.549176E0,4.0681458E0,7.5038896E0,7.592942E0,6.986597E0,1.9267712E0,5.850581E0,6.2408857E0,2.3589153E0,2.6014805E0,3.3852923E0,8.274226E0,9.996319E0,9.6255455E0,6.573055E0,8.724312E0,5.8118024E0,8.501962E0,0E0,8.750771E0,8.44171E0,0E0,0E0,0E0,0E0,0E0,0E0,0E0,0E0,0E0,0E0,0E0,0E0,0E0,0E0,0E0,0E0,0E0,0E0,0E0,0E0,0E0,0E0,0E0,0E0,0E0,0E0,0E0,0E0,0E0,0E0,0E0,0E0,0E0,0E0,0E0,0E0,0E0,0E0,0E0,0E0,0E0,0E0,0E0,0E0],"parents":[2147483647,0,0,1,1,2,2,3,3,4,4,5,5,6,6,7,7,8,8,9,9,10,10,12,12,13,13,14,14,15,15,16,16,17,17,18,18,19,19,20,20,21,21,22,22,25,25,26,26,27,27,28,28,30,30,31,31,32,32,33,33,34,34,35,35,36,36,37,37,38,38,39,39,40,40,41,41,42,42,43,43,44,44,45,45,46,46,47,47,48,48,49,49,51,51,52,52],"right_children":[2,4,6,8,10,12,14,16,18,20,22,-1,24,26,28,30,32,34,36,38,40,42,44,-1,-1,46,48,50,52,-1,54,56,58,60,62,64,66,68,70,72,74,76,78,80,82,84,86,88,90,92,-1,94,96,-1,-1,-1,-1,-1,-1,-1,-1,-1,-1,-1,-1,-1,-1,-1,-1,-1,-1,-1,-1,-1,-1,-1,-1,-1,-1,-1,-1,-1,-1,-1,-1,-1,-1,-1,-1,-1,-1,-1,-1,-1,-1,-1,-1],"split_conditions":[-4.5768532E-1,-3.5108358E-1,-4.54808E-1,-7.585756E-1,-2.9594353E-1,-5.354518E-1,-6.1004245E-1,-1.5673808E0,-6.7306035E-3,-1.1281661E0,-1.1378659E0,-4.537269E-1,-1.9162168E-1,-3.260962E-1,-5.024996E-1,-8.1690127E-1,1.119122E0,-3.3807073E-2,1.996943E-1,-5.83602E-1,-4.8845443E-1,7.2345465E-1,-3.8428956E-1,9.806754E-2,-2.9958385E-1,9.315752E-1,4.1647315E-1,5.7427186E-1,-5.6331974E-1,-2.71397E-1,-1.3900073E0,9.349983E-1,-5.13568E-1,8.981213E-1,-5.9662926E-1,3.63775E-1,6.05048E-1,1.1085932E0,4.6319598E-1,-6.443359E-1,7.390302E-1,-1.3920858E0,9.3567026E-1,-7.383466E-1,-6.915119E-1,-2.922907E-1,6.267127E-1,-1.2073953E0,-5.7033837E-1,-1.687475E-2,-4.0525612E-1,2.1559038E0,3.5512263E-1,-3.2252062E-2,2.3767237E-1,2.315116E-2,-2.3866613E-1,-1.3956665E-1,1.0188963E-1,4.7243404E-1,3.853665E-2,-4.0651786E-1,1.1462927E-1,4.8939392E-2,-2.3850733E-1,3.6441666E-1,3.8794704E-2,-3.859E-1,-1.880645E-2,3.974035E-1,-2.2310628E-1,1.8538749E-1,-1.7766193E-1,4.7173613E-1,5.8460545E-2,4.1762413E-3,-4.2705646E-1,2.5374717E-1,-1.7016189E-1,-2.9557228E-1,2.0990016E-1,1.1765844E-1,-1.9106482E-1,1.16233654E-1,-1.8988775E-2,8.79665E-3,-2.3664534E-1,1.869246E-2,-2.1408902E-1,-1.7683543E-1,8.141725E-2,3.9012173E-1,8.175756E-2,8.861889E-2,-2.3299578E-1,-7.2224535E-2,4.3621236E-3],"split_indices":[14,24,14,28,3,23,28,1,17,26,5,0,23,17,24,14,2,16,28,28,3,17,5,0,0,26,16,14,3,0,26,26,14,23,14,17,17,5,17,3,4,26,17,14,14,14,22,4,24,22,0,14,28,0,0,0,0,0,0,0,0,0,0,0,0,0,0,0,0,0,0,0,0,0,0,0,0,0,0,0,0,0,0,0,0,0,0,0,0,0,0,0,0,0,0,0,0],"split_type":[0,0,0,0,0,0,0,0,0,0,0,0,0,0,0,0,0,0,0,0,0,0,0,0,0,0,0,0,0,0,0,0,0,0,0,0,0,0,0,0,0,0,0,0,0,0,0,0,0,0,0,0,0,0,0,0,0,0,0,0,0,0,0,0,0,0,0,0,0,0,0,0,0,0,0,0,0,0,0,0,0,0,0,0,0,0,0,0,0,0,0,0,0,0,0,0,0],"sum_hessian":[1.9099221E3,6.2450275E2,1.2854194E3,4.9856665E2,1.2593608E2,8.137389E0,1.2772821E3,3.8333948E2,1.1522718E2,3.4397533E1,9.153855E1,3.5737598E0,4.5636296E0,3.8091702E2,8.96365E2,2.7496675E1,3.558428E2,3.5637245E1,7.9589935E1,1.1089299E1,2.3308235E1,1.6835152E1,7.47034E1,1.7656457E0,2.797984E0,2.4684143E2,1.3407559E2,9.151218E1,8.0485284E2,1.3508611E0,2.6145815E1,2.9856308E2,5.7279724E1,2.3125189E1,1.2512054E1,5.335088E1,2.6239056E1,7.178096E0,3.9112036E0,1.5049322E1,8.258913E0,1.1333425E1,5.501726E0,2.0713972E1,5.3989426E1,2.086987E2,3.814274E1,9.72961E1,3.6779503E1,8.823094E1,3.2812345E0,1.0289991E2,7.0195294E2,4.915669E0,2.1230145E1,2.8723328E2,1.1329802E1,4.987079E1,7.4089346E0,2.0784775E1,2.3404143E0,2.1861305E0,1.0325924E1,4.4229218E1,9.121662E0,1.7008411E1,9.230644E0,5.437006E0,1.74109E0,2.4819183E0,1.4292853E0,7.6251245E0,7.4241977E0,6.3910904E0,1.8678226E0,1.4011536E0,9.932271E0,1.600236E0,3.9014902E0,2.5353346E0,1.8178638E1,1.1306551E1,4.2682873E1,7.106961E1,1.3762909E2,1.944142E1,1.8701319E1,1.7469461E1,7.982663E1,9.917297E0,2.6862206E1,8.100252E0,8.013069E1,9.558838E1,7.3115306E0,1.7019843E2,5.317545E2],"tree_param":{"num_deleted":"0","num_feature":"29","num_nodes":"97","size_leaf_vector":"1"}},{"base_weights":[-1.7807721E-3,6.764707E-2,-3.0993411E-2,1.1588551E-1,-2.2716974E-1,-4.8907384E-2,2.0482387E-1,7.03711E-2,6.77197E-1,5.9305076E-2,-6.073564E-1,1.349299E-1,-7.085688E-2,8.422282E-1,9.547176E-2,-2.6791114E-1,1.1994239E-1,8.0648893E-1,-3.0794114E-1,-3.942071E-1,2.98609E-1,-7.8677803E-1,8.0951667E-1,-8.981744E-2,3.530621E-1,-1.0169859E0,-6.1543576E-2,1.0743375E0,-2.2611885E-1,-6.8170017E-1,1.8010603E-1,1.9365725E-1,-5.368842E-1,2.7511647E-1,-3.2976896E-2,9.006744E-1,-2.4698243E-1,-8.1783813E-1,4.2299196E-1,-3.3516017E-1,5.064199E-1,-2.413466E-1,-1.3523272E0,3.8611037E-1,-8.2761064E-2,7.152601E-2,-7.6964515E-1,4.616949E-1,-8.105674E-1,1.3104092E-1,-1.3728781E0,-1.113761E-1,3.322805E-2,-2.7035868E-2,1.2503525E0,-1.8355489E-1,7.477477E-2,-4.0437797E-1,3.3864793E-1,-4.2160055E-1,3.4552348E-1,-8.1194125E-2,2.718493E-1,-1.21281944E-1,-4.0687084E-1,1.3635729E-2,1.6366334E-1,-5.7662167E-2,6.5361075E-2,2.9134768E-1,-1.6333173E-1,-4.5515344E-1,1.3080695E-2,-2.9847974E-1,3.169255E-1,-1.8302977E-1,1.791335E-1,2.1733664E-1,-1.775801E-2,-2.6991656E-1,1.314977E-1,-4.3598437E-1,-2.0167809E-2,-1.16395585E-1,8.411752E-2,-2.970298E-1,7.1405515E-2,2.42433E-1,-1.3928338E-2,4.5175225E-2,-3.1999552E-1,7.71935E-2,-4.9937496E-1,-1.017945E-1,-2.305801E-2,1.65088E-2,-2.5298834E-1,4.1337898E-1,4.140883E-2,-2.0802881E-1,2.9820555E-1,-3.4952402E-1,3.9308682E-2,3.0164194E-1,5.781235E-2],"categories":[],"categories_nodes":[],"categories_segments":[],"categories_sizes":[],"default_left":[0,0,0,0,0,0,0,0,0,0,0,0,0,0,0,0,0,0,0,0,0,0,0,0,0,0,0,0,0,0,0,0,0,0,0,0,0,0,0,0,0,0,0,0,0,0,0,0,0,0,0,0,0,0,0,0,0,0,0,0,0,0,0,0,0,0,0,0,0,0,0,0,0,0,0,0,0,0,0,0,0,0,0,0,0,0,0,0,0,0,0,0,0,0,0,0,0,0,0,0,0,0,0,0,0],"id":13,"left_children":[1,3,5,7,9,11,13,15,17,19,21,23,25,27,29,31,33,35,-1,37,39,41,43,45,47,49,51,53,55,57,59,61,63,65,67,69,-1,71,73,75,77,79,81,-1,-1,83,85,87,89,-1,91,93,95,-1,97,-1,-1,-1,99,101,103,-1,-1,-1,-1,-1,-1,-1,-1,-1,-1,-1,-1,-1,-1,-1,-1,-1,-1,-1,-1,-1,-1,-1,-1,-1,-1,-1,-1,-1,-1,-1,-1,-1,-1,-1,-1,-1,-1,-1,-1,-1,-1,-1,-1],"loss_changes":[3.836108E0,7.992572E0,5.6336727E0,1.2267678E1,8.651499E0,5.0052357E0,6.4840817E0,7.528111E0,8.766354E0,5.112416E0,9.300899E0,6.5223656E0,9.68874E0,3.631115E0,5.484559E0,7.2353024E0,9.276953E0,5.969366E0,0E0,5.9983892E0,4.2123933E0,9.161316E0,2.5959086E0,7.2950015E0,8.892826E0,6.147565E0,5.1841626E0,2.4489765E0,7.511552E-1,6.0404634E0,7.541172E0,7.484885E0,3.4238806E0,1.2021771E1,7.934797E0,3.8569088E0,0E0,6.7496586E0,6.6496744E0,2.4612994E0,2.942689E0,7.9453344E0,1.8331642E0,0E0,0E0,5.316524E0,3.0670109E0,1.0998809E1,1.6662288E0,0E0,4.639372E0,5.631793E0,7.2847347E0,0E0,1.2245054E0,0E0,0E0,0E0,3.4246356E0,6.920665E0,5.739253E0,0E0,0E0,0E0,0E0,0E0,0E0,0E0,0E0,0E0,0E0,0E0,0E0,0E0,0E0,0E0,0E0,0E0,0E0,0E0,0E0,0E0,0E0,0E0,0E0,0E0,0E0,0E0,0E0,0E0,0E0,0E0,0E0,0E0,0E0,0E0,0E0,0E0,0E0,0E0,0E0,0E0,0E0,0E0,0E0],"parents":[2147483647,0,0,1,1,2,2,3,3,4,4,5,5,6,6,7,7,8,8,9,9,10,10,11,11,12,12,13,13,14,14,15,15,16,16,17,17,19,19,20,20,21,21,22,22,23,23,24,24,25,25,26,26,27,27,28,28,29,29,30,30,31,31,32,32,33,33,34,34,35,35,37,37,38,38,39,39,40,40,41,41,42,42,45,45,46,46,47,47,48,48,50,50,51,51,52,52,54,54,58,58,59,59,60,60],"right_children":[2,4,6,8,10,12,14,16,18,20,22,24,26,28,30,32,34,36,-1,38,40,42,44,46,48,50,52,54,56,58,60,62,64,66,68,70,-1,72,74,76,78,80,82,-1,-1,84,86,88,90,-1,92,94,96,-1,98,-1,-1,-1,100,102,104,-1,-1,-1,-1,-1,-1,-1,-1,-1,-1,-1,-1,-1,-1,-1,-1,-1,-1,-1,-1,-1,-1,-1,-1,-1,-1,-1,-1,-1,-1,-1,-1,-1,-1,-1,-1,-1,-1,-1,-1,-1,-1,-1,-1],"split_conditions":[-5.076972E-1,5.9679735E-1,1.5640213E0,3.5444614E-1,2.5719073E-1,-6.5054184E-1,1.6762756E0,-1.0806241E0,1.3346214E0,-8.7257844E-1,1.2265536E0,2.2164522E-1,-6.364545E-1,7.062833E-1,-7.018046E-1,-7.005421E-1,-4.7839364E-1,9.349775E-1,-3.0794114E-1,-6.216154E-1,-6.790125E-1,-2.250881E-2,1.5471542E-1,1.2741557E0,6.1287767E-1,-4.2479777E-1,4.8169222E-1,-4.6854502E-1,1.2271458E0,-3.9584354E-1,-3.682765E-1,3.04626E-1,7.959447E-1,-8.945479E-1,8.642682E-1,9.184772E-1,-2.4698243E-1,6.789599E-2,-1.214914E0,1.814293E-1,1.098165E0,8.557323E-1,1.3354876E0,3.8611037E-1,-8.2761064E-2,-4.424997E-1,2.6953661E0,-9.544999E-3,-1.3924797E0,1.3104092E-1,-7.065875E-1,-8.736236E-1,2.2036552E0,-2.7035868E-2,2.3349571E0,-1.8355489E-1,7.477477E-2,-4.0437797E-1,-5.4930574E-1,1.8030275E0,-4.4540085E-2,-8.1194125E-2,2.718493E-1,-1.21281944E-1,-4.0687084E-1,1.3635729E-2,1.6366334E-1,-5.7662167E-2,6.5361075E-2,2.9134768E-1,-1.6333173E-1,-4.5515344E-1,1.3080695E-2,-2.9847974E-1,3.169255E-1,-1.8302977E-1,1.791335E-1,2.1733664E-1,-1.775801E-2,-2.6991656E-1,1.314977E-1,-4.3598437E-1,-2.0167809E-2,-1.16395585E-1,8.411752E-2,-2.970298E-1,7.1405515E-2,2.42433E-1,-1.3928338E-2,4.5175225E-2,-3.1999552E-1,7.71935E-2,-4.9937496E-1,-1.017945E-1,-2.305801E-2,1.65088E-2,-2.5298834E-1,4.1337898E-1,4.140883E-2,-2.0802881E-1,2.9820555E-1,-3.4952402E-1,3.9308682E-2,3.0164194E-1,5.781235E-2],"split_indices":[23,25,16,25,2,17,16,28,7,2,7,5,17,5,3,17,24,26,0,23,1,4,17,8,22,15,15,1,5,15,25,15,26,28,28,14,0,14,15,14,5,25,16,0,0,25,24,2,26,0,0,28,11,0,14,0,0,0,1,19,25,0,0,0,0,0,0,0,0,0,0,0,0,0,0,0,0,0,0,0,0,0,0,0,0,0,0,0,0,0,0,0,0,0,0,0,0,0,0,0,0,0,0,0,0],"split_type":[0,0,0,0,0,0,0,0,0,0,0,0,0,0,0,0,0,0,0,0,0,0,0,0,0,0,0,0,0,0,0,0,0,0,0,0,0,0,0,0,0,0,0,0,0,0,0,0,0,0,0,0,0,0,0,0,0,0,0,0,0,0,0,0,0,0,0,0,0,0,0,0,0,0,0,0,0,0,0,0,0,0,0,0,0,0,0,0,0,0,0,0,0,0,0,0,0,0,0,0,0,0,0,0,0],"sum_hessian":[1.8893793E3,5.59155E2,1.3302242E3,4.8105145E2,7.810356E1,1.2370442E3,9.3180046E1,4.460116E2,3.503986E1,4.502257E1,3.3080986E1,1.313958E2,1.1056484E3,1.2663511E1,8.051653E1,5.644149E1,3.8957013E2,3.3057713E1,1.9821459E0,1.5327552E1,2.969502E1,2.9757448E1,3.3235395E0,6.500632E1,6.638948E1,9.722792E0,1.0959255E3,1.0398684E1,2.2648277E0,7.214374E0,7.3302155E1,2.0883902E1,3.5557587E1,1.929629E2,1.9660722E2,3.167457E1,1.3831422E0,1.0094067E1,5.233485E0,7.1812544E0,2.2513767E1,1.587444E1,1.3883008E1,2.1790698E0,1.1444696E0,5.326074E1,1.1745579E1,6.12725E1,5.1169806E0,1.8673759E0,7.855416E0,7.1814014E2,3.7778543E2,1.4295111E0,8.9691725E0,1.0917972E0,1.1730305E0,4.1703434E0,3.044031E0,1.547243E1,5.7829727E1,1.3019749E1,7.864154E0,3.1889687E1,3.667901E0,1.0497758E2,8.798532E1,1.2040896E2,7.6198265E1,3.0514227E1,1.1603427E0,5.1510773E0,4.9429893E0,1.4397935E0,3.7936919E0,5.8126163E0,1.368638E0,1.604704E1,6.4667263E0,7.8990965E0,7.9753437E0,1.2750496E1,1.132512E0,1.6375822E1,3.6884914E1,9.651482E0,2.0940967E0,3.608262E1,2.5189878E1,1.1631919E0,3.9537885E0,1.2101897E0,6.645226E0,9.328296E1,6.248572E2,3.695315E2,8.2539425E0,7.8320885E0,1.1370839E0,1.1596859E0,1.884345E0,6.12454E0,9.347891E0,9.824029E0,4.80057E1],"tree_param":{"num_deleted":"0","num_feature":"29","num_nodes":"105","size_leaf_vector":"1"}},{"base_weights":[-2.2170239E-3,1.04139626E-1,-2.2177393E-2,7.638114E-2,6.9807714E-1,-2.0946088E-1,-2.2439184E-3,1.625765E-1,-3.147346E-1,9.446542E-1,-1.8424904E-1,1.551851E-2,-4.4403586E-1,-7.2299427E-1,3.497463E-3,1.2232672E-1,7.398601E-1,3.178501E-1,-3.948108E-1,1.1511497E0,-1.384129E-1,1.7489326E-1,-6.6020554E-1,-2.699111E-1,-7.409374E-1,-1.2808218E0,-5.723762E-3,7.439106E-2,-5.057283E-2,1.4231181E-1,-2.9048333E-1,-1.528997E-1,1.0832576E0,-6.485849E-1,9.524399E-2,1.2022049E-1,3.8404363E-1,-3.6436245E-1,4.0091234E-1,-1.0350487E0,2.049435E-1,-8.951102E-1,-7.728702E-2,-1.083676E0,3.317754E-2,-4.2574814E-1,-1.0019596E-1,7.3229706E-1,-2.5065836E-1,4.6007767E-1,4.300996E-2,-4.5721322E-1,-1.9569492E-2,5.284813E-3,1.13099776E-1,-2.573626E-1,1.3756606E-1,3.6732206E-1,3.306464E-2,-2.525464E-1,8.24575E-2,-2.5042382E-1,1.8168227E-1,1.5150669E-1,-1.7973241E-1,1.6683304E-1,-1.6564378E-1,-3.8365117E-1,8.891033E-3,2.1692333E-1,-6.25412E-2,9.796301E-2,-3.4161645E-1,4.445339E-2,-2.7549157E-1,7.9292886E-2,-3.671098E-1,2.8343907E-1,-8.4718905E-2,4.647447E-3,3.0846035E-1,1.6734448E-1,-3.5470647E-1,2.272376E-2,-1.06487684E-1,-2.193451E-1,5.2960287E-3,-6.5563135E-2,7.835883E-3],"categories":[],"categories_nodes":[],"categories_segments":[],"categories_sizes":[],"default_left":[0,0,0,0,0,0,0,0,0,0,0,0,0,0,0,0,0,0,0,0,0,0,0,0,0,0,0,0,0,0,0,0,0,0,0,0,0,0,0,0,0,0,0,0,0,0,0,0,0,0,0,0,0,0,0,0,0,0,0,0,0,0,0,0,0,0,0,0,0,0,0,0,0,0,0,0,0,0,0,0,0,0,0,0,0,0,0,0,0],"id":14,"left_children":[1,3,5,7,9,11,13,15,17,19,-1,21,23,25,27,29,31,-1,33,35,-1,37,39,41,43,45,47,49,51,53,-1,55,57,59,61,-1,-1,63,65,67,69,71,73,75,77,-1,-1,79,-1,81,83,85,87,-1,-1,-1,-1,-1,-1,-1,-1,-1,-1,-1,-1,-1,-1,-1,-1,-1,-1,-1,-1,-1,-1,-1,-1,-1,-1,-1,-1,-1,-1,-1,-1,-1,-1,-1,-1],"loss_changes":[3.9829693E0,4.8345804E0,5.8965664E0,9.637577E0,4.8236303E0,8.025563E0,5.9145246E0,5.33888E0,6.1066303E0,3.850871E0,0E0,8.571931E0,3.647296E0,4.512129E0,5.440741E0,4.9249296E0,4.7739944E0,0E0,6.226949E0,4.797821E-1,0E0,7.9865403E0,5.139884E0,5.769332E0,7.1829405E0,3.5769653E-1,4.253262E0,7.413057E0,1.014312E1,6.330732E0,0E0,2.5711377E0,1.3730717E0,6.0822945E0,8.946987E0,0E0,0E0,4.2868643E0,7.0822544E0,2.832591E0,1.313478E0,3.7420797E0,7.3713675E0,3.853157E0,2.9240758E0,0E0,0E0,7.646136E-1,0E0,8.060552E0,7.4399314E0,7.427806E0,6.8171782E0,0E0,0E0,0E0,0E0,0E0,0E0,0E0,0E0,0E0,0E0,0E0,0E0,0E0,0E0,0E0,0E0,0E0,0E0,0E0,0E0,0E0,0E0,0E0,0E0,0E0,0E0,0E0,0E0,0E0,0E0,0E0,0E0,0E0,0E0,0E0,0E0],"parents":[2147483647,0,0,1,1,2,2,3,3,4,4,5,5,6,6,7,7,8,8,9,9,11,11,12,12,13,13,14,14,15,15,16,16,18,18,19,19,21,21,22,22,23,23,24,24,25,25,26,26,27,27,28,28,29,29,31,31,32,32,33,33,34,34,37,37,38,38,39,39,40,40,41,41,42,42,43,43,44,44,47,47,49,49,50,50,51,51,52,52],"right_children":[2,4,6,8,10,12,14,16,18,20,-1,22,24,26,28,30,32,-1,34,36,-1,38,40,42,44,46,48,50,52,54,-1,56,58,60,62,-1,-1,64,66,68,70,72,74,76,78,-1,-1,80,-1,82,84,86,88,-1,-1,-1,-1,-1,-1,-1,-1,-1,-1,-1,