{"learner":{"attributes":{"scikit_learn":"{\"_estimator_type\": \"classifier\"}"},"feature_names":[],"feature_types":[],"gradient_booster":{"model":{"gbtree_model_param":{"num_parallel_tree":"1","num_trees":"100"},"iteration_indptr":[0,1,2,3,4,5,6,7,8,9,10,11,12,13,14,15,16,17,18,19,20,21,22,23,24,25,26,27,28,29,30,31,32,33,34,35,36,37,38,39,40,41,42,43,44,45,46,47,48,49,50,51,52,53,54,55,56,57,58,59,60,61,62,63,64,65,66,67,68,69,70,71,72,73,74,75,76,77,78,79,80,81,82,83,84,85,86,87,88,89,90,91,92,93,94,95,96,97,98,99,100],"tree_info":[0,0,0,0,0,0,0,0,0,0,0,0,0,0,0,0,0,0,0,0,0,0,0,0,0,0,0,0,0,0,0,0,0,0,0,0,0,0,0,0,0,0,0,0,0,0,0,0,0,0,0,0,0,0,0,0,0,0,0,0,0,0,0,0,0,0,0,0,0,0,0,0,0,0,0,0,0,0,0,0,0,0,0,0,0,0,0,0,0,0,0,0,0,0,0,0,0,0,0,0],"trees":[{"base_weights":[5.818736E-8,1.9098091E-1,-2.1614552E-1,-1.912464E-1,2.746218E-1,-5.089293E-1,3.2493426E-3,5.4354332E-2,-7.6714766E-1,3.7575972E-1,-2.6503587E-1,4.0643103E-2,-7.1514595E-1,2.3342305E-1,-1.957808E-1,1.8482885E-1,-7.356962E-1,-9.1966665E-1,4.6879774E-1,1.1192816E0,3.3972043E-1,-8.481117E-1,-1.03216395E-1,-1.1025374E0,2.1093594E-1,-1.2008857E0,-5.7445604E-1,5.0640154E-1,-1.5836677E-1,3.0004305E-3,-4.166296E-1,-2.5824659E-2,8.293817E-1,2.1595408E-1,-9.268411E-1,-1.4673547E0,-5.5299276E-1,3.6011007E-1,-1.372443E-1,4.736157E-1,1.4459084E0,2.852205E-1,7.8160924E-1,5.0623107E-1,-1.0290405E0,1.2677189E0,-1.7781532E-1,6.300349E-2,-1.5046346E0,7.939619E-1,-1.5003614E-1,-1.4267861E0,4.4915146E-1,-5.6457464E-2,-8.422021E-1,8.39618E-1,9.150467E-2,-8.654961E-1,8.976247E-2,9.403528E-1,-1.261536E-1,-5.1611835E-1,6.39673E-1,4.5872178E-2,-2.5240517E-1,3.4893158E-1,-2.3063307E-1,6.255727E-2,-3.2754183E-1,-4.7581506E-1,7.984477E-2,-2.8043902E-1,2.0975907E-1,1.884919E-1,-3.46163E-1,3.0574685E-1,-1.8112439E-1,5.095536E-1,1.4000344E-1,1.3841736E-1,1.3136917E-2,4.0405968E-1,1.5475771E-1,3.9722553E-1,-1.4876647E-1,5.3402103E-2,-3.5649008E-1,4.9949574E-1,-5.3603243E-2,-4.2011237E-1,-2.7132325E-2,3.4674078E-1,-1.8290295E-1,-5.1644367E-1,-1.2225602E-1,5.019361E-1,1.4687745E-1,-1.5948609E-1,1.9521402E-1,-4.6018827E-1,-1.084892E-1,-1.3245586E-1,2.8419077E-1,6.2116068E-2,-2.6362923E-1,-2.7846903E-1,6.80329E-2,3.3150306E-1,-4.755269E-3,-1.5004438E-1,2.9502594E-1,-4.8232207E-1,-1.4917493E-1,1.0826198E-1,-1.2116587E-1,4.04573E-1,-2.0267086E-1,-1.8460083E-1,4.5639437E-2,-8.376473E-2,-2.5941965E-1,-1.0030879E-1,3.9618364E-1],"categories":[],"categories_nodes":[],"categories_segments":[],"categories_sizes":[],"default_left":[0,0,0,0,0,0,0,0,0,0,0,0,0,0,0,0,0,0,0,0,0,0,0,0,0,0,0,0,0,0,0,0,0,0,0,0,0,0,0,0,0,0,0,0,0,0,0,0,0,0,0,0,0,0,0,0,0,0,0,0,0,0,0,0,0,0,0,0,0,0,0,0,0,0,0,0,0,0,0,0,0,0,0,0,0,0,0,0,0,0,0,0,0,0,0,0,0,0,0,0,0,0,0,0,0,0,0,0,0,0,0,0,0,0,0,0,0,0,0,0,0,0,0],"id":0,"left_children":[1,3,5,7,9,11,13,15,17,19,21,23,25,27,29,31,33,35,37,39,41,43,45,47,49,51,53,55,57,59,61,63,65,-1,67,69,71,-1,73,75,77,79,81,83,85,87,89,91,93,95,97,99,101,103,105,107,109,111,113,115,117,119,121,-1,-1,-1,-1,-1,-1,-1,-1,-1,-1,-1,-1,-1,-1,-1,-1,-1,-1,-1,-1,-1,-1,-1,-1,-1,-1,-1,-1,-1,-1,-1,-1,-1,-1,-1,-1,-1,-1,-1,-1,-1,-1,-1,-1,-1,-1,-1,-1,-1,-1,-1,-1,-1,-1,-1,-1,-1,-1,-1,-1],"loss_changes":[8.9685745E1,3.692859E1,6.5468475E1,2.9416302E1,5.177498E1,4.950657E1,2.6781178E1,1.5239945E1,1.214772E1,2.0996689E1,1.4067221E1,2.360638E1,2.1008316E1,2.9072426E1,1.3764783E1,1.7204784E1,6.5011873E0,1.0367435E1,3.4854982E0,7.0011635E0,1.8135963E1,8.472778E0,1.2351391E1,7.4655113E0,2.2288221E1,2.6879242E1,3.436435E1,2.2043762E1,1.974282E1,2.0214382E1,1.5938303E1,1.4173004E1,1.7536184E1,0E0,3.7810688E0,4.8907814E0,1.7361649E1,0E0,4.6115904E0,8.685223E0,5.0733643E0,2.8910671E1,1.179166E1,4.3403034E0,5.777996E0,3.8841124E0,1.1978851E1,4.3756375E0,2.0898666E0,1.0001892E1,2.0481731E1,6.5407867E0,4.516712E0,1.8734446E1,1.5246124E1,2.0136028E1,3.869203E1,7.18347E0,1.1370583E1,1.4249489E1,2.00743E1,1.1014446E1,9.217176E0,0E0,0E0,0E0,0E0,0E0,0E0,0E0,0E0,0E0,0E0,0E0,0E0,0E0,0E0,0E0,0E0,0E0,0E0,0E0,0E0,0E0,0E0,0E0,0E0,0E0,0E0,0E0,0E0,0E0,0E0,0E0,0E0,0E0,0E0,0E0,0E0,0E0,0E0,0E0,0E0,0E0,0E0,0E0,0E0,0E0,0E0,0E0,0E0,0E0,0E0,0E0,0E0,0E0,0E0,0E0,0E0,0E0,0E0,0E0,0E0],"parents":[2147483647,0,0,1,1,2,2,3,3,4,4,5,5,6,6,7,7,8,8,9,9,10,10,11,11,12,12,13,13,14,14,15,15,16,16,17,17,18,18,19,19,20,20,21,21,22,22,23,23,24,24,25,25,26,26,27,27,28,28,29,29,30,30,31,31,32,32,34,34,35,35,36,36,38,38,39,39,40,40,41,41,42,42,43,43,44,44,45,45,46,46,47,47,48,48,49,49,50,50,51,51,52,52,53,53,54,54,55,55,56,56,57,57,58,58,59,59,60,60,61,61,62,62],"right_children":[2,4,6,8,10,12,14,16,18,20,22,24,26,28,30,32,34,36,38,40,42,44,46,48,50,52,54,56,58,60,62,64,66,-1,68,70,72,-1,74,76,78,80,82,84,86,88,90,92,94,96,98,100,102,104,106,108,110,112,114,116,118,120,122,-1,-1,-1,-1,-1,-1,-1,-1,-1,-1,-1,-1,-1,-1,-1,-1,-1,-1,-1,-1,-1,-1,-1,-1,-1,-1,-1,-1,-1,-1,-1,-1,-1,-1,-1,-1,-1,-1,-1,-1,-1,-1,-1,-1,-1,-1,-1,-1,-1,-1,-1,-1,-1,-1,-1,-1,-1,-1,-1,-1],"split_conditions":[-2.0726186E-1,-9.901351E-1,2.2849742E-1,-6.177479E-1,1.5962599E-1,-3.4502605E-1,4.1158232E-1,-4.3591467E-1,1.2563739E-2,-7.968667E-1,-3.144623E-1,-9.530561E-1,-8.443997E-1,1.0221598E-1,4.2334333E-1,-1.6300389E-1,-6.187662E-1,-1.0681303E0,-2.2573067E-1,1.8052188E-1,8.036337E-1,-7.1162754E-1,-1.3923532E0,-1.690259E-1,-2.1013065E-1,9.009358E-1,-4.9878764E-1,4.554782E-1,-3.5048258E-1,-3.931013E-1,2.333961E0,-3.885719E-1,1.1593325E0,2.1595408E-1,-7.777345E-1,-8.550588E-2,1.0281894E0,3.6011007E-1,-5.26415E-1,4.95727E-1,-1.9894175E-1,-3.0633065E-1,3.114292E-1,-7.009413E-1,-1.5788015E0,-3.210517E-1,1.9355395E-1,-5.498592E-1,-6.689032E-1,-6.9865805E-1,-2.1209039E-1,9.222429E-1,7.70643E-1,9.417143E-3,1.5991361E0,1.2808808E-4,2.673133E-1,9.3245715E-1,1.1944794E-1,2.2764547E-1,-5.191445E-1,1.0536064E0,-4.2801413E-1,4.5872178E-2,-2.5240517E-1,3.4893158E-1,-2.3063307E-1,6.255727E-2,-3.2754183E-1,-4.7581506E-1,7.984477E-2,-2.8043902E-1,2.0975907E-1,1.884919E-1,-3.46163E-1,3.0574685E-1,-1.8112439E-1,5.095536E-1,1.4000344E-1,1.3841736E-1,1.3136917E-2,4.0405968E-1,1.5475771E-1,3.9722553E-1,-1.4876647E-1,5.3402103E-2,-3.5649008E-1,4.9949574E-1,-5.3603243E-2,-4.2011237E-1,-2.7132325E-2,3.4674078E-1,-1.8290295E-1,-5.1644367E-1,-1.2225602E-1,5.019361E-1,1.4687745E-1,-1.5948609E-1,1.9521402E-1,-4.6018827E-1,-1.084892E-1,-1.3245586E-1,2.8419077E-1,6.2116068E-2,-2.6362923E-1,-2.7846903E-1,6.80329E-2,3.3150306E-1,-4.755269E-3,-1.5004438E-1,2.9502594E-1,-4.8232207E-1,-1.4917493E-1,1.0826198E-1,-1.2116587E-1,4.04573E-1,-2.0267086E-1,-1.8460083E-1,4.5639437E-2,-8.376473E-2,-2.5941965E-1,-1.0030879E-1,3.9618364E-1],"split_indices":[3,28,28,24,17,17,3,14,18,3,28,28,28,14,17,16,25,28,14,22,28,3,26,3,14,14,24,17,23,14,13,17,15,0,17,16,2,0,3,4,17,14,14,14,1,3,17,17,25,26,16,26,25,17,2,24,25,28,17,20,16,3,4,0,0,0,0,0,0,0,0,0,0,0,0,0,0,0,0,0,0,0,0,0,0,0,0,0,0,0,0,0,0,0,0,0,0,0,0,0,0,0,0,0,0,0,0,0,0,0,0,0,0,0,0,0,0,0,0,0,0,0,0],"split_type":[0,0,0,0,0,0,0,0,0,0,0,0,0,0,0,0,0,0,0,0,0,0,0,0,0,0,0,0,0,0,0,0,0,0,0,0,0,0,0,0,0,0,0,0,0,0,0,0,0,0,0,0,0,0,0,0,0,0,0,0,0,0,0,0,0,0,0,0,0,0,0,0,0,0,0,0,0,0,0,0,0,0,0,0,0,0,0,0,0,0,0,0,0,0,0,0,0,0,0,0,0,0,0,0,0,0,0,0,0,0,0,0,0,0,0,0,0,0,0,0,0,0,0],"sum_hessian":[2.1706375E3,1.1524647E3,1.0181727E3,2.0667982E2,9.4578485E2,4.3557523E2,5.825975E2,1.4552457E2,6.1155262E1,7.967657E2,1.4901915E2,1.1906555E2,3.1650967E2,2.700816E2,3.1251587E2,1.255555E2,1.9969065E1,5.4665318E1,6.4899464E0,3.544509E1,7.613206E2,3.1451277E1,1.1756787E2,1.4727185E1,1.0433836E2,6.93925E1,2.4711719E2,1.5900368E2,1.1107793E2,1.649944E2,1.4752147E2,9.535229E1,3.020321E1,1.9969065E0,1.7972158E1,2.0717905E1,3.394741E1,2.496133E0,3.993813E0,1.2730279E1,2.2714811E1,6.791978E2,8.212278E1,3.4945865E0,2.7956692E1,5.2418795E0,1.1232599E2,3.993813E0,1.0733373E1,3.9438904E1,6.489946E1,6.1155262E1,8.23724E0,8.461891E1,1.6249826E2,8.761427E1,7.1389404E1,2.8206305E1,8.287162E1,1.9220224E1,1.4577417E2,1.3529042E2,1.2231052E1,7.887781E1,1.647448E1,2.5210945E1,4.992266E0,2.2465198E0,1.5725638E1,1.946984E1,1.2480665E0,2.6209398E1,7.738013E0,2.496133E0,1.49768E0,8.486853E0,4.2434263E0,1.7472933E1,5.2418795E0,3.9214252E2,2.870553E2,2.4961332E1,5.716145E1,1.7472932E0,1.7472932E0,3.2449732E0,2.4711718E1,3.993813E0,1.2480665E0,6.4899464E0,1.05836044E2,1.2480665E0,2.7457464E0,8.486853E0,2.2465198E0,8.986079E0,3.0452824E1,4.4181557E1,2.0717905E1,5.5164543E1,5.99072E0,2.99536E0,5.2418795E0,6.464985E1,1.9969065E1,1.5051683E2,1.198144E1,6.664675E1,2.0967518E1,4.31831E1,2.8206305E1,8.23724E0,1.9969065E1,5.3666862E1,2.9204758E1,1.5476026E1,3.7441998E0,5.2418797E1,9.335538E1,8.162355E1,5.3666862E1,5.2418795E0,6.989173E0],"tree_param":{"num_deleted":"0","num_feature":"29","num_nodes":"123","size_leaf_vector":"1"}},{"base_weights":[-9.077208E-4,2.860774E-1,-8.3668716E-2,4.4480965E-1,1.1465146E-1,-1.5716282E-1,1.22538716E-1,-3.714455E-2,5.733305E-1,1.6331083E-1,-1.3868799E0,3.901034E-2,-3.8166988E-1,2.2539087E-1,-3.4676772E-1,6.2564754E-1,-4.8541814E-1,4.5180497E-1,1.3515098E0,-5.7840425E-1,2.4428646E-1,-1.7968169E-1,-4.6860915E-1,-3.1670448E-1,1.9011432E-1,-8.344133E-1,-2.862794E-1,8.058653E-1,-7.1383794E-3,-6.8835026E-1,2.5990263E-1,-4.718137E-1,9.291068E-1,9.799623E-1,-7.101022E-1,-2.595152E-1,5.4003894E-1,-1.2547363E-1,1.4754441E0,2.0070061E-1,-9.931736E-1,-5.299554E-1,3.251467E-1,-1.21549435E-1,-9.80868E-1,5.7388765E-1,-4.292955E-2,-1.1062477E0,5.864965E-2,1.0807338E-1,-4.1172105E-1,9.3264765E-1,-1.4872873E-1,-1.6536145E-1,5.043335E-1,-8.596558E-1,6.955303E-1,-1.1190026E0,6.370196E-1,2.1454483E-1,-2.9655135E-1,3.3955747E-1,-1.7440489E-1,1.0658362E-1,3.9201945E-1,-3.5007071E-1,1.1244703E-2,-2.4234875E-1,1.4445926E-1,-2.7650633E-1,1.7706795E-1,5.1189876E-1,1.9403239E-1,-1.3566756E-1,2.9883555E-1,5.574614E-2,-3.4922922E-1,1.9952278E-1,-2.4685787E-1,4.7143504E-2,2.0745592E-1,-1.954403E-1,2.0348633E-2,-1.1102829E-1,-3.9293423E-1,2.2492355E-1,-2.1421924E-2,3.8902815E-2,-1.17094345E-1,-1.4638892E-1,-4.310572E-1,2.76342E-1,-5.983748E-2,1.10029645E-1,-1.3689508E-1,-1.8681826E-1,-7.041723E-2,-2.540027E-1,2.989817E-1,-4.389433E-1,1.7292763E-1,-1.2286759E-2,-2.358496E-1,8.7368086E-2,3.4464657E-1,-3.1844485E-1,2.2777075E-1,4.8359695E-1,-3.2365274E-1,-4.473924E-1,8.440279E-2,2.0098234E-2,3.6619776E-1],"categories":[],"categories_nodes":[],"categories_segments":[],"categories_sizes":[],"default_left":[0,0,0,0,0,0,0,0,0,0,0,0,0,0,0,0,0,0,0,0,0,0,0,0,0,0,0,0,0,0,0,0,0,0,0,0,0,0,0,0,0,0,0,0,0,0,0,0,0,0,0,0,0,0,0,0,0,0,0,0,0,0,0,0,0,0,0,0,0,0,0,0,0,0,0,0,0,0,0,0,0,0,0,0,0,0,0,0,0,0,0,0,0,0,0,0,0,0,0,0,0,0,0,0,0,0,0,0,0,0,0,0,0],"id":1,"left_children":[1,3,5,7,9,11,13,15,17,19,21,23,25,27,29,31,33,35,37,39,41,-1,-1,43,45,47,49,51,53,55,57,59,61,63,65,67,69,-1,71,73,75,77,79,81,83,85,87,89,91,93,95,97,99,101,103,105,107,109,111,-1,-1,-1,-1,-1,-1,-1,-1,-1,-1,-1,-1,-1,-1,-1,-1,-1,-1,-1,-1,-1,-1,-1,-1,-1,-1,-1,-1,-1,-1,-1,-1,-1,-1,-1,-1,-1,-1,-1,-1,-1,-1,-1,-1,-1,-1,-1,-1,-1,-1,-1,-1,-1,-1],"loss_changes":[5.105313E1,1.30408745E1,2.5303368E1,1.5473465E1,1.72256E1,5.420556E1,2.126541E1,1.6186754E1,1.8020103E1,1.373027E1,8.6865425E-2,3.5403778E1,2.4545036E1,4.8684113E1,1.6611755E1,7.766876E0,1.1380901E1,1.0928989E1,6.343483E0,7.4916897E0,1.2986815E1,0E0,0E0,2.5339735E1,4.13562E1,2.4182816E1,2.3567741E1,1.2623322E1,2.1001682E1,1.2690056E1,1.5944409E1,4.037021E0,6.0404196E0,5.02203E-1,9.850935E0,8.371342E0,1.17867775E1,0E0,3.6069298E0,4.954183E0,3.2178688E0,7.455401E0,1.1336855E1,1.5393847E1,8.448177E0,1.9875309E1,1.7347048E1,1.4877846E1,5.556043E0,1.7037968E1,1.3335251E1,1.1222542E1,1.3193148E1,1.5272583E1,8.086975E0,1.5782215E1,1.1774468E1,3.8882542E0,7.78228E0,0E0,0E0,0E0,0E0,0E0,0E0,0E0,0E0,0E0,0E0,0E0,0E0,0E0,0E0,0E0,0E0,0E0,0E0,0E0,0E0,0E0,0E0,0E0,0E0,0E0,0E0,0E0,0E0,0E0,0E0,0E0,0E0,0E0,0E0,0E0,0E0,0E0,0E0,0E0,0E0,0E0,0E0,0E0,0E0,0E0,0E0,0E0,0E0,0E0,0E0,0E0,0E0,0E0,0E0],"parents":[2147483647,0,0,1,1,2,2,3,3,4,4,5,5,6,6,7,7,8,8,9,9,10,10,11,11,12,12,13,13,14,14,15,15,16,16,17,17,18,18,19,19,20,20,23,23,24,24,25,25,26,26,27,27,28,28,29,29,30,30,31,31,32,32,33,33,34,34,35,35,36,36,38,38,39,39,40,40,41,41,42,42,43,43,44,44,45,45,46,46,47,47,48,48,49,49,50,50,51,51,52,52,53,53,54,54,55,55,56,56,57,57,58,58],"right_children":[2,4,6,8,10,12,14,16,18,20,22,24,26,28,30,32,34,36,38,40,42,-1,-1,44,46,48,50,52,54,56,58,60,62,64,66,68,70,-1,72,74,76,78,80,82,84,86,88,90,92,94,96,98,100,102,104,106,108,110,112,-1,-1,-1,-1,-1,-1,-1,-1,-1,-1,-1,-1,-1,-1,-1,-1,-1,-1,-1,-1,-1,-1,-1,-1,-1,-1,-1,-1,-1,-1,-1,-1,-1,-1,-1,-1,-1,-1,-1,-1,-1,-1,-1,-1,-1,-1,-1,-1,-1,-1,-1,-1,-1,-1],"split_conditions":[-5.782378E-1,-3.976771E-1,1.132211E0,-1.1041296E0,1.6300045E0,-1.4359428E-1,8.665801E-1,-7.3939794E-1,9.3376935E-1,-8.918756E-2,3.1008005E-1,-9.2267907E-1,-7.9852664E-1,-1.5421337E-1,1.0879962E0,-1.0242532E0,-1.6456943E0,-1.3558992E0,-1.5428762E0,-6.9659525E-1,-1.5697287E0,-1.7968169E-1,-4.6860915E-1,-3.69944E-1,-2.8868535E-1,7.131343E-2,-4.9657446E-1,1.0966622E0,6.539469E-1,1.2701381E0,-1.5793903E0,-1.2753369E0,1.7022061E0,-1.6242548E0,-6.3942444E-1,-8.028748E-1,-1.8341361E0,-1.2547363E-1,1.2183374E0,-8.222369E-1,-3.365123E-1,-6.541625E-1,1.4722094E-1,-1.0681303E0,-5.4634887E-1,9.310995E-1,-3.415118E-1,-7.2239995E-1,-6.144133E-1,4.8426875E-1,-9.140441E-2,1.1486365E0,1.3352581E0,5.017886E-1,2.0367818E0,1.8731949E0,1.0536064E0,2.0281606E0,7.7738E-1,2.1454483E-1,-2.9655135E-1,3.3955747E-1,-1.7440489E-1,1.0658362E-1,3.9201945E-1,-3.5007071E-1,1.1244703E-2,-2.4234875E-1,1.4445926E-1,-2.7650633E-1,1.7706795E-1,5.1189876E-1,1.9403239E-1,-1.3566756E-1,2.9883555E-1,5.574614E-2,-3.4922922E-1,1.9952278E-1,-2.4685787E-1,4.7143504E-2,2.0745592E-1,-1.954403E-1,2.0348633E-2,-1.1102829E-1,-3.9293423E-1,2.2492355E-1,-2.1421924E-2,3.8902815E-2,-1.17094345E-1,-1.4638892E-1,-4.310572E-1,2.76342E-1,-5.983748E-2,1.10029645E-1,-1.3689508E-1,-1.8681826E-1,-7.041723E-2,-2.540027E-1,2.989817E-1,-4.389433E-1,1.7292763E-1,-1.2286759E-2,-2.358496E-1,8.7368086E-2,3.4464657E-1,-3.1844485E-1,2.2777075E-1,4.8359695E-1,-3.2365274E-1,-4.473924E-1,8.440279E-2,2.0098234E-2,3.6619776E-1],"split_indices":[3,17,28,28,5,17,17,3,26,25,25,28,28,14,8,5,1,2,15,16,2,0,0,14,14,16,24,3,16,15,22,1,1,4,3,28,1,0,4,16,25,24,28,28,17,8,17,14,14,1,16,28,3,17,27,16,3,25,0,0,0,0,0,0,0,0,0,0,0,0,0,0,0,0,0,0,0,0,0,0,0,0,0,0,0,0,0,0,0,0,0,0,0,0,0,0,0,0,0,0,0,0,0,0,0,0,0,0,0,0,0,0,0],"split_type":[0,0,0,0,0,0,0,0,0,0,0,0,0,0,0,0,0,0,0,0,0,0,0,0,0,0,0,0,0,0,0,0,0,0,0,0,0,0,0,0,0,0,0,0,0,0,0,0,0,0,0,0,0,0,0,0,0,0,0,0,0,0,0,0,0,0,0,0,0,0,0,0,0,0,0,0,0,0,0,0,0,0,0,0,0,0,0,0,0,0,0,0,0,0,0,0,0,0,0,0,0,0,0,0,0,0,0,0,0,0,0,0,0],"sum_hessian":[2.1474915E3,4.8012732E2,1.667364E3,2.4846542E2,2.3166188E2,1.2294244E3,4.379396E2,5.2458103E1,1.9600732E2,2.2525345E2,6.4084377E0,6.5655566E2,5.7286884E2,3.5964117E2,7.8298416E1,2.1005245E1,3.1452856E1,1.7089919E2,2.5108131E1,2.1566565E1,2.0368687E2,1.9692118E0,4.4392257E0,1.9542009E2,4.6113556E2,9.834678E1,4.7452203E2,1.0215668E2,2.574845E2,5.0007385E1,2.8291029E1,4.429859E0,1.6575386E1,3.7345781E0,2.7718279E1,1.8645185E1,1.5225401E2,1.4878074E0,2.3620323E1,7.6718464E0,1.3894718E1,1.8735865E1,1.8495102E2,1.5195366E2,4.3466423E1,1.7367216E2,2.874634E2,7.521408E1,2.3132698E1,1.14549484E2,3.5997256E2,9.019995E1,1.1956724E1,1.9716768E2,6.0316833E1,4.4836094E1,5.1712894E0,5.6531982E0,2.263783E1,1.2270147E0,3.2028444E0,1.4834742E1,1.7406449E0,1.9994613E0,1.735117E0,1.6857107E1,1.0861172E1,1.0664328E1,7.9808574E0,4.477599E0,1.4777641E2,1.7644945E1,5.9753785E0,4.4502673E0,3.2215793E0,1.7482846E0,1.2146434E1,3.4380796E0,1.5297786E1,1.2778407E2,5.7166946E1,3.936433E1,1.1258933E2,1.5958159E1,2.7508263E1,1.363514E2,3.7320766E1,1.9246152E2,9.500189E1,2.7068432E1,4.8145653E1,4.7364883E0,1.839621E1,7.8787056E1,3.576242E1,1.6306123E2,1.9691133E2,2.7051163E0,8.7494835E1,3.88929E0,8.067434E0,1.6514043E2,3.202724E1,4.6419598E1,1.3897234E1,4.0172153E1,4.6639414E0,3.470368E0,1.7009215E0,4.4145565E0,1.2386416E0,1.20164585E1,1.0621372E1],"tree_param":{"num_deleted":"0","num_feature":"29","num_nodes":"113","size_leaf_vector":"1"}},{"base_weights":[-1.9571031E-3,9.113335E-2,-1.6642073E-1,1.8260863E-1,-9.2571825E-2,-6.427934E-1,-4.718314E-2,-1.8485341E-2,3.605112E-1,-6.73464E-1,2.205482E-2,-8.262952E-1,-5.577847E-2,2.5365904E-1,-1.092207E-1,5.2674912E-2,-6.9421315E-1,8.67466E-1,2.139947E-1,-1.1442542E0,-2.881293E-1,5.635219E-1,-6.099709E-2,-2.8678814E-1,-1.0281137E0,2.4116765E-1,-6.944183E-1,7.195522E-1,-1.9037943E-1,-1.6265947E-1,2.9848334E-1,2.1006064E-1,-2.3811963E-1,-9.813421E-1,6.7614734E-1,1.0882703E0,3.8626015E-1,-1.007085E0,2.4191883E-1,-3.7305883E-1,-1.4721874E0,9.428251E-1,-5.038097E-1,8.697867E-1,-4.63614E-1,-2.926922E-1,1.7388433E-1,5.147907E-1,-7.6910204E-1,-5.10569E-1,-1.2200106E0,-4.577859E-1,6.917309E-1,3.0960613E-1,-9.7873515E-1,1.0175235E0,2.157365E-1,-6.982076E-1,3.1890878E-1,-3.6805415E-1,-4.701768E-2,4.642081E-1,-7.375144E-1,-1.4043564E-4,1.5809351E-1,2.637029E-2,-1.7780253E-1,6.983276E-2,-3.2443053E-1,3.7861925E-1,-8.922287E-2,3.7851328E-1,1.4684676E-1,3.153276E-2,3.904298E-1,-4.160254E-1,-4.0106885E-2,1.195015E-1,1.1424623E-2,-3.2706147E-1,2.3776825E-1,-4.7890353E-1,-1.4490972E-1,7.46695E-2,4.549702E-1,1.1813265E-1,-2.0728041E-1,3.2066483E-2,3.3552888E-1,-3.525417E-1,3.5150337E-1,4.120023E-1,-1.1059766E-1,1.732831E-1,-9.924754E-3,-1.2426061E-1,4.1871867E-1,1.14525706E-1,-3.3381653E-1,1.0642346E-1,-3.3950055E-1,-2.4402484E-1,-4.222855E-1,4.0836208E-2,-2.9802185E-1,-9.150834E-2,2.9816723E-1,1.9162281E-1,-4.8175104E-2,8.378981E-2,-3.5773006E-1,4.4127634E-1,1.1060341E-1,3.4409827E-1,-5.6054868E-2,-3.02222E-2,-3.6946657E-1,2.225049E-1,-2.591273E-1,-7.807085E-2,-2.8951117E-1,6.4184666E-2,-6.271452E-2,2.2495583E-1,-1.2831327E-1,-3.060813E-1,1.12551086E-1],"categories":[],"categories_nodes":[],"categories_segments":[],"categories_sizes":[],"default_left":[0,0,0,0,0,0,0,0,0,0,0,0,0,0,0,0,0,0,0,0,0,0,0,0,0,0,0,0,0,0,0,0,0,0,0,0,0,0,0,0,0,0,0,0,0,0,0,0,0,0,0,0,0,0,0,0,0,0,0,0,0,0,0,0,0,0,0,0,0,0,0,0,0,0,0,0,0,0,0,0,0,0,0,0,0,0,0,0,0,0,0,0,0,0,0,0,0,0,0,0,0,0,0,0,0,0,0,0,0,0,0,0,0,0,0,0,0,0,0,0,0,0,0,0,0,0,0],"id":2,"left_children":[1,3,5,7,9,11,13,15,17,19,21,23,25,27,29,31,33,35,37,39,41,43,45,47,49,51,53,55,57,59,61,63,65,67,69,71,73,75,77,79,81,83,85,87,89,91,93,95,97,99,101,103,105,107,109,111,113,115,117,119,121,123,125,-1,-1,-1,-1,-1,-1,-1,-1,-1,-1,-1,-1,-1,-1,-1,-1,-1,-1,-1,-1,-1,-1,-1,-1,-1,-1,-1,-1,-1,-1,-1,-1,-1,-1,-1,-1,-1,-1,-1,-1,-1,-1,-1,-1,-1,-1,-1,-1,-1,-1,-1,-1,-1,-1,-1,-1,-1,-1,-1,-1,-1,-1,-1,-1],"loss_changes":[3.2469078E1,2.2774475E1,4.3509758E1,3.236212E1,3.0034649E1,1.6475258E1,1.1489989E1,2.0496038E1,3.546192E1,1.3155407E1,1.7010958E1,1.2420029E1,7.297885E0,2.1920101E1,1.1156937E1,1.7710413E1,1.6641956E1,1.097818E1,1.2984123E1,7.8270187E0,1.168239E1,1.6226711E1,1.7912325E1,1.3222956E1,7.7789764E0,8.633128E0,3.7832117E0,7.525738E0,1.4370658E1,1.0704954E1,1.0547096E1,1.6740456E1,1.5769837E1,4.381401E0,4.7258596E0,6.962158E0,8.944027E0,2.6489067E0,1.1657587E1,1.0244076E1,2.0412254E0,2.2669134E0,6.4146643E0,7.2963963E0,1.5578946E1,2.1464859E1,1.3690117E1,1.1268561E1,8.774892E0,1.3624034E1,3.5077744E0,3.619332E0,5.2591968E0,6.365058E-1,2.9519005E0,8.915783E0,7.8785257E0,8.704183E0,1.4640104E1,1.0205803E1,1.2305557E1,1.3531618E1,3.0831437E0,0E0,0E0,0E0,0E0,0E0,0E0,0E0,0E0,0E0,0E0,0E0,0E0,0E0,0E0,0E0,0E0,0E0,0E0,0E0,0E0,0E0,0E0,0E0,0E0,0E0,0E0,0E0,0E0,0E0,0E0,0E0,0E0,0E0,0E0,0E0,0E0,0E0,0E0,0E0,0E0,0E0,0E0,0E0,0E0,0E0,0E0,0E0,0E0,0E0,0E0,0E0,0E0,0E0,0E0,0E0,0E0,0E0,0E0,0E0,0E0,0E0,0E0,0E0,0E0],"parents":[2147483647,0,0,1,1,2,2,3,3,4,4,5,5,6,6,7,7,8,8,9,9,10,10,11,11,12,12,13,13,14,14,15,15,16,16,17,17,18,18,19,19,20,20,21,21,22,22,23,23,24,24,25,25,26,26,27,27,28,28,29,29,30,30,31,31,32,32,33,33,34,34,35,35,36,36,37,37,38,38,39,39,40,40,41,41,42,42,43,43,44,44,45,45,46,46,47,47,48,48,49,49,50,50,51,51,52,52,53,53,54,54,55,55,56,56,57,57,58,58,59,59,60,60,61,61,62,62],"right_children":[2,4,6,8,10,12,14,16,18,20,22,24,26,28,30,32,34,36,38,40,42,44,46,48,50,52,54,56,58,60,62,64,66,68,70,72,74,76,78,80,82,84,86,88,90,92,94,96,98,100,102,104,106,108,110,112,114,116,118,120,122,124,126,-1,-1,-1,-1,-1,-1,-1,-1,-1,-1,-1,-1,-1,-1,-1,-1,-1,-1,-1,-1,-1,-1,-1,-1,-1,-1,-1,-1,-1,-1,-1,-1,-1,-1,-1,-1,-1,-1,-1,-1,-1,-1,-1,-1,-1,-1,-1,-1,-1,-1,-1,-1,-1,-1,-1,-1,-1,-1,-1,-1,-1,-1,-1,-1],"split_conditions":[-4.518355E-2,-1.2142825E-1,-5.867755E-1,-8.704298E-1,-8.0577E-1,-7.37181E-2,-4.881573E-1,-2.2573067E-1,-4.8736805E-1,-5.33749E-1,-6.189388E-1,-9.737587E-1,-7.631535E-1,4.2334333E-1,2.4013905E-1,-3.885719E-1,-1.3818574E-1,2.4170457E-1,-1.6871145E0,-4.8975495E-1,-7.888906E-1,4.554782E-1,4.870466E-1,-5.216327E-1,1.55899245E-2,2.844723E-2,2.2008382E-1,9.489093E-2,1.4647609E0,-2.159396E-1,2.1805477E0,-9.901351E-1,-6.252293E-1,-7.029123E-1,-3.6167976E-1,-5.365071E-1,-1.5701109E-1,6.107066E-1,1.3722932E-1,-4.8316285E-1,2.5532672E-1,2.4013905E-1,-6.1849344E-1,-1.3916085E0,-3.4519374E-1,-1.6225003E0,1.4494058E-1,-7.631535E-1,-1.6120758E0,4.8773897E-1,-8.846131E-1,-2.0261888E-1,-1.0159234E0,-1.5162714E0,-1.3619124E0,2.4849586E-1,1.12579934E-1,7.043454E-1,1.0923116E0,-3.2902664E-1,-2.641564E-1,2.3933837E0,2.1850598E0,-1.4043564E-4,1.5809351E-1,2.637029E-2,-1.7780253E-1,6.983276E-2,-3.2443053E-1,3.7861925E-1,-8.922287E-2,3.7851328E-1,1.4684676E-1,3.153276E-2,3.904298E-1,-4.160254E-1,-4.0106885E-2,1.195015E-1,1.1424623E-2,-3.2706147E-1,2.3776825E-1,-4.7890353E-1,-1.4490972E-1,7.46695E-2,4.549702E-1,1.1813265E-1,-2.0728041E-1,3.2066483E-2,3.3552888E-1,-3.525417E-1,3.5150337E-1,4.120023E-1,-1.1059766E-1,1.732831E-1,-9.924754E-3,-1.2426061E-1,4.1871867E-1,1.14525706E-1,-3.3381653E-1,1.0642346E-1,-3.3950055E-1,-2.4402484E-1,-4.222855E-1,4.0836208E-2,-2.9802185E-1,-9.150834E-2,2.9816723E-1,1.9162281E-1,-4.8175104E-2,8.378981E-2,-3.5773006E-1,4.4127634E-1,1.1060341E-1,3.4409827E-1,-5.6054868E-2,-3.02222E-2,-3.6946657E-1,2.225049E-1,-2.591273E-1,-7.807085E-2,-2.8951117E-1,6.4184666E-2,-6.271452E-2,2.2495583E-1,-1.2831327E-1,-3.060813E-1,1.12551086E-1],"split_indices":[3,17,28,28,28,13,14,14,18,16,18,5,28,17,25,17,24,16,2,1,14,17,28,24,3,15,13,23,28,18,10,28,14,24,1,24,17,14,14,4,25,25,3,26,24,15,17,28,5,22,4,5,1,2,15,17,3,17,7,18,2,16,19,0,0,0,0,0,0,0,0,0,0,0,0,0,0,0,0,0,0,0,0,0,0,0,0,0,0,0,0,0,0,0,0,0,0,0,0,0,0,0,0,0,0,0,0,0,0,0,0,0,0,0,0,0,0,0,0,0,0,0,0,0,0,0,0],"split_type":[0,0,0,0,0,0,0,0,0,0,0,0,0,0,0,0,0,0,0,0,0,0,0,0,0,0,0,0,0,0,0,0,0,0,0,0,0,0,0,0,0,0,0,0,0,0,0,0,0,0,0,0,0,0,0,0,0,0,0,0,0,0,0,0,0,0,0,0,0,0,0,0,0,0,0,0,0,0,0,0,0,0,0,0,0,0,0,0,0,0,0,0,0,0,0,0,0,0,0,0,0,0,0,0,0,0,0,0,0,0,0,0,0,0,0,0,0,0,0,0,0,0,0,0,0,0,0],"sum_hessian":[2.1187861E3,1.3532559E3,7.655302E2,9.0341156E2,4.4984433E2,1.523755E2,6.1315466E2,4.2448584E2,4.789257E2,7.333419E1,3.7651013E2,1.1577609E2,3.6599415E1,1.0429626E2,5.0885843E2,3.8487686E2,3.960897E1,1.0627794E2,3.7264777E2,3.2120647E1,4.1213543E1,4.930101E1,3.272091E2,3.217799E1,8.35981E1,2.5407946E1,1.119147E1,5.059285E1,5.3703407E1,4.504216E2,5.8436817E1,2.4990129E2,1.3497557E2,3.2982162E1,6.626808E0,7.198543E1,3.429251E1,7.54738E0,3.6510037E2,1.0221203E1,2.1899445E1,5.641927E0,3.5571617E1,3.8095215E1,1.1205795E1,1.6459793E2,1.6261119E2,1.2062858E1,2.0115131E1,2.3602627E1,5.9995476E1,9.952585E0,1.545536E1,2.4501536E0,8.741317E0,3.1150126E1,1.9442726E1,2.6704508E1,2.6998898E1,1.6146185E2,2.8895975E2,5.0853836E1,7.5829806E0,1.5075388E2,9.9147415E1,7.070919E1,6.426639E1,2.4110277E0,3.0571135E1,3.952018E0,2.6747904E0,5.4959072E1,1.7026356E1,2.708619E1,7.2063203E0,4.850911E0,2.6964686E0,2.0603773E2,1.5906265E2,6.367999E0,3.853204E0,1.8911806E1,2.9876385E0,3.2024548E0,2.4394722E0,5.9460006E0,2.9625614E1,9.715505E0,2.837971E1,8.004416E0,3.2013788E0,6.433169E0,1.5816475E2,5.450282E1,1.08108376E2,6.129166E0,5.9336915E0,4.5994916E0,1.5515639E1,1.0041576E1,1.3561051E1,2.0627035E1,3.936844E1,5.0731907E0,4.8793945E0,3.5930817E0,1.1862278E1,1.2303916E0,1.2197621E0,1.2246814E0,7.516635E0,1.7590988E1,1.3559137E1,5.310189E0,1.4132537E1,1.3155891E1,1.3548616E1,2.0163733E1,6.8351665E0,1.3797823E2,2.348362E1,1.105644E2,1.7839537E2,3.8638737E1,1.2215102E1,6.1126757E0,1.4703052E0],"tree_param":{"num_deleted":"0","num_feature":"29","num_nodes":"127","size_leaf_vector":"1"}},{"base_weights":[-2.392176E-3,6.420162E-1,-1.7888613E-2,1.0673922E0,2.7825868E-1,-2.0273192E-1,2.3293486E-2,-1.862414E-1,1.2794279E0,5.1528627E-1,-4.615912E-1,-4.284607E-1,-2.8215066E-2,1.5103978E-1,-4.3453477E-2,1.9752231E-1,-3.10439E-1,-5.669135E-3,1.4484212E0,7.8605133E-1,-3.5026494E-1,1.20669656E-1,-9.0406877E-1,1.3342986E-1,-5.673005E-1,1.5682442E-1,-2.865381E-1,9.084958E-2,8.374948E-1,-1.9174768E-1,1.0045104E-1,5.120573E-2,1.5492285E0,1.0257331E0,-1.4707544E-1,-9.5968777E-1,3.1622392E-1,-4.4164827E-1,9.743895E-2,-1.7943478E-1,8.94343E-1,3.325558E-1,-6.258954E-1,6.31403E-1,-1.2646613E-1,-3.9737648E-1,8.893602E-1,6.491362E-2,1.0905107E0,-2.7419087E-1,1.0205314E0,-3.0438834E-1,-1.3890078E-3,2.6440614E-1,-1.2814738E-1,4.8102152E-1,1.4461747E-1,3.5396907E-1,-5.0162587E-2,1.74202E-1,-2.3294826E-1,-4.3332216E-1,6.584228E-2,2.1997221E-1,-1.9049351E-1,-7.364002E-2,3.595618E-1,-2.0556657E-1,1.7393087E-1,4.5081627E-1,1.05136804E-1,9.247414E-2,-1.2213922E-1,-3.5611498E-1,-8.708153E-2,-2.0834668E-2,3.8354224E-1,3.501441E-2,-7.86132E-2,4.531593E-2,4.5149133E-1,-2.3586822E-1,3.269704E-1,3.5711786E-1,7.0535075E-3,-4.071611E-2,-2.0626454E-1,7.768963E-2,-8.4204085E-2,1.9791864E-1,1.838083E-2,-1.9268502E-1,-1.878501E-3],"categories":[],"categories_nodes":[],"categories_segments":[],"categories_sizes":[],"default_left":[0,0,0,0,0,0,0,0,0,0,0,0,0,0,0,0,0,0,0,0,0,0,0,0,0,0,0,0,0,0,0,0,0,0,0,0,0,0,0,0,0,0,0,0,0,0,0,0,0,0,0,0,0,0,0,0,0,0,0,0,0,0,0,0,0,0,0,0,0,0,0,0,0,0,0,0,0,0,0,0,0,0,0,0,0,0,0,0,0,0,0,0,0],"id":3,"left_children":[1,3,5,7,9,11,13,15,17,19,21,23,25,27,29,-1,-1,-1,31,33,35,-1,37,39,41,43,45,47,49,51,53,-1,55,57,59,61,-1,-1,-1,63,65,-1,67,69,71,73,75,77,79,81,83,85,87,89,91,-1,-1,-1,-1,-1,-1,-1,-1,-1,-1,-1,-1,-1,-1,-1,-1,-1,-1,-1,-1,-1,-1,-1,-1,-1,-1,-1,-1,-1,-1,-1,-1,-1,-1,-1,-1,-1,-1],"loss_changes":[2.0845335E1,7.2879333E0,1.5520586E1,6.1508694E0,5.108801E0,1.46218E1,1.4227352E1,3.6133363E0,4.2295723E0,5.3162127E0,3.141262E0,1.2706266E1,1.0110469E1,2.3581924E1,2.3412697E1,0E0,0E0,0E0,1.9200325E0,3.884099E0,5.9900093E0,0E0,4.0478673E0,7.990016E0,1.346059E1,1.6661787E1,1.1853975E1,1.3607053E1,9.647362E0,1.1582972E1,2.091008E1,0E0,1.2872696E-1,2.662798E0,2.4140742E0,2.9347963E0,0E0,0E0,0E0,1.0501607E1,3.6747022E0,0E0,9.42852E0,1.0800051E1,9.65037E0,6.5340605E0,3.0397615E0,8.757599E0,4.9425755E0,5.953269E0,6.70224E0,2.184009E1,1.47487955E1,2.6033392E1,1.4616596E1,0E0,0E0,0E0,0E0,0E0,0E0,0E0,0E0,0E0,0E0,0E0,0E0,0E0,0E0,0E0,0E0,0E0,0E0,0E0,0E0,0E0,0E0,0E0,0E0,0E0,0E0,0E0,0E0,0E0,0E0,0E0,0E0,0E0,0E0,0E0,0E0,0E0,0E0],"parents":[2147483647,0,0,1,1,2,2,3,3,4,4,5,5,6,6,7,7,8,8,9,9,10,10,11,11,12,12,13,13,14,14,18,18,19,19,20,20,22,22,23,23,24,24,25,25,26,26,27,27,28,28,29,29,30,30,32,32,33,33,34,34,35,35,39,39,40,40,42,42,43,43,44,44,45,45,46,46,47,47,48,48,49,49,50,50,51,51,52,52,53,53,54,54],"right_children":[2,4,6,8,10,12,14,16,18,20,22,24,26,28,30,-1,-1,-1,32,34,36,-1,38,40,42,44,46,48,50,52,54,-1,56,58,60,62,-1,-1,-1,64,66,-1,68,70,72,74,76,78,80,82,84,86,88,90,92,-1,-1,-1,-1,-1,-1,-1,-1,-1,-1,-1,-1,-1,-1,-1,-1,-1,-1,-1,-1,-1,-1,-1,-1,-1,-1,-1,-1,-1,-1,-1,-1,-1,-1,-1,-1,-1,-1],"split_conditions":[-7.968667E-1,-1.6357283E-1,-6.881606E-1,-1.17317E0,5.338445E-1,2.2849742E-1,-3.415118E-1,5.7401456E-2,-9.3428075E-1,-1.9459127E-1,-5.1153624E-1,-4.773461E-1,1.7383461E0,9.34677E-1,-6.0323555E-2,1.9752231E-1,-3.10439E-1,-5.669135E-3,-6.947297E-1,9.242184E-1,9.342844E-1,1.20669656E-1,1.2315098E0,-6.349393E-2,-6.1601096E-1,2.764971E-2,3.213341E0,2.048975E0,-1.0336838E0,1.4192824E-1,4.554782E-1,5.120573E-2,1.3956438E0,1.2118621E0,-5.5711126E-1,1.1554288E-1,3.1622392E-1,-4.4164827E-1,9.743895E-2,-4.648145E-1,-7.3510665E-1,3.325558E-1,4.836879E-1,-2.8928034E-2,-2.5703466E-1,-6.835635E-1,5.000611E-1,6.861491E-1,1.0293822E0,-6.537254E-1,9.8079413E-1,-2.9857713E-3,5.148155E-1,-1.841653E-1,9.005882E-1,4.8102152E-1,1.4461747E-1,3.5396907E-1,-5.0162587E-2,1.74202E-1,-2.3294826E-1,-4.3332216E-1,6.584228E-2,2.1997221E-1,-1.9049351E-1,-7.364002E-2,3.595618E-1,-2.0556657E-1,1.7393087E-1,4.5081627E-1,1.05136804E-1,9.247414E-2,-1.2213922E-1,-3.5611498E-1,-8.708153E-2,-2.0834668E-2,3.8354224E-1,3.501441E-2,-7.86132E-2,4.531593E-2,4.5149133E-1,-2.3586822E-1,3.269704E-1,3.5711786E-1,7.0535075E-3,-4.071611E-2,-2.0626454E-1,7.768963E-2,-8.4204085E-2,1.9791864E-1,1.838083E-2,-1.9268502E-1,-1.878501E-3],"split_indices":[3,26,25,28,4,28,17,15,15,17,23,17,10,26,28,0,0,0,18,26,26,0,1,16,24,17,14,27,28,25,17,0,5,8,17,1,0,0,0,18,0,0,14,14,14,16,26,22,6,18,2,17,25,14,28,0,0,0,0,0,0,0,0,0,0,0,0,0,0,0,0,0,0,0,0,0,0,0,0,0,0,0,0,0,0,0,0,0,0,0,0,0,0],"split_type":[0,0,0,0,0,0,0,0,0,0,0,0,0,0,0,0,0,0,0,0,0,0,0,0,0,0,0,0,0,0,0,0,0,0,0,0,0,0,0,0,0,0,0,0,0,0,0,0,0,0,0,0,0,0,0,0,0,0,0,0,0,0,0,0,0,0,0,0,0,0,0,0,0,0,0,0,0,0,0,0,0,0,0,0,0,0,0,0,0,0,0,0,0],"sum_hessian":[2.085299E3,4.801933E1,2.0372797E3,2.124324E1,2.6776087E1,3.7048004E2,1.6667996E3,3.090819E0,1.8152422E1,2.050907E1,6.2670164E0,1.6090385E2,2.0957619E2,5.7158545E2,1.0952141E3,1.6612749E0,1.429544E0,2.1929357E0,1.5959486E1,1.5692066E1,4.8170037E0,2.1536074E0,4.113409E0,3.1888548E1,1.290153E2,1.2233748E2,8.723871E1,5.265486E2,4.503684E1,5.392167E2,5.559975E2,1.3639951E0,1.4595491E1,1.2406186E1,3.2858808E0,3.580051E0,1.2369527E0,2.6775982E0,1.4358107E0,2.3138767E1,8.749781E0,3.753258E0,1.25262054E2,4.5270267E1,7.706721E1,8.032907E1,6.9096313E0,5.142709E2,1.2277694E1,6.296513E0,3.8740326E1,3.3838535E2,2.0083133E2,3.2368665E2,2.3231084E2,1.3412122E1,1.1833694E0,1.0996097E1,1.4100888E0,1.5598224E0,1.7260585E0,2.3777025E0,1.2023484E0,7.501006E0,1.563776E1,1.8839117E0,6.865869E0,1.1979884E2,5.46321E0,9.977544E0,3.5292725E1,3.0197266E1,4.686994E1,8.389677E0,7.19394E1,2.2318027E0,4.6778283E0,4.4449155E2,6.977937E1,4.1761246E0,8.101569E0,4.8860664E0,1.4104465E0,3.2935226E1,5.8050995E0,2.358971E2,1.0248824E2,1.0397704E2,9.6854294E1,1.0910692E2,2.1457973E2,4.3701294E1,1.8860954E2],"tree_param":{"num_deleted":"0","num_feature":"29","num_nodes":"93","size_leaf_vector":"1"}},{"base_weights":[-5.4921926E-4,1.4420465E-1,-4.2463806E-2,1.1930978E-1,8.979295E-1,-1.8550746E-1,1.4986547E-2,1.4160252E-1,-6.937765E-1,5.3971816E-2,1.5033993E0,-5.2563157E-3,-3.883612E-1,3.1824455E-1,-7.346077E-2,4.9218923E-2,4.4246686E-1,3.841417E-1,-1.3096398E0,4.12887E-1,-1.21269E0,4.8401144E-1,1.619245E-1,1.1259755E-1,-6.0717106E-1,-4.5511186E-1,5.561628E-1,4.415913E-1,-2.420649E-1,-5.971615E-1,-3.6035117E-2,5.802189E-1,-1.3857693E-2,2.5607848E-1,1.0388484E0,-3.4459445E-1,3.4799525E-1,-4.7999084E-1,4.49592E-2,-4.230127E-1,-1.2013229E-1,-2.6769695E-1,3.8559726E-1,-8.0282176E-1,1.9243608E-1,-2.4721143E-1,-9.285408E-1,8.150084E-1,-3.3018002E-1,1.0983356E0,3.001395E-1,-4.5709145E-1,1.1230752E0,-9.714202E-1,1.5219924E-1,7.4697196E-1,-6.031248E-2,2.6020244E-1,7.914744E-4,3.6452554E-2,-6.6863686E-2,2.3822589E-2,2.7266803E-1,-1.2339447E-1,3.3942968E-1,-1.149459E-1,2.935061E-1,2.3484579E-1,4.8945222E-2,-1.0295852E-1,-3.615245E-1,3.3594355E-1,-1.96741E-1,2.1254167E-1,-1.06352486E-1,-1.5048277E-1,-3.743666E-1,3.475035E-1,2.7360179E-2,-1.9975878E-1,4.9667165E-2,3.6359978E-1,-2.1485932E-1,2.2531737E-1,3.734945E-2,-1.7619622E-1,2.3258574E-1,-7.422869E-2,4.4452164E-1,-1.5015154E-1,-4.02188E-1,2.3124947E-1,-4.4594648E-1,3.103231E-1,-2.2054099E-1,-7.219941E-2,3.983328E-3],"categories":[],"categories_nodes":[],"categories_segments":[],"categories_sizes":[],"default_left":[0,0,0,0,0,0,0,0,0,0,0,0,0,0,0,0,0,0,0,0,0,0,0,0,0,0,0,0,0,0,0,0,0,0,0,0,0,0,0,0,0,0,0,0,0,0,0,0,0,0,0,0,0,0,0,0,0,0,0,0,0,0,0,0,0,0,0,0,0,0,0,0,0,0,0,0,0,0,0,0,0,0,0,0,0,0,0,0,0,0,0,0,0,0,0,0,0],"id":4,"left_children":[1,3,5,7,9,11,13,15,17,19,21,23,25,27,29,31,33,35,37,-1,39,-1,-1,41,43,45,47,49,51,53,55,57,59,61,63,-1,-1,-1,-1,-1,-1,65,67,69,71,73,75,77,79,81,83,85,87,89,91,93,95,-1,-1,-1,-1,-1,-1,-1,-1,-1,-1,-1,-1,-1,-1,-1,-1,-1,-1,-1,-1,-1,-1,-1,-1,-1,-1,-1,-1,-1,-1,-1,-1,-1,-1,-1,-1,-1,-1,-1,-1],"loss_changes":[1.2508278E1,8.578867E0,1.3140499E1,8.241546E0,7.4035673E0,1.6750546E1,3.064125E1,1.2155315E1,8.574472E0,1.3654674E1,2.9071808E-2,1.7349646E1,1.3843193E1,1.793375E1,1.7315826E1,1.1272248E1,1.1160677E1,7.5091896E0,3.6145897E0,0E0,1.06449604E-1,0E0,0E0,2.1341337E1,6.4192734E0,1.964021E1,3.6365933E0,1.9342007E1,1.4363827E1,1.6676159E1,1.5758775E1,5.9232416E0,8.560033E0,9.113652E0,3.7078094E0,0E0,0E0,0E0,0E0,0E0,0E0,1.2757912E1,1.0430628E1,5.5705795E0,7.5614405E0,1.4774953E1,7.7230988E0,2.7891474E0,7.807574E-1,8.5301285E0,1.38144655E1,7.111579E0,3.6649265E0,6.186157E0,2.1921986E1,1.1382636E1,1.0656726E1,0E0,0E0,0E0,0E0,0E0,0E0,0E0,0E0,0E0,0E0,0E0,0E0,0E0,0E0,0E0,0E0,0E0,0E0,0E0,0E0,0E0,0E0,0E0,0E0,0E0,0E0,0E0,0E0,0E0,0E0,0E0,0E0,0E0,0E0,0E0,0E0,0E0,0E0,0E0,0E0],"parents":[2147483647,0,0,1,1,2,2,3,3,4,4,5,5,6,6,7,7,8,8,9,9,10,10,11,11,12,12,13,13,14,14,15,15,16,16,17,17,18,18,20,20,23,23,24,24,25,25,26,26,27,27,28,28,29,29,30,30,31,31,32,32,33,33,34,34,41,41,42,42,43,43,44,44,45,45,46,46,47,47,48,48,49,49,50,50,51,51,52,52,53,53,54,54,55,55,56,56],"right_children":[2,4,6,8,10,12,14,16,18,20,22,24,26,28,30,32,34,36,38,-1,40,-1,-1,42,44,46,48,50,52,54,56,58,60,62,64,-1,-1,-1,-1,-1,-1,66,68,70,72,74,76,78,80,82,84,86,88,90,92,94,96,-1,-1,-1,-1,-1,-1,-1,-1,-1,-1,-1,-1,-1,-1,-1,-1,-1,-1,-1,-1,-1,-1,-1,-1,-1,-1,-1,-1,-1,-1,-1,-1,-1,-1,-1,-1,-1,-1,-1,-1],"split_conditions":[-5.782378E-1,1.8371388E0,-7.681874E-1,3.7357786E0,1.8052188E-1,-5.00152E-1,-4.6538845E-1,-3.4306753E-1,-3.6288422E-1,-9.474704E-1,9.3367267E-1,-4.4327352E-2,6.645788E-1,5.807988E-3,-4.8427743E-1,-7.968667E-1,7.857116E-1,1.9579524E0,8.1107116E-1,4.12887E-1,1.1547759E0,4.8401144E-1,1.619245E-1,-9.793758E-1,1.1053443E0,-3.2249418E-1,1.12451E0,-2.7248892E-1,1.0334877E0,1.199657E0,-4.439758E-1,8.3169883E-1,-3.885719E-1,1.967007E0,-8.100863E-1,-3.4459445E-1,3.4799525E-1,-4.7999084E-1,4.49592E-2,-4.230127E-1,-1.2013229E-1,3.674149E-2,-5.8849275E-1,-6.423594E-1,-7.263172E-1,-6.9141734E-1,-1.3134798E0,2.0969937E0,1.4380265E0,-5.216327E-1,-5.755749E-1,1.4873025E0,-8.720011E-1,-2.0823023E-1,6.793387E-1,5.9306806E-1,5.1825154E-1,2.6020244E-1,7.914744E-4,3.6452554E-2,-6.6863686E-2,2.3822589E-2,2.7266803E-1,-1.2339447E-1,3.3942968E-1,-1.149459E-1,2.935061E-1,2.3484579E-1,4.8945222E-2,-1.0295852E-1,-3.615245E-1,3.3594355E-1,-1.96741E-1,2.1254167E-1,-1.06352486E-1,-1.5048277E-1,-3.743666E-1,3.475035E-1,2.7360179E-2,-1.9975878E-1,4.9667165E-2,3.6359978E-1,-2.1485932E-1,2.2531737E-1,3.734945E-2,-1.7619622E-1,2.3258574E-1,-7.422869E-2,4.4452164E-1,-1.5015154E-1,-4.02188E-1,2.3124947E-1,-4.4594648E-1,3.103231E-1,-2.2054099E-1,-7.219941E-2,3.983328E-3],"split_indices":[3,4,28,25,22,14,24,28,5,22,26,17,16,14,3,3,15,10,16,0,7,0,0,28,2,17,5,17,28,7,3,26,17,27,3,0,0,0,0,0,0,16,24,18,14,18,26,3,14,24,18,5,16,4,2,22,28,0,0,0,0,0,0,0,0,0,0,0,0,0,0,0,0,0,0,0,0,0,0,0,0,0,0,0,0,0,0,0,0,0,0,0,0,0,0,0,0],"split_type":[0,0,0,0,0,0,0,0,0,0,0,0,0,0,0,0,0,0,0,0,0,0,0,0,0,0,0,0,0,0,0,0,0,0,0,0,0,0,0,0,0,0,0,0,0,0,0,0,0,0,0,0,0,0,0,0,0,0,0,0,0,0,0,0,0,0,0,0,0,0,0,0,0,0,0,0,0,0,0,0,0,0,0,0,0,0,0,0,0,0,0,0,0,0,0,0,0],"sum_hessian":[2.05958E3,4.6191074E2,1.5976694E3,4.4826328E2,1.3647443E1,4.5716385E2,1.1405056E3,4.3710486E2,1.1158442E1,6.155917E0,7.491525E0,2.4261111E2,2.1455273E2,2.5694028E2,8.835653E2,3.353084E2,1.01796425E2,4.1940455E0,6.964396E0,2.9694464E0,3.186471E0,6.1189957E0,1.3725297E0,2.0356615E2,3.9044964E1,2.0087482E2,1.367791E1,2.107562E2,4.618408E1,5.793397E1,8.2563135E2,3.4731174E1,3.0057724E2,7.864632E1,2.3150108E1,1.2479737E0,2.9460716E0,5.7286005E0,1.2357953E0,1.9714856E0,1.2149854E0,8.5074684E1,1.18491455E2,3.1366161E1,7.6788025E0,1.4063771E2,6.0237118E1,1.0648598E1,3.0293121E0,3.6150215E1,1.7460597E2,4.0474075E1,5.710002E0,3.8439514E1,1.949446E1,2.393389E1,8.0169745E2,2.2863676E1,1.18674965E1,1.8268536E2,1.17891884E2,6.2778378E1,1.5867936E1,1.1826919E0,2.1967417E1,7.849412E1,6.5805693E0,4.1631355E1,7.68601E1,1.5504129E1,1.5862031E1,3.51534E0,4.1634626E0,1.36303625E1,1.2700735E2,2.6876726E1,3.336039E1,6.815386E0,3.8332124E0,1.6016186E0,1.4276934E0,3.4331715E1,1.8185021E0,4.802832E1,1.2657766E2,3.707922E1,3.394854E0,1.2486955E0,4.4613066E0,1.7928152E1,2.0511362E1,1.4536346E1,4.9581122E0,2.0299164E1,3.6347256E0,2.3166681E2,5.7003064E2],"tree_param":{"num_deleted":"0","num_feature":"29","num_nodes":"97","size_leaf_vector":"1"}},{"base_weights":[-3.9699735E-5,7.35263E-2,-7.226973E-2,-1.2478484E-1,1.467787E-1,-1.7958401E-1,7.1278624E-2,-5.6687046E-2,-1.1695358E0,3.9040306E-1,4.2310923E-2,-3.015433E-1,6.436804E-2,2.0254374E-1,-1.0798472E-1,1.2321964E-2,-5.912169E-1,-1.25963E0,-2.8710492E-2,-4.1026574E-1,4.590306E-1,-1.0832486E-1,2.2611025E-1,-5.000791E-2,-5.309215E-1,4.545412E-1,-1.3460357E-1,3.8952145E-1,-2.6402137E-1,-3.2997376E-1,2.090452E-1,-1.8395814E-1,2.238379E-1,-1.3899362E0,-2.5353882E-1,-3.93222E-1,-1.3641275E-1,-8.959365E-1,6.370583E-1,8.9267474E-1,3.4332994E-1,4.1737348E-1,-1.7461859E-1,2.7541253E-1,-5.9347713E-1,-6.96297E-1,1.3469267E-1,-6.011046E-1,3.1276774E-1,-1.0151124E0,5.66065E-1,-5.5858004E-1,1.5310873E-1,1.2269604E0,3.1118825E-1,-4.5547467E-1,4.1855183E-1,9.7941184E-1,-3.959277E-1,4.4590786E-2,1.1530925E0,-5.8619827E-3,-2.6826003E-1,1.7242606E-1,-5.59489E-2,-7.890696E-2,-4.8237637E-1,3.2503062E-1,-1.4430784E-1,-3.333007E-1,1.279857E-1,4.121168E-1,-1.1794829E-1,3.2393056E-1,3.213046E-2,2.4018244E-1,5.157695E-2,3.7847146E-1,8.327166E-3,-1.24744006E-1,-4.89535E-3,1.09325565E-1,-4.4088036E-2,-2.7200878E-1,3.0646336E-1,2.4483232E-1,-2.4985404E-1,1.0747183E-1,-1.2698196E-1,-1.151147E-1,-2.4155937E-1,-2.4523197E-1,2.015308E-1,-2.0093461E-2,-3.8913557E-1,8.251431E-2,3.2497385E-1,-8.1799865E-2,-3.443024E-1,-3.7160765E-2,1.6238269E-1,-6.9504194E-2,4.3658796E-1,1.3101454E-2,1.6629851E-1,-1.9553237E-1,1.6908115E-1,3.1976396E-1,-6.6544734E-2,7.3544867E-3,3.94982E-1,-2.2384419E-1,-4.0585365E-2,1.1687884E-1,-1.11790456E-1,4.733358E-1,-8.243503E-2],"categories":[],"categories_nodes":[],"categories_segments":[],"categories_sizes":[],"default_left":[0,0,0,0,0,0,0,0,0,0,0,0,0,0,0,0,0,0,0,0,0,0,0,0,0,0,0,0,0,0,0,0,0,0,0,0,0,0,0,0,0,0,0,0,0,0,0,0,0,0,0,0,0,0,0,0,0,0,0,0,0,0,0,0,0,0,0,0,0,0,0,0,0,0,0,0,0,0,0,0,0,0,0,0,0,0,0,0,0,0,0,0,0,0,0,0,0,0,0,0,0,0,0,0,0,0,0,0,0,0,0,0,0,0,0,0,0],"id":5,"left_children":[1,3,5,7,9,11,13,15,17,19,21,23,25,27,29,31,33,35,-1,37,39,41,43,45,47,49,51,53,55,57,59,61,63,65,67,-1,-1,69,71,73,75,77,79,81,83,85,87,89,91,93,95,97,99,101,103,105,107,109,111,113,115,-1,-1,-1,-1,-1,-1,-1,-1,-1,-1,-1,-1,-1,-1,-1,-1,-1,-1,-1,-1,-1,-1,-1,-1,-1,-1,-1,-1,-1,-1,-1,-1,-1,-1,-1,-1,-1,-1,-1,-1,-1,-1,-1,-1,-1,-1,-1,-1,-1,-1,-1,-1,-1,-1,-1,-1],"loss_changes":[1.0818162E1,1.4670408E1,1.5837869E1,1.932866E1,1.8741219E1,1.7517126E1,1.0379471E1,9.486604E0,1.4884148E0,1.2335567E1,1.43371105E1,2.2606167E1,1.5342876E1,2.2300362E1,1.3209656E1,9.530837E0,7.578062E0,3.1835556E-2,0E0,9.7166395E0,9.933197E0,9.997648E0,9.585152E0,2.2559519E1,1.2330616E1,1.1508255E1,1.6081886E1,1.1560938E1,9.781807E0,9.905246E0,1.1982206E1,1.3891455E1,1.6013962E1,1.6685772E0,7.178746E0,0E0,0E0,4.086219E0,5.306813E0,6.110134E0,1.2617125E1,1.0551369E1,9.675814E0,8.347467E0,7.7791805E0,9.352041E0,1.8513288E1,8.10585E0,7.2059813E0,1.266892E0,9.130749E0,8.652443E0,8.5506E0,5.4105606E0,1.0891691E1,1.1929132E1,7.1166987E0,1.7621083E0,9.541679E0,9.796829E0,7.3823595E0,0E0,0E0,0E0,0E0,0E0,0E0,0E0,0E0,0E0,0E0,0E0,0E0,0E0,0E0,0E0,0E0,0E0,0E0,0E0,0E0,0E0,0E0,0E0,0E0,0E0,0E0,0E0,0E0,0E0,0E0,0E0,0E0,0E0,0E0,0E0,0E0,0E0,0E0,0E0,0E0,0E0,0E0,0E0,0E0,0E0,0E0,0E0,0E0,0E0,0E0,0E0,0E0,0E0,0E0,0E0,0E0],"parents":[2147483647,0,0,1,1,2,2,3,3,4,4,5,5,6,6,7,7,8,8,9,9,10,10,11,11,12,12,13,13,14,14,15,15,16,16,17,17,19,19,20,20,21,21,22,22,23,23,24,24,25,25,26,26,27,27,28,28,29,29,30,30,31,31,32,32,33,33,34,34,37,37,38,38,39,39,40,40,41,41,42,42,43,43,44,44,45,45,46,46,47,47,48,48,49,49,50,50,51,51,52,52,53,53,54,54,55,55,56,56,57,57,58,58,59,59,60,60],"right_children":[2,4,6,8,10,12,14,16,18,20,22,24,26,28,30,32,34,36,-1,38,40,42,44,46,48,50,52,54,56,58,60,62,64,66,68,-1,-1,70,72,74,76,78,80,82,84,86,88,90,92,94,96,98,100,102,104,106,108,110,112,114,116,-1,-1,-1,-1,-1,-1,-1,-1,-1,-1,-1,-1,-1,-1,-1,-1,-1,-1,-1,-1,-1,-1,-1,-1,-1,-1,-1,-1,-1,-1,-1,-1,-1,-1,-1,-1,-1,-1,-1,-1,-1,-1,-1,-1,-1,-1,-1,-1,-1,-1,-1,-1,-1,-1,-1,-1],"split_conditions":[-1.7270966E-1,-9.472425E-1,9.3245715E-1,-1.690259E-1,-4.648145E-1,2.478098E-1,1.12303995E-1,-5.603486E-1,5.6580776E-1,-8.0833226E-1,-6.349393E-2,-4.5071733E-1,5.148155E-1,8.192583E-1,7.590643E-1,-1.0478971E0,-7.009413E-1,1.3519895E0,-2.8710492E-2,-6.77141E-1,-6.0675424E-1,-8.359498E-1,7.057756E-1,-8.6749053E-1,1.1857572E0,-4.6260977E-1,9.663145E-1,-6.252293E-1,1.0847894E0,-8.2480055E-1,1.1648108E0,-5.00152E-1,-5.891911E-1,-3.976771E-1,-6.8014127E-1,-3.93222E-1,-1.3641275E-1,-4.7935995E-1,2.4362132E-1,2.875788E-1,-7.263268E-1,-5.519362E-1,-6.07084E-1,1.1568612E0,-2.7854678E-1,-1.6456943E0,2.4849586E-1,-4.6538845E-1,-1.3004759E-1,9.8681915E-1,7.612119E-1,7.506324E-1,-4.8845443E-1,-1.0228544E0,-2.7111763E-1,1.2701381E0,1.0165601E0,1.3535513E-1,-4.8885995E-1,2.301865E-1,1.5687673E0,-5.8619827E-3,-2.6826003E-1,1.7242606E-1,-5.59489E-2,-7.890696E-2,-4.8237637E-1,3.2503062E-1,-1.4430784E-1,-3.333007E-1,1.279857E-1,4.121168E-1,-1.1794829E-1,3.2393056E-1,3.213046E-2,2.4018244E-1,5.157695E-2,3.7847146E-1,8.327166E-3,-1.24744006E-1,-4.89535E-3,1.09325565E-1,-4.4088036E-2,-2.7200878E-1,3.0646336E-1,2.4483232E-1,-2.4985404E-1,1.0747183E-1,-1.2698196E-1,-1.151147E-1,-2.4155937E-1,-2.4523197E-1,2.015308E-1,-2.0093461E-2,-3.8913557E-1,8.251431E-2,3.2497385E-1,-8.1799865E-2,-3.443024E-1,-3.7160765E-2,1.6238269E-1,-6.9504194E-2,4.3658796E-1,1.3101454E-2,1.6629851E-1,-1.9553237E-1,1.6908115E-1,3.1976396E-1,-6.6544734E-2,7.3544867E-3,3.94982E-1,-2.2384419E-1,-4.0585365E-2,1.1687884E-1,-1.11790456E-1,4.733358E-1,-8.243503E-2],"split_indices":[17,28,28,3,18,25,14,24,26,25,16,14,25,17,26,28,14,15,0,28,23,16,22,28,14,22,25,14,8,23,4,14,18,17,14,0,0,18,14,16,1,3,16,24,3,1,17,24,23,8,15,15,3,25,15,15,17,17,16,2,9,0,0,0,0,0,0,0,0,0,0,0,0,0,0,0,0,0,0,0,0,0,0,0,0,0,0,0,0,0,0,0,0,0,0,0,0,0,0,0,0,0,0,0,0,0,0,0,0,0,0,0,0,0,0,0,0],"split_type":[0,0,0,0,0,0,0,0,0,0,0,0,0,0,0,0,0,0,0,0,0,0,0,0,0,0,0,0,0,0,0,0,0,0,0,0,0,0,0,0,0,0,0,0,0,0,0,0,0,0,0,0,0,0,0,0,0,0,0,0,0,0,0,0,0,0,0,0,0,0,0,0,0,0,0,0,0,0,0,0,0,0,0,0,0,0,0,0,0,0,0,0,0,0,0,0,0,0,0,0,0,0,0,0,0,0,0,0,0,0,0,0,0,0,0,0,0],"sum_hessian":[2.0339097E3,1.0076273E3,1.0262825E3,2.7161078E2,7.3601654E2,5.871146E2,4.3916782E2,2.5598001E2,1.5630748E1,2.2006837E2,5.159481E2,3.9127023E2,1.9584436E2,2.5344992E2,1.857179E2,2.2757635E2,2.8403671E1,1.4261217E1,1.369531E0,1.6980522E1,2.0308786E2,2.837812E2,2.3216695E2,1.8720256E2,2.0406767E2,6.570863E1,1.3013573E2,1.8105612E2,7.23938E1,1.09208E2,7.650989E1,1.1810703E2,1.09469315E2,7.5141315E0,2.088954E1,1.281885E1,1.4423674E0,1.1699647E1,5.280876E0,4.135913E1,1.6172873E2,3.1185944E1,2.5259525E2,2.1961969E2,1.2547261E1,4.099308E1,1.4620949E2,1.8866124E2,1.5406435E1,4.0631027E0,6.164553E1,5.2228985E1,7.7906746E1,1.4232887E1,1.6682324E2,5.679595E1,1.5597848E1,4.5728636E0,1.0463514E2,6.605095E1,1.0458938E1,9.673969E1,2.1367344E1,5.8790928E1,5.0678387E1,1.5755658E0,5.9385657E0,2.4904134E0,1.8399126E1,1.0200811E1,1.4988357E0,2.8847158E0,2.3961601E0,3.310118E1,8.257948E0,4.309344E1,1.18635284E2,9.141242E0,2.20447E1,9.944669E1,1.5314856E2,1.8150797E2,3.811172E1,1.0876457E1,1.6708041E0,2.9825187E0,3.801056E1,1.0464275E2,4.156674E1,9.274957E1,9.5911674E1,3.4061675E0,1.2000267E1,1.2151493E0,2.8479536E0,4.0428356E1,2.1217175E1,3.614773E1,1.6081251E1,4.586237E1,3.204438E1,1.9244437E0,1.2308443E1,7.999155E1,8.6831696E1,4.792486E1,8.871093E0,7.426324E0,8.171524E0,1.473313E0,3.0995507E0,4.385098E1,6.078416E1,3.619084E1,2.986011E1,7.980352E0,2.478586E0],"tree_param":{"num_deleted":"0","num_feature":"29","num_nodes":"117","size_leaf_vector":"1"}},{"base_weights":[-6.8730966E-4,2.1118827E-1,-2.1998866E-2,-1.1569062E-1,3.3471346E-1,-1.3873108E-1,2.4033025E-2,3.2446006E-1,-4.2728084E-1,7.587551E-1,1.9580199E-1,9.957037E-2,-2.5248742E-1,1.4162083E-1,-8.035042E-2,8.9847285E-1,-9.312191E-2,5.6569293E-2,-9.923106E-1,8.316393E-2,9.714418E-1,6.5908444E-1,3.385388E-2,3.2757652E-1,-1.9433007E-1,1.0603721E0,-2.8735176E-1,5.1792467E-1,6.6026635E-2,-1.4785242E-1,1.5020545E-1,4.8129463E-1,1.1772791E-1,4.6988946E-1,-3.3988658E-1,-8.361421E-1,7.500524E-1,9.939767E-2,-1.1564349E0,6.749655E-1,-7.346157E-1,4.1561827E-1,1.2703308E0,1.4295289E-2,9.110617E-1,-4.3093014E-1,3.146515E-1,-9.1689646E-1,4.4051963E-1,-8.892549E-1,-6.5634507E-3,3.7504032E-1,-4.6247914E-2,-1.9039729E-1,-6.913384E-1,6.356365E-1,-4.509888E-1,-3.7630264E-2,2.4838804E-1,3.2562416E-2,-2.7663472E-1,2.6026288E-1,-3.659114E-1,-3.0611902E-1,3.5348904E-1,-3.302603E-1,3.2669798E-1,1.2582044E-1,-3.4364042E-1,-1.8003477E-1,3.5088953E-1,-3.9441824E-1,-9.432826E-3,-7.620999E-2,3.33759E-1,-3.5707453E-1,1.7523501E-2,2.3171297E-1,-2.3244832E-1,4.8613667E-1,2.2150874E-1,1.3177508E-1,-3.110194E-1,3.1277376E-1,-1.12372234E-1,1.12525076E-1,-1.8400821E-1,1.8900998E-2,2.3155606E-1,-4.3357414E-1,-1.0508461E-2,1.51363E-1,-3.017343E-1,2.8770113E-1,-3.5605374E-1,-5.7646897E-2,1.6600132E-1,-2.1302494E-1,-3.0238986E-2,-2.920605E-1,1.1571741E-1,1.2736788E-1,3.1444082E-1,3.255804E-1,-3.042636E-1,2.6469657E-2,-7.5353734E-2,1.4672373E-1,7.911611E-3,-1.0437416E-1,6.1932083E-2,-1.3853306E-1,-2.6273487E-2,2.1669516E-1,1.968342E-2,3.166095E-1,-1.5163028E-1],"categories":[],"categories_nodes":[],"categories_segments":[],"categories_sizes":[],"default_left":[0,0,0,0,0,0,0,0,0,0,0,0,0,0,0,0,0,0,0,0,0,0,0,0,0,0,0,0,0,0,0,0,0,0,0,0,0,0,0,0,0,0,0,0,0,0,0,0,0,0,0,0,0,0,0,0,0,0,0,0,0,0,0,0,0,0,0,0,0,0,0,0,0,0,0,0,0,0,0,0,0,0,0,0,0,0,0,0,0,0,0,0,0,0,0,0,0,0,0,0,0,0,0,0,0,0,0,0,0,0,0,0,0,0,0,0,0],"id":6,"left_children":[1,3,5,7,9,11,13,15,17,19,21,23,25,27,29,31,33,35,37,39,41,43,45,47,49,51,53,55,57,59,61,-1,63,65,-1,67,69,-1,71,73,75,77,79,81,83,85,87,89,91,93,95,-1,-1,97,99,101,103,105,107,109,111,113,115,-1,-1,-1,-1,-1,-1,-1,-1,-1,-1,-1,-1,-1,-1,-1,-1,-1,-1,-1,-1,-1,-1,-1,-1,-1,-1,-1,-1,-1,-1,-1,-1,-1,-1,-1,-1,-1,-1,-1,-1,-1,-1,-1,-1,-1,-1,-1,-1,-1,-1,-1,-1,-1,-1],"loss_changes":[9.049984E0,7.434868E0,9.788553E0,7.130272E0,7.6971464E0,1.3990368E1,1.6052341E1,5.284829E0,8.334486E0,4.5917816E0,7.606192E0,1.1266322E1,1.6278568E1,1.7458397E1,1.080658E1,4.898599E0,8.416511E0,1.1311281E1,3.4293814E0,4.7933245E0,3.5652542E0,4.257083E0,1.0105759E1,1.3688297E1,9.605878E0,2.3225594E0,1.3214849E1,1.2002232E1,9.710589E0,1.2474639E1,9.037674E0,0E0,7.7959E0,1.0382294E1,0E0,3.5944095E0,6.502898E0,0E0,2.2199192E0,2.5886075E0,1.5896163E0,4.8889356E0,1.6972656E0,4.2075043E0,3.5830345E0,4.5226593E0,5.4970512E0,3.7646985E0,8.59358E0,9.752693E0,6.2372503E0,0E0,0E0,1.2788396E1,2.0304981E1,7.5660706E0,1.123498E1,8.840361E0,9.933182E0,1.4914552E1,1.0920942E1,1.1675742E1,6.1028614E0,0E0,0E0,0E0,0E0,0E0,0E0,0E0,0E0,0E0,0E0,0E0,0E0,0E0,0E0,0E0,0E0,0E0,0E0,0E0,0E0,0E0,0E0,0E0,0E0,0E0,0E0,0E0,0E0,0E0,0E0,0E0,0E0,0E0,0E0,0E0,0E0,0E0,0E0,0E0,0E0,0E0,0E0,0E0,0E0,0E0,0E0,0E0,0E0,0E0,0E0,0E0,0E0,0E0,0E0],"parents":[2147483647,0,0,1,1,2,2,3,3,4,4,5,5,6,6,7,7,8,8,9,9,10,10,11,11,12,12,13,13,14,14,15,15,16,16,17,17,18,18,19,19,20,20,21,21,22,22,23,23,24,24,25,25,26,26,27,27,28,28,29,29,30,30,32,32,33,33,35,35,36,36,38,38,39,39,40,40,41,41,42,42,43,43,44,44,45,45,46,46,47,47,48,48,49,49,50,50,53,53,54,54,55,55,56,56,57,57,58,58,59,59,60,60,61,61,62,62],"right_children":[2,4,6,8,10,12,14,16,18,20,22,24,26,28,30,32,34,36,38,40,42,44,46,48,50,52,54,56,58,60,62,-1,64,66,-1,68,70,-1,72,74,76,78,80,82,84,86,88,90,92,94,96,-1,-1,98,100,102,104,106,108,110,112,114,116,-1,-1,-1,-1,-1,-1,-1,-1,-1,-1,-1,-1,-1,-1,-1,-1,-1,-1,-1,-1,-1,-1,-1,-1,-1,-1,-1,-1,-1,-1,-1,-1,-1,-1,-1,-1,-1,-1,-1,-1,-1,-1,-1,-1,-1,-1,-1,-1,-1,-1,-1,-1,-1,-1],"split_conditions":[-8.0673385E-1,-9.939201E-1,-8.0577E-1,-2.7635515E-1,-6.144133E-1,-5.391091E-1,-4.4327352E-2,-5.498592E-1,-6.34712E-1,-7.4808794E-1,-3.6853248E-1,-6.500097E-1,-8.0095184E-1,-4.9589375E-1,1.5191224E0,-6.7295635E-1,-4.165726E-1,-1.1116894E0,-1.392511E0,-7.834133E-1,-1.3036301E-2,-6.57311E-1,-4.910584E-1,-1.3925302E0,-8.8361084E-1,1.0724355E0,-3.1482401E-1,1.4728262E-1,4.4661304E-1,-3.7779048E-1,1.0165601E0,4.8129463E-1,-2.5972815E-2,-6.647621E-1,-3.3988658E-1,-8.0095184E-1,5.5931914E-1,9.939767E-2,-2.4183124E-1,1.520113E-1,6.668561E-1,-2.3343758E-1,-6.9716257E-1,-7.235295E-1,1.3956438E0,-1.1023946E0,7.225521E-1,-5.637653E-1,2.8965294E-2,-7.091919E-1,-1.3818574E-1,3.7504032E-1,-4.6247914E-2,-1.0336838E0,2.591744E-1,-6.174541E-1,-3.918924E-1,-1.1936043E-1,9.8521566E-1,-4.4776267E-1,2.6444745E-1,-2.0479201E-1,-1.4336983E0,-3.0611902E-1,3.5348904E-1,-3.302603E-1,3.2669798E-1,1.2582044E-1,-3.4364042E-1,-1.8003477E-1,3.5088953E-1,-3.9441824E-1,-9.432826E-3,-7.620999E-2,3.33759E-1,-3.5707453E-1,1.7523501E-2,2.3171297E-1,-2.3244832E-1,4.8613667E-1,2.2150874E-1,1.3177508E-1,-3.110194E-1,3.1277376E-1,-1.12372234E-1,1.12525076E-1,-1.8400821E-1,1.8900998E-2,2.3155606E-1,-4.3357414E-1,-1.0508461E-2,1.51363E-1,-3.017343E-1,2.8770113E-1,-3.5605374E-1,-5.7646897E-2,1.6600132E-1,-2.1302494E-1,-3.0238986E-2,-2.920605E-1,1.1571741E-1,1.2736788E-1,3.1444082E-1,3.255804E-1,-3.042636E-1,2.6469657E-2,-7.5353734E-2,1.4672373E-1,7.911611E-3,-1.0437416E-1,6.1932083E-2,-1.3853306E-1,-2.6273487E-2,2.1669516E-1,1.968342E-2,3.166095E-1,-1.5163028E-1],"split_indices":[23,28,28,4,14,17,17,17,24,14,17,24,3,18,28,0,3,28,26,14,25,17,15,26,15,1,14,14,15,24,17,0,25,3,0,3,1,0,17,25,22,0,14,17,5,1,28,14,14,14,24,0,0,28,24,28,17,3,8,28,16,14,5,0,0,0,0,0,0,0,0,0,0,0,0,0,0,0,0,0,0,0,0,0,0,0,0,0,0,0,0,0,0,0,0,0,0,0,0,0,0,0,0,0,0,0,0,0,0,0,0,0,0,0,0,0,0],"split_type":[0,0,0,0,0,0,0,0,0,0,0,0,0,0,0,0,0,0,0,0,0,0,0,0,0,0,0,0,0,0,0,0,0,0,0,0,0,0,0,0,0,0,0,0,0,0,0,0,0,0,0,0,0,0,0,0,0,0,0,0,0,0,0,0,0,0,0,0,0,0,0,0,0,0,0,0,0,0,0,0,0,0,0,0,0,0,0,0,0,0,0,0,0,0,0,0,0,0,0,0,0,0,0,0,0,0,0,0,0,0,0,0,0,0,0,0,0],"sum_hessian":[2.0022202E3,1.8217365E2,1.8200465E3,4.9979275E1,1.3219437E2,5.1416425E2,1.3058823E3,2.0698866E1,2.9280409E1,3.151856E1,1.0067581E2,1.6617622E2,3.4798804E2,6.13932E2,6.919503E2,8.231771E0,1.2467093E1,1.625807E1,1.3022339E1,7.879775E0,2.3638786E1,2.5282066E1,7.5393745E1,9.351402E1,7.266219E1,8.2411995E0,3.3974683E2,1.0172067E2,5.1221136E2,5.355199E2,1.5643044E2,3.769266E0,4.462506E0,8.443515E0,4.0235786E0,7.018079E0,9.239991E0,1.3241925E0,1.1698147E1,4.67283E0,3.2069447E0,9.102336E0,1.453645E1,7.400789E0,1.7881277E1,2.8193092E1,4.7200653E1,7.1885195E0,8.632551E1,1.4662025E1,5.8000164E1,7.102215E0,1.1389853E0,2.751772E2,6.456964E1,9.100819E1,1.07124815E1,3.2708505E2,1.851263E2,2.2335817E2,3.121617E2,1.2934457E2,2.7085873E1,2.1708198E0,2.291686E0,2.1671002E0,6.2764144E0,1.3169136E0,5.701165E0,2.0886443E0,7.151347E0,1.0107335E1,1.5908121E0,1.6305103E0,3.0423198E0,1.7186214E0,1.4883233E0,7.273706E0,1.8286299E0,7.532588E0,7.0038624E0,5.6844897E0,1.7162992E0,1.6393335E1,1.4879427E0,5.008507E0,2.3184586E1,3.117787E1,1.6022783E1,4.0957813E0,3.092738E0,8.328966E1,3.0358498E0,1.7251313E0,1.2936894E1,4.405415E1,1.3946016E1,3.944873E1,2.3572845E2,5.1240475E1,1.3329169E1,6.1544807E1,2.9463383E1,2.6251607E0,8.08732E0,2.061627E2,1.2092234E2,8.8250084E1,9.687621E1,6.974423E1,1.5361394E2,1.5698474E2,1.5517696E2,3.753499E1,9.180958E1,1.834481E0,2.5251392E1],"tree_param":{"num_deleted":"0","num_feature":"29","num_nodes":"117","size_leaf_vector":"1"}},{"base_weights":[-3.9400384E-4,1.225877E-1,-2.8135901E-2,-1.2513354E-1,2.0166619E-1,-1.835628E-1,5.4461793E-3,-7.920235E-3,-6.313534E-1,4.7910628E-1,7.2434954E-2,-6.9626635E-1,-1.06816426E-1,1.044441E-1,-7.263046E-2,1.7443506E-1,-6.3744223E-1,-8.2856435E-1,4.9923763E-1,5.538423E-1,-6.86674E-1,2.8652012E-2,8.97884E-1,-3.219817E-2,-9.665113E-1,-4.0956754E-2,-5.8936137E-1,4.459173E-1,1.0767906E-2,-3.8046014E-1,-1.7966727E-2,9.6956515E-1,-1.389629E-2,2.2672057E-1,-7.815765E-1,-4.396818E-2,-9.977662E-1,2.3017623E-1,1.315309E-3,7.220203E-1,-3.0071368E-2,-3.6123824E-1,2.16792E-1,3.0037628E-3,3.5538438E-1,1.1571308E0,-9.219774E-2,6.607465E-1,-7.381267E-1,-1.0941489E0,3.2369146E-1,2.5812538E-2,-7.621803E-1,-8.37139E-1,5.8745766E-1,7.138552E-1,8.912783E-2,7.256028E-2,-2.529383E-1,1.1823764E0,-4.5150873E-1,6.087655E-1,-4.3207448E-2,-1.3006866E-1,3.5087305E-1,-1.2949894E-1,1.2118954E-1,-4.1328552E-1,-7.621214E-2,-2.160319E-1,1.6014065E-1,-3.7060615E-1,-1.1730705E-1,2.8738767E-1,7.5061796E-3,-1.8824844E-1,2.268989E-1,8.563973E-3,-3.2487896E-1,-8.343967E-3,4.5666417E-1,-2.0227747E-1,3.9346746E-1,-3.689219E-1,1.1451932E-1,1.07904095E-2,-3.5618377E-1,-4.7890283E-3,1.4959297E-1,-3.8519055E-1,1.6265733E-2,-9.7441375E-2,-3.8494942E-1,2.0758605E-1,-3.1288308E-1,-2.5292497E-2,3.3754346E-1,2.4448864E-1,-9.070597E-3,-1.4432572E-2,4.2267722E-1,8.156278E-3,1.744535E-1,-1.4105298E-1,8.233406E-2,4.357495E-1,4.105198E-2,-5.8937456E-2,-2.2724335E-1,-2.1881224E-3,3.675262E-1,3.0372068E-2,-4.5877084E-2],"categories":[],"categories_nodes":[],"categories_segments":[],"categories_sizes":[],"default_left":[0,0,0,0,0,0,0,0,0,0,0,0,0,0,0,0,0,0,0,0,0,0,0,0,0,0,0,0,0,0,0,0,0,0,0,0,0,0,0,0,0,0,0,0,0,0,0,0,0,0,0,0,0,0,0,0,0,0,0,0,0,0,0,0,0,0,0,0,0,0,0,0,0,0,0,0,0,0,0,0,0,0,0,0,0,0,0,0,0,0,0,0,0,0,0,0,0,0,0,0,0,0,0,0,0,0,0,0,0,0,0,0,0],"id":7,"left_children":[1,3,5,7,9,11,13,15,17,19,21,23,25,27,29,31,33,35,37,39,41,43,45,47,49,51,53,55,57,59,61,63,65,-1,67,69,71,-1,-1,73,75,-1,-1,77,-1,79,-1,81,83,85,87,89,91,93,95,97,99,101,103,105,107,109,111,-1,-1,-1,-1,-1,-1,-1,-1,-1,-1,-1,-1,-1,-1,-1,-1,-1,-1,-1,-1,-1,-1,-1,-1,-1,-1,-1,-1,-1,-1,-1,-1,-1,-1,-1,-1,-1,-1,-1,-1,-1,-1,-1,-1,-1,-1,-1,-1,-1,-1],"loss_changes":[6.747262E0,7.155867E0,8.423496E0,5.257974E0,9.871952E0,1.120799E1,1.0271564E1,8.49532E0,4.1290693E0,8.014788E0,6.829426E0,6.6360855E0,7.939373E0,1.8737524E1,1.2495555E1,8.611321E0,3.9278593E0,1.8896713E0,4.076497E-1,8.16264E0,5.0455422E0,5.367518E0,3.3304758E0,6.2502575E0,4.6969013E0,1.0689131E1,9.244814E0,1.1991987E1,7.5272803E0,1.2969238E1,1.0023986E1,3.5966997E0,8.450044E0,0E0,4.540271E0,1.8024043E0,1.2374134E0,0E0,0E0,1.0566986E1,9.634872E0,0E0,0E0,4.9746013E0,0E0,3.5228558E0,0E0,6.5078373E0,3.942106E0,2.5923767E0,1.9488692E-1,7.6506295E0,3.868575E0,8.655008E0,2.1929505E0,5.432316E0,1.0071067E1,8.623274E0,1.0177001E1,1.2546659E0,8.267275E0,9.32414E0,9.65857E0,0E0,0E0,0E0,0E0,0E0,0E0,0E0,0E0,0E0,0E0,0E0,0E0,0E0,0E0,0E0,0E0,0E0,0E0,0E0,0E0,0E0,0E0,0E0,0E0,0E0,0E0,0E0,0E0,0E0,0E0,0E0,0E0,0E0,0E0,0E0,0E0,0E0,0E0,0E0,0E0,0E0,0E0,0E0,0E0,0E0,0E0,0E0,0E0,0E0,0E0],"parents":[2147483647,0,0,1,1,2,2,3,3,4,4,5,5,6,6,7,7,8,8,9,9,10,10,11,11,12,12,13,13,14,14,15,15,16,16,17,17,18,18,19,19,20,20,21,21,22,22,23,23,24,24,25,25,26,26,27,27,28,28,29,29,30,30,31,31,32,32,34,34,35,35,36,36,39,39,40,40,43,43,45,45,47,47,48,48,49,49,50,50,51,51,52,52,53,53,54,54,55,55,56,56,57,57,58,58,59,59,60,60,61,61,62,62],"right_children":[2,4,6,8,10,12,14,16,18,20,22,24,26,28,30,32,34,36,38,40,42,44,46,48,50,52,54,56,58,60,62,64,66,-1,68,70,72,-1,-1,74,76,-1,-1,78,-1,80,-1,82,84,86,88,90,92,94,96,98,100,102,104,106,108,110,112,-1,-1,-1,-1,-1,-1,-1,-1,-1,-1,-1,-1,-1,-1,-1,-1,-1,-1,-1,-1,-1,-1,-1,-1,-1,-1,-1,-1,-1,-1,-1,-1,-1,-1,-1,-1,-1,-1,-1,-1,-1,-1,-1,-1,-1,-1,-1,-1,-1,-1],"split_conditions":[-6.6236943E-1,-9.939201E-1,-8.731301E-1,-4.03812E-1,-5.417004E-1,-5.69269E-1,-1.2142825E-1,8.181083E-1,1.4409684E0,9.587848E-2,1.3256292E0,-6.1251056E-1,-1.817326E-1,-4.7420135E-1,-5.391777E-1,-7.654511E-1,-8.0095184E-1,-1.3889656E0,-3.9483838E-2,-3.74936E-1,1.2990923E0,2.2481053E0,1.4447769E0,3.722942E-2,-8.821631E-1,-1.7341866E-1,7.70643E-1,-2.8452533E-1,1.9559594E0,-1.6497841E0,-6.8759465E-1,-1.3918903E0,-1.1116894E0,2.2672057E-1,9.3367267E-1,4.5408544E-1,1.0312048E0,2.3017623E-1,1.315309E-3,-7.0430585E-3,1.9270676E-1,-3.6123824E-1,2.16792E-1,1.3077248E0,3.5538438E-1,-9.0630406E-1,-9.219774E-2,-1.7329812E0,-4.442778E-1,-6.30897E-1,3.722942E-2,-9.0760225E-1,-9.195384E-1,-1.4401214E0,1.7673414E0,1.2905173E0,5.1825154E-1,4.326741E-1,1.0036701E0,-6.6349363E-1,2.098479E-1,-7.3286927E-1,2.3571469E-1,-1.3006866E-1,3.5087305E-1,-1.2949894E-1,1.2118954E-1,-4.1328552E-1,-7.621214E-2,-2.160319E-1,1.6014065E-1,-3.7060615E-1,-1.1730705E-1,2.8738767E-1,7.5061796E-3,-1.8824844E-1,2.268989E-1,8.563973E-3,-3.2487896E-1,-8.343967E-3,4.5666417E-1,-2.0227747E-1,3.9346746E-1,-3.689219E-1,1.1451932E-1,1.07904095E-2,-3.5618377E-1,-4.7890283E-3,1.4959297E-1,-3.8519055E-1,1.6265733E-2,-9.7441375E-2,-3.8494942E-1,2.0758605E-1,-3.1288308E-1,-2.5292497E-2,3.3754346E-1,2.4448864E-1,-9.070597E-3,-1.4432572E-2,4.2267722E-1,8.156278E-3,1.744535E-1,-1.4105298E-1,8.233406E-2,4.357495E-1,4.105198E-2,-5.8937456E-2,-2.2724335E-1,-2.1881224E-3,3.675262E-1,3.0372068E-2,-4.5877084E-2],"split_indices":[23,28,28,3,24,25,17,26,2,0,7,24,17,18,28,16,3,2,15,14,15,11,7,1,28,14,25,14,10,15,14,26,28,0,26,1,5,0,0,17,15,0,0,7,0,25,0,1,16,18,1,16,28,1,10,4,28,0,23,28,26,14,17,0,0,0,0,0,0,0,0,0,0,0,0,0,0,0,0,0,0,0,0,0,0,0,0,0,0,0,0,0,0,0,0,0,0,0,0,0,0,0,0,0,0,0,0,0,0,0,0,0,0],"split_type":[0,0,0,0,0,0,0,0,0,0,0,0,0,0,0,0,0,0,0,0,0,0,0,0,0,0,0,0,0,0,0,0,0,0,0,0,0,0,0,0,0,0,0,0,0,0,0,0,0,0,0,0,0,0,0,0,0,0,0,0,0,0,0,0,0,0,0,0,0,0,0,0,0,0,0,0,0,0,0,0,0,0,0,0,0,0,0,0,0,0,0,0,0,0,0,0,0,0,0,0,0,0,0,0,0,0,0,0,0,0,0,0,0],"sum_hessian":[1.9756458E3,3.630043E2,1.6126415E3,8.769828E1,2.7530603E2,2.8573178E2,1.3269097E3,7.203459E1,1.5663692E1,8.662588E1,1.8868015E2,3.6151264E1,2.4958052E2,5.84919E2,7.4199066E2,5.6415478E1,1.5619112E1,1.3564716E1,2.0989764E0,8.1900314E1,4.725563E0,1.8015898E2,8.521166E0,1.078026E1,2.5371002E1,2.205622E2,2.9018337E1,1.2510818E2,4.5981085E2,1.1099286E2,6.309978E2,1.0009106E1,4.6406372E1,1.0665687E0,1.4552544E1,2.6298494E0,1.0934867E1,1.0044764E0,1.0945001E0,6.3402657E1,1.849766E1,3.5629566E0,1.1626065E0,1.7722925E2,2.9297264E0,7.045529E0,1.4756374E0,5.4724584E0,5.307802E0,2.3225317E1,2.145686E0,2.0275572E2,1.7806469E1,2.4209667E1,4.80867E0,7.0879265E1,5.4228912E1,3.73108E2,8.670286E1,4.1462865E0,1.0684657E2,2.3533665E1,6.074641E2,1.1030779E0,8.906028E0,2.3189295E1,2.3217077E1,6.0760446E0,8.4765E0,1.0982565E0,1.5315931E0,7.113377E0,3.8214898E0,4.7088512E1,1.6314144E1,1.0626698E1,7.870961E0,1.7410768E2,3.1215658E0,1.877046E0,5.168483E0,1.7816818E0,3.6907766E0,3.6203582E0,1.6874439E0,1.8149594E0,2.1410357E1,1.0384239E0,1.107262E0,3.3657708E0,1.9938995E2,1.0562501E1,7.2439675E0,2.591688E0,2.161798E1,2.5126553E0,2.2960148E0,6.2316463E1,8.562799E0,4.999394E1,4.234973E0,3.4353546E2,2.9572546E1,6.1484783E1,2.5218077E1,2.985678E0,1.1606086E0,5.9167587E1,4.7678986E1,1.2263527E1,1.1270138E1,2.622604E2,3.452037E2],"tree_param":{"num_deleted":"0","num_feature":"29","num_nodes":"113","size_leaf_vector":"1"}},{"base_weights":[-2.3020527E-4,4.1319855E-2,-9.718774E-2,2.5758538E-1,-2.7595882E-3,-3.8084996E-1,-5.514023E-2,3.1328952E-1,-6.183297E-1,-2.2519061E-2,3.7093717E-1,-1.09801106E-1,-8.701715E-1,1.1718043E0,-6.6237E-2,-1.8052016E-1,3.9211097E-1,3.4738514E-1,-9.787892E-1,-8.541846E-3,-4.531646E-1,5.6369567E-1,-4.4878653E-1,-6.3350695E-1,3.8850173E-1,-8.953234E-2,-1.1005021E0,1.2674698E-2,4.4831154E-1,-1.1855975E-1,1.9109407E-1,5.503207E-1,-5.080437E-1,5.6338775E-1,1.7138158E-1,2.4079143E-1,-8.709771E-2,-1.1048534E0,2.1898817E-2,-2.930026E-2,4.9500725E-1,-1.1191747E0,3.2814797E-2,9.132157E-1,-3.0865872E-1,-7.388138E-1,3.1994638E-1,2.1728858E-1,-7.741774E-1,9.841321E-1,-2.2233002E-2,6.414259E-1,-3.4565002E-1,1.8222623E-1,-1.2401837E0,-5.796849E-2,-4.5136848E-1,4.6972638E-1,-1.639507E-1,-1.3620264E-2,3.124059E-1,8.164447E-2,-2.7809042E-1,2.0159318E-1,1.7673561E-2,7.259636E-2,-3.6238608E-1,-9.723572E-3,-3.752297E-1,2.482761E-3,-6.0414698E-2,-1.069921E-1,2.3225753E-1,-3.883542E-1,1.3297354E-1,1.4903842E-1,-3.9941475E-1,3.942256E-1,1.5257666E-1,1.6463766E-1,-2.8827512E-1,2.61489E-1,-3.1225088E-1,3.5147976E-2,-3.0790007E-1,4.1657814E-1,4.5823283E-2,-1.947547E-1,1.2520559E-1,3.5447115E-1,-9.456038E-2,-4.2828426E-1,-2.6472664E-2,-5.2511864E-3,-2.2259508E-1,-1.8633385E-1,1.2050183E-1,3.4841672E-1,5.3944804E-2,1.9489872E-1,-1.08528465E-1],"categories":[],"categories_nodes":[],"categories_segments":[],"categories_sizes":[],"default_left":[0,0,0,0,0,0,0,0,0,0,0,0,0,0,0,0,0,0,0,0,0,0,0,0,0,0,0,0,0,0,0,0,0,0,0,0,0,0,0,0,0,0,0,0,0,0,0,0,0,0,0,0,0,0,0,0,0,0,0,0,0,0,0,0,0,0,0,0,0,0,0,0,0,0,0,0,0,0,0,0,0,0,0,0,0,0,0,0,0,0,0,0,0,0,0,0,0,0,0,0,0],"id":8,"left_children":[1,3,5,7,9,11,13,15,17,19,21,23,25,27,29,31,33,35,37,39,41,43,45,47,49,51,53,-1,-1,55,57,59,61,63,65,-1,-1,67,-1,69,71,73,75,77,79,81,-1,-1,83,85,87,89,-1,-1,91,93,95,97,99,-1,-1,-1,-1,-1,-1,-1,-1,-1,-1,-1,-1,-1,-1,-1,-1,-1,-1,-1,-1,-1,-1,-1,-1,-1,-1,-1,-1,-1,-1,-1,-1,-1,-1,-1,-1,-1,-1,-1,-1,-1,-1],"loss_changes":[7.8673544E0,1.3032621E1,6.966386E0,1.1487542E1,8.400937E0,9.912544E0,7.040026E0,8.567312E0,5.2748466E0,6.499578E0,9.281078E0,1.3217177E1,4.712034E0,1.6264005E0,6.8589525E0,7.635869E0,7.0321007E0,1.5659612E0,1.4841633E0,1.0963898E1,1.1023874E1,1.4521607E1,5.8130913E0,5.262188E0,6.404643E0,6.319165E0,5.6606693E0,0E0,0E0,8.494888E0,8.602136E0,2.9696727E0,7.358357E0,5.7527275E0,8.455849E0,0E0,0E0,1.448267E0,0E0,6.512924E0,1.0150225E1,4.504717E0,1.3698452E1,4.7809486E0,8.4169035E0,5.862718E0,0E0,0E0,5.2418203E0,3.3759413E0,4.796107E0,2.9036434E0,0E0,0E0,4.0505447E0,9.913164E0,9.652028E0,9.524915E0,6.4527473E0,0E0,0E0,0E0,0E0,0E0,0E0,0E0,0E0,0E0,0E0,0E0,0E0,0E0,0E0,0E0,0E0,0E0,0E0,0E0,0E0,0E0,0E0,0E0,0E0,0E0,0E0,0E0,0E0,0E0,0E0,0E0,0E0,0E0,0E0,0E0,0E0,0E0,0E0,0E0,0E0,0E0,0E0],"parents":[2147483647,0,0,1,1,2,2,3,3,4,4,5,5,6,6,7,7,8,8,9,9,10,10,11,11,12,12,13,13,14,14,15,15,16,16,17,17,18,18,19,19,20,20,21,21,22,22,23,23,24,24,25,25,26,26,29,29,30,30,31,31,32,32,33,33,34,34,37,37,39,39,40,40,41,41,42,42,43,43,44,44,45,45,48,48,49,49,50,50,51,51,54,54,55,55,56,56,57,57,58,58],"right_children":[2,4,6,8,10,12,14,16,18,20,22,24,26,28,30,32,34,36,38,40,42,44,46,48,50,52,54,-1,-1,56,58,60,62,64,66,-1,-1,68,-1,70,72,74,76,78,80,82,-1,-1,84,86,88,90,-1,-1,92,94,96,98,100,-1,-1,-1,-1,-1,-1,-1,-1,-1,-1,-1,-1,-1,-1,-1,-1,-1,-1,-1,-1,-1,-1,-1,-1,-1,-1,-1,-1,-1,-1,-1,-1,-1,-1,-1,-1,-1,-1,-1,-1,-1,-1],"split_conditions":[6.217505E-1,-5.4104626E-1,-1.2522204E0,1.1007974E-2,9.344741E-1,-3.2619467E-1,-1.2243798E0,-1.1188157E0,-6.859245E-1,1.3509607E0,7.9868126E-1,-8.028748E-1,-1.6809657E0,-7.2727704E-1,8.036337E-1,-7.2071606E-1,-9.908444E-1,1.336847E-1,1.1671278E0,1.3276306E0,-2.970175E-1,5.119865E-1,2.1089616E0,-1.6040902E0,-3.3096638E-1,-9.8640375E-2,-6.7298704E-1,1.2674698E-2,4.4831154E-1,2.3571469E-1,-3.050671E-1,-1.1824313E0,-7.442053E-1,1.7936653E-1,1.5881139E0,2.4079143E-1,-8.709771E-2,-7.093376E-1,2.1898817E-2,1.2118621E0,-6.688236E-1,1.6710728E0,2.0243125E0,-2.950084E-1,-5.2909863E-1,9.34677E-1,3.1994638E-1,2.1728858E-1,-4.2383704E-1,1.1897544E0,-4.9857205E-1,1.1859305E-1,-3.4565002E-1,1.8222623E-1,1.0200522E0,6.553863E-2,1.9563259E0,3.565988E-1,-6.067724E-1,-1.3620264E-2,3.124059E-1,8.164447E-2,-2.7809042E-1,2.0159318E-1,1.7673561E-2,7.259636E-2,-3.6238608E-1,-9.723572E-3,-3.752297E-1,2.482761E-3,-6.0414698E-2,-1.069921E-1,2.3225753E-1,-3.883542E-1,1.3297354E-1,1.4903842E-1,-3.9941475E-1,3.942256E-1,1.5257666E-1,1.6463766E-1,-2.8827512E-1,2.61489E-1,-3.1225088E-1,3.5147976E-2,-3.0790007E-1,4.1657814E-1,4.5823283E-2,-1.947547E-1,1.2520559E-1,3.5447115E-1,-9.456038E-2,-4.2828426E-1,-2.6472664E-2,-5.2511864E-3,-2.2259508E-1,-1.8633385E-1,1.2050183E-1,3.4841672E-1,5.3944804E-2,1.9489872E-1,-1.08528465E-1],"split_indices":[22,18,15,14,26,14,15,28,0,8,23,28,15,4,28,3,26,15,15,8,16,22,11,1,3,16,24,0,0,17,24,28,14,3,2,0,0,18,0,8,16,28,10,4,14,26,0,0,17,22,4,3,0,0,7,14,27,17,18,0,0,0,0,0,0,0,0,0,0,0,0,0,0,0,0,0,0,0,0,0,0,0,0,0,0,0,0,0,0,0,0,0,0,0,0,0,0,0,0,0,0],"split_type":[0,0,0,0,0,0,0,0,0,0,0,0,0,0,0,0,0,0,0,0,0,0,0,0,0,0,0,0,0,0,0,0,0,0,0,0,0,0,0,0,0,0,0,0,0,0,0,0,0,0,0,0,0,0,0,0,0,0,0,0,0,0,0,0,0,0,0,0,0,0,0,0,0,0,0,0,0,0,0,0,0,0,0,0,0,0,0,0,0,0,0,0,0,0,0,0,0,0,0,0,0],"sum_hessian":[1.9508829E3,1.366051E3,5.84832E2,2.3046829E2,1.1355828E3,7.44587E1,5.1037323E2,2.1729185E2,1.3176429E1,1.079446E3,5.6136715E1,4.870438E1,2.575432E1,3.637025E0,5.067362E2,2.9732151E1,1.8755971E2,3.5912652E0,9.585164E0,1.0465002E3,3.294582E1,4.570216E1,1.0434555E1,2.3614601E1,2.5089779E1,6.184033E0,1.9570286E1,1.0591406E0,2.5778847E0,4.2156027E2,8.517595E1,8.990459E0,2.0741692E1,1.0473632E2,8.282339E1,1.9444939E0,1.6467712E0,8.514217E0,1.0709472E0,1.0059716E3,4.0528576E1,1.3348902E1,1.9596918E1,3.259551E1,1.3106649E1,9.188312E0,1.2462432E0,1.8273621E0,2.178724E1,9.670294E0,1.5419485E1,3.8986413E0,2.2853918E0,1.226383E0,1.8343904E1,3.5762512E2,6.3935158E1,4.7542503E1,3.7633446E1,4.472252E0,4.5182076E0,7.368739E0,1.3372953E1,8.591163E1,1.882469E1,7.957463E1,3.2487555E0,1.1660421E0,7.348175E0,8.26457E2,1.7951463E2,9.937366E0,3.0591208E1,1.2156171E1,1.1927313E0,1.5097807E1,4.499112E0,1.524471E1,1.73508E1,5.731161E0,7.3754888E0,1.1532063E0,8.035106E0,4.9224443E0,1.6864794E1,6.0545874E0,3.615706E0,6.158805E0,9.26068E0,2.3414412E0,1.5572001E0,1.5571054E1,2.772849E0,3.386189E2,1.9006214E1,5.355106E1,1.0384097E1,1.3153974E1,3.4388527E1,6.913473E0,3.071997E1],"tree_param":{"num_deleted":"0","num_feature":"29","num_nodes":"101","size_leaf_vector":"1"}},{"base_weights":[-1.1407432E-4,-1.0653308E-1,2.9200353E-2,-4.9275613E-1,-4.7494497E-2,3.738425E-1,7.104104E-3,-2.553871E-1,-1.0102549E0,6.086878E-2,-2.0714618E-1,2.5543535E-1,4.2289275E-1,-4.4021466E-1,1.1626386E-2,1.08628504E-1,-5.9736705E-1,-1.9536695E-2,-1.0868256E0,2.4792679E-1,-1.06444925E-1,-5.714607E-1,-3.454017E-2,4.807573E-1,-6.0146037E-2,1.7658599E-1,-2.3581248E-2,-6.524572E-1,4.711047E-1,-3.8794126E-2,-1.0120815E0,7.678509E-3,-1.1776155E0,4.3228513E-1,-1.498466E-1,2.0755573E-1,-3.7829816E-1,-9.318597E-1,-1.4915608E-1,8.247034E-2,-8.96099E-1,-5.4812096E-2,7.6890653E-1,-5.9787804E-1,1.6768862E-1,2.5567365E-1,-3.1358466E-1,6.4761993E-3,-2.3743299E-1,-2.9225475E-1,1.6239077E-1,2.8576663E-1,-2.570639E-1,2.2598939E-1,-1.6005221E-1,-3.8201293E-1,4.0042404E-2,-3.672272E-1,-8.4672645E-2,1.504505E-2,2.364404E-1,-3.3560908E-1,1.1077766E-2,1.2745699E-2,3.339291E-1,-3.4738246E-1,-6.903105E-2,-3.5907578E-1,-5.981609E-2,1.887427E-1,-1.4602679E-1,-1.9421624E-1,6.984099E-2,-4.03628E-1,1.6785336E-1,1.6752717E-1,-1.06744416E-1,-2.6512338E-2,2.6596844E-1,-2.9414588E-1,2.3802778E-1,-2.7406025E-1,8.375707E-2,2.2908968E-1,4.0250152E-2,-2.0169635E-1,1.2091312E-1,2.6626688E-1,-1.08632616E-4,-9.430521E-2,1.1292912E-1],"categories":[],"categories_nodes":[],"categories_segments":[],"categories_sizes":[],"default_left":[0,0,0,0,0,0,0,0,0,0,0,0,0,0,0,0,0,0,0,0,0,0,0,0,0,0,0,0,0,0,0,0,0,0,0,0,0,0,0,0,0,0,0,0,0,0,0,0,0,0,0,0,0,0,0,0,0,0,0,0,0,0,0,0,0,0,0,0,0,0,0,0,0,0,0,0,0,0,0,0,0,0,0,0,0,0,0,0,0,0,0],"id":9,"left_children":[1,3,5,7,9,11,13,15,17,19,21,23,-1,-1,25,27,29,-1,31,33,35,37,39,41,43,45,47,49,51,53,55,-1,57,59,61,63,65,67,69,71,73,75,77,79,81,83,85,87,89,-1,-1,-1,-1,-1,-1,-1,-1,-1,-1,-1,-1,-1,-1,-1,-1,-1,-1,-1,-1,-1,-1,-1,-1,-1,-1,-1,-1,-1,-1,-1,-1,-1,-1,-1,-1,-1,-1,-1,-1,-1,-1],"loss_changes":[6.047409E0,9.5229435E0,1.1571488E1,6.5478354E0,6.3143864E0,1.086854E1,9.547705E0,4.9598193E0,1.1655731E0,6.841518E0,9.255652E0,5.9579983E0,0E0,0E0,8.285695E0,5.795377E0,4.6928625E0,0E0,1.6198006E0,7.6262097E0,9.950034E0,7.0681877E0,1.0270846E1,7.566843E0,4.4645658E0,9.80765E0,7.5606637E0,3.1531863E0,9.803043E0,4.220233E0,3.6672773E0,0E0,2.6094246E-1,9.576308E0,6.0847216E0,8.070452E0,6.935731E0,4.684782E0,6.3482194E0,1.0022346E1,8.71836E0,3.5194156E0,3.282673E0,6.5379677E0,3.365741E0,1.3267056E1,9.348604E0,6.2185287E0,6.962303E0,0E0,0E0,0E0,0E0,0E0,0E0,0E0,0E0,0E0,0E0,0E0,0E0,0E0,0E0,0E0,0E0,0E0,0E0,0E0,0E0,0E0,0E0,0E0,0E0,0E0,0E0,0E0,0E0,0E0,0E0,0E0,0E0,0E0,0E0,0E0,0E0,0E0,0E0,0E0,0E0,0E0,0E0],"parents":[2147483647,0,0,1,1,2,2,3,3,4,4,5,5,6,6,7,7,8,8,9,9,10,10,11,11,14,14,15,15,16,16,18,18,19,19,20,20,21,21,22,22,23,23,24,24,25,25,26,26,27,27,28,28,29,29,30,30,32,32,33,33,34,34,35,35,36,36,37,37,38,38,39,39,40,40,41,41,42,42,43,43,44,44,45,45,46,46,47,47,48,48],"right_children":[2,4,6,8,10,12,14,16,18,20,22,24,-1,-1,26,28,30,-1,32,34,36,38,40,42,44,46,48,50,52,54,56,-1,58,60,62,64,66,68,70,72,74,76,78,80,82,84,86,88,90,-1,-1,-1,-1,-1,-1,-1,-1,-1,-1,-1,-1,-1,-1,-1,-1,-1,-1,-1,-1,-1,-1,-1,-1,-1,-1,-1,-1,-1,-1,-1,-1,-1,-1,-1,-1,-1,-1,-1,-1,-1,-1],"split_conditions":[-8.821631E-1,-5.5320877E-1,-6.281433E-1,-3.885719E-1,-3.885719E-1,9.3479675E-1,-6.265209E-1,-1.1023526E0,-1.3922979E0,-2.6215643E-1,-4.1477513E-1,2.4175975E-1,4.2289275E-1,-4.4021466E-1,-1.0005877E0,-1.0761334E0,-3.3636993E-1,-1.9536695E-2,-7.4188673E-1,-4.3591467E-1,-5.891911E-1,-5.0003016E-1,9.3317497E-1,-6.519167E-1,4.9504825E-1,6.8084353E-1,7.486488E-1,1.2646142E0,-1.6021064E-1,-4.8105064E-1,-9.1314614E-2,7.678509E-3,-8.661334E-2,-9.559821E-1,-4.0575466E-1,-9.611441E-1,-4.5704484E-1,-9.2503196E-1,5.028695E-1,-1.0478971E0,-5.216327E-1,-5.9317654E-1,-6.423594E-1,-5.008479E-1,-7.003642E-1,-1.2688127E0,1.2069275E0,-7.954773E-1,1.235134E0,-2.9225475E-1,1.6239077E-1,2.8576663E-1,-2.570639E-1,2.2598939E-1,-1.6005221E-1,-3.8201293E-1,4.0042404E-2,-3.672272E-1,-8.4672645E-2,1.504505E-2,2.364404E-1,-3.3560908E-1,1.1077766E-2,1.2745699E-2,3.339291E-1,-3.4738246E-1,-6.903105E-2,-3.5907578E-1,-5.981609E-2,1.887427E-1,-1.4602679E-1,-1.9421624E-1,6.984099E-2,-4.03628E-1,1.6785336E-1,1.6752717E-1,-1.06744416E-1,-2.6512338E-2,2.6596844E-1,-2.9414588E-1,2.3802778E-1,-2.7406025E-1,8.375707E-2,2.2908968E-1,4.0250152E-2,-2.0169635E-1,1.2091312E-1,2.6626688E-1,-1.08632616E-4,-9.430521E-2,1.1292912E-1],"split_indices":[28,25,24,17,17,26,24,26,26,1,15,2,0,0,4,28,4,0,0,14,18,2,26,0,22,17,22,2,14,14,3,0,14,4,14,28,23,28,22,28,24,16,18,3,24,26,17,14,28,0,0,0,0,0,0,0,0,0,0,0,0,0,0,0,0,0,0,0,0,0,0,0,0,0,0,0,0,0,0,0,0,0,0,0,0,0,0,0,0,0,0],"split_type":[0,0,0,0,0,0,0,0,0,0,0,0,0,0,0,0,0,0,0,0,0,0,0,0,0,0,0,0,0,0,0,0,0,0,0,0,0,0,0,0,0,0,0,0,0,0,0,0,0,0,0,0,0,0,0,0,0,0,0,0,0,0,0,0,0,0,0,0,0,0,0,0,0,0,0,0,0,0,0,0,0,0,0,0,0,0,0,0,0,0,0],"sum_hessian":[1.936516E3,4.1766156E2,1.5188544E3,5.440493E1,3.6325662E2,9.055293E1,1.4283015E3,3.832111E1,1.6083824E1,2.16754E2,1.4650262E2,8.238206E1,8.170874E0,3.3781564E0,1.4249233E3,1.8893038E1,1.942807E1,1.3440729E0,1.4739751E1,1.0211114E2,1.1464285E2,4.635393E1,1.0014869E2,4.775912E1,3.4622936E1,2.4992502E2,1.1749983E3,5.837058E0,1.3055981E1,8.74419E0,1.068388E1,1.1663927E0,1.3573358E1,6.9713745E1,3.2397396E1,5.330737E1,6.1335484E1,2.4359062E1,2.1994871E1,8.896976E1,1.1178933E1,1.6990137E1,3.0768986E1,9.8205185E0,2.480242E1,2.1561461E2,3.431042E1,1.031051E3,1.4394733E2,4.742787E0,1.0942713E0,9.7895565E0,3.266424E0,3.1607594E0,5.583431E0,8.608704E0,2.0751762E0,1.2554576E1,1.018782E0,3.416549E1,3.5548256E1,4.4296618E0,2.7967735E1,4.5973778E1,7.3335896E0,8.70825E0,5.262723E1,1.7420893E1,6.9381695E0,6.3929877E0,1.5601884E1,1.4630954E1,7.4338806E1,8.599941E0,2.5789921E0,5.3122396E0,1.1677897E1,3.743223E0,2.7025763E1,7.933958E0,1.8865607E0,1.6462123E0,2.3156206E1,4.0600266E1,1.7501434E2,2.2905832E1,1.1404588E1,6.948754E0,1.0241022E3,1.2835254E2,1.55947895E1],"tree_param":{"num_deleted":"0","num_feature":"29","num_nodes":"91","size_leaf_vector":"1"}},{"base_weights":[-1.0804522E-3,1.5038225E-1,-1.8861981E-2,-8.7372965E-1,1.8467498E-1,-8.409277E-2,5.760115E-2,-3.6522487E-1,-1.5786357E-1,2.3877212E-1,-4.6958923E-1,5.15767E-3,-2.3975015E-1,1.567482E-1,-6.0460623E-2,-2.92546E-1,2.3499577E-1,4.1181326E-1,6.916323E-3,-7.268083E-1,5.3504115E-1,4.102215E-2,-6.0358495E-1,-4.5061302E-1,-1.5409266E-2,7.6553434E-1,6.870966E-2,-5.5278903E-1,-2.7178483E-2,5.025206E-1,-2.8235918E-1,-3.8136292E-1,2.9519057E-1,2.0134462E-1,-1.144143E0,2.0065794E-2,2.2160034E-1,-4.4532273E-2,3.0263785E-1,-1.1590352E0,-2.8732046E-1,-1.426548E-1,-6.522813E-1,-4.5975062E-1,1.5988903E-2,1.139611E-1,9.3722534E-1,-1.24970395E-2,4.3212122E-1,-8.181012E-2,-1.0886045E0,-5.664142E-1,4.76738E-3,1.01791695E-1,3.2103604E-1,-2.4682598E-1,1.0076768E-1,-1.8920577E-1,2.3696783E-1,-2.889729E-1,1.621244E-1,-1.5229015E-1,3.2675073E-1,2.0632595E-2,-4.0083542E-1,-4.619027E-3,-2.2843961E-1,2.0459966E-1,-9.845099E-4,2.0763097E-2,-4.036979E-1,1.5589246E-1,-1.7592694E-1,1.3473509E-1,-9.165675E-2,-1.1038803E-1,-2.936335E-1,-3.3861732E-1,1.7778562E-2,2.6193014E-1,-2.2938861E-1,-8.6073995E-2,3.229781E-1,-5.0377395E-2,4.9649507E-2,4.0810205E-2,2.9675266E-1,2.7919963E-1,-8.446072E-2,-3.676357E-1,-5.3269963E-4,-2.3362385E-1,2.652776E-1,2.0512374E-1,-9.049214E-3],"categories":[],"categories_nodes":[],"categories_segments":[],"categories_sizes":[],"default_left":[0,0,0,0,0,0,0,0,0,0,0,0,0,0,0,0,0,0,0,0,0,0,0,0,0,0,0,0,0,0,0,0,0,0,0,0,0,0,0,0,0,0,0,0,0,0,0,0,0,0,0,0,0,0,0,0,0,0,0,0,0,0,0,0,0,0,0,0,0,0,0,0,0,0,0,0,0,0,0,0,0,0,0,0,0,0,0,0,0,0,0,0,0,0,0],"id":10,"left_children":[1,3,5,7,9,11,13,-1,15,17,19,21,23,25,27,-1,-1,29,31,33,35,37,39,41,43,45,47,49,51,53,55,57,59,61,63,-1,-1,65,67,69,71,73,75,-1,77,79,81,83,85,87,89,91,93,-1,-1,-1,-1,-1,-1,-1,-1,-1,-1,-1,-1,-1,-1,-1,-1,-1,-1,-1,-1,-1,-1,-1,-1,-1,-1,-1,-1,-1,-1,-1,-1,-1,-1,-1,-1,-1,-1,-1,-1,-1,-1],"loss_changes":[5.176916E0,7.2539115E0,8.584686E0,1.4606395E0,7.057686E0,1.2902901E1,9.286112E0,0E0,3.32387E0,7.2956066E0,4.348631E0,1.2932511E1,1.6003702E1,2.3049496E1,5.924277E0,0E0,0E0,6.699957E0,8.928405E0,5.1202626E0,3.0327058E-1,1.2531187E1,5.4566936E0,1.0740162E1,7.88514E0,5.9743557E0,1.1151186E1,5.689953E0,5.869436E0,8.203829E0,4.511699E0,1.0425695E1,1.4643681E1,3.5528333E0,2.1544733E0,0E0,0E0,8.809704E0,1.601192E1,2.7584677E0,5.6944494E0,6.9133463E0,9.398762E0,0E0,8.124543E0,8.988115E0,7.625248E0,8.594888E0,1.1247441E1,2.9451685E0,1.5790348E0,6.558351E0,7.6698484E0,0E0,0E0,0E0,0E0,0E0,0E0,0E0,0E0,0E0,0E0,0E0,0E0,0E0,0E0,0E0,0E0,0E0,0E0,0E0,0E0,0E0,0E0,0E0,0E0,0E0,0E0,0E0,0E0,0E0,0E0,0E0,0E0,0E0,0E0,0E0,0E0,0E0,0E0,0E0,0E0,0E0,0E0],"parents":[2147483647,0,0,1,1,2,2,3,3,4,4,5,5,6,6,8,8,9,9,10,10,11,11,12,12,13,13,14,14,17,17,18,18,19,19,20,20,21,21,22,22,23,23,24,24,25,25,26,26,27,27,28,28,29,29,30,30,31,31,32,32,33,33,34,34,37,37,38,38,39,39,40,40,41,41,42,42,44,44,45,45,46,46,47,47,48,48,49,49,50,50,51,51,52,52],"right_children":[2,4,6,8,10,12,14,-1,16,18,20,22,24,26,28,-1,-1,30,32,34,36,38,40,42,44,46,48,50,52,54,56,58,60,62,64,-1,-1,66,68,70,72,74,76,-1,78,80,82,84,86,88,90,92,94,-1,-1,-1,-1,-1,-1,-1,-1,-1,-1,-1,-1,-1,-1,-1,-1,-1,-1,-1,-1,-1,-1,-1,-1,-1,-1,-1,-1,-1,-1,-1,-1,-1,-1,-1,-1,-1,-1,-1,-1,-1,-1],"split_conditions":[-6.441064E-1,-1.3925302E0,-6.0323555E-2,-6.973311E-1,1.778038E0,-5.166069E-1,1.0221598E-1,-3.6522487E-1,6.496601E-1,8.3169883E-1,3.6752417E0,-2.2757387E-2,-1.107422E-1,-3.31282E-2,-4.6750095E-1,-2.92546E-1,2.3499577E-1,1.3075486E0,-6.3942444E-1,-3.5524827E-1,-3.4406003E-1,-7.7109593E-1,-7.2400695E-1,-1.2986888E-1,-6.266698E-1,-3.2889867E-1,8.897041E-1,-7.28028E-1,1.4728262E-1,1.8301995E0,-6.7803776E-1,3.7392363E-1,8.5582554E-1,2.5015209E0,-6.6458505E-1,2.0065794E-2,2.2160034E-1,-6.901715E-3,-1.4819604E-1,-1.2965468E0,-4.9909735E-1,-6.217797E-1,-4.0097064E-1,-4.5975062E-1,-5.106995E-1,-4.2010665E-1,-9.6680063E-1,1.274595E0,1.1026157E0,-5.3443515E-1,1.6973126E0,2.043104E0,1.9890128E-1,1.01791695E-1,3.2103604E-1,-2.4682598E-1,1.0076768E-1,-1.8920577E-1,2.3696783E-1,-2.889729E-1,1.621244E-1,-1.5229015E-1,3.2675073E-1,2.0632595E-2,-4.0083542E-1,-4.619027E-3,-2.2843961E-1,2.0459966E-1,-9.845099E-4,2.0763097E-2,-4.036979E-1,1.5589246E-1,-1.7592694E-1,1.3473509E-1,-9.165675E-2,-1.1038803E-1,-2.936335E-1,-3.3861732E-1,1.7778562E-2,2.6193014E-1,-2.2938861E-1,-8.6073995E-2,3.229781E-1,-5.0377395E-2,4.9649507E-2,4.0810205E-2,2.9675266E-1,2.7919963E-1,-8.446072E-2,-3.676357E-1,-5.3269963E-4,-2.3362385E-1,2.652776E-1,2.0512374E-1,-9.049214E-3],"split_indices":[17,26,28,24,20,24,14,0,22,26,20,14,16,17,18,0,0,4,3,3,15,28,28,22,17,14,1,25,14,19,2,6,26,13,16,0,0,3,16,1,18,23,14,0,24,14,25,28,28,24,0,27,14,0,0,0,0,0,0,0,0,0,0,0,0,0,0,0,0,0,0,0,0,0,0,0,0,0,0,0,0,0,0,0,0,0,0,0,0,0,0,0,0,0,0],"split_type":[0,0,0,0,0,0,0,0,0,0,0,0,0,0,0,0,0,0,0,0,0,0,0,0,0,0,0,0,0,0,0,0,0,0,0,0,0,0,0,0,0,0,0,0,0,0,0,0,0,0,0,0,0,0,0,0,0,0,0,0,0,0,0,0,0,0,0,0,0,0,0,0,0,0,0,0,0,0,0,0,0,0,0,0,0,0,0,0,0,0,0,0,0,0,0],"sum_hessian":[1.920137E3,2.0095438E2,1.7191826E3,5.717887E0,1.952365E2,9.2767883E2,7.915038E2,3.3898187E0,2.3280683E0,1.8091295E2,1.43235445E1,5.902243E2,3.374545E2,4.3003616E2,3.6146762E2,1.2267278E0,1.1013404E0,1.0315158E2,7.776137E1,1.1623961E1,2.6995828E0,5.582663E2,3.1958025E1,1.7343271E2,1.6402179E2,5.335957E1,3.766766E2,2.1900072E1,3.3956754E2,9.147469E1,1.1676893E1,3.2995926E1,4.4765438E1,3.7659745E0,7.857987E0,1.2209613E0,1.4786215E0,4.2131595E2,1.3695035E2,1.0627808E1,2.1330217E1,6.9306046E1,1.0412667E2,2.3564103E0,1.6166539E2,1.1475062E1,4.1884506E1,3.0866827E2,6.800833E1,1.2268664E1,9.631407E0,1.8056097E1,3.2151144E2,7.228632E1,1.918837E1,6.054271E0,5.622622E0,2.7585405E1,5.4105225E0,6.8230577E0,3.794238E1,2.3319814E0,1.4339931E0,1.1614665E0,6.696521E0,4.0584427E2,1.547167E1,6.05879E1,7.636244E1,1.4848163E0,9.142991E0,5.568739E0,1.5761478E1,1.4578439E1,5.4727604E1,5.679514E1,4.733153E1,4.9750495E0,1.5669034E2,6.159359E0,5.3157034E0,4.1729355E0,3.771157E1,1.6481047E2,1.438578E2,4.5218082E1,2.279025E1,1.4184335E0,1.0850231E1,8.44101E0,1.1903968E0,1.6154743E1,1.9013529E0,1.4822656E1,3.0668878E2],"tree_param":{"num_deleted":"0","num_feature":"29","num_nodes":"95","size_leaf_vector":"1"}},{"base_weights":[-1.7011774E-3,-1.7055137E-1,1.4353916E-2,-6.753607E-1,-5.4161668E-2,-1.1872689E-2,1.3984491E-1,1.9200787E-1,-7.841023E-1,3.4408495E-1,-2.1784166E-1,1.8809061E-2,-2.3386855E-1,6.409713E-1,7.6933436E-2,5.6413475E-2,-9.5891494E-1,7.391602E-1,-6.686276E-1,-3.5367754E-1,2.2313939E-1,1.358253E-1,-4.6203565E-2,-3.739017E-1,2.1151613E-1,2.3055816E-2,9.684826E-1,2.2771259E-1,-7.3333964E-2,6.6003686E-1,-2.4336688E-1,3.602181E-1,-1.230548E0,-3.6717266E-1,8.809111E-1,-9.409861E-1,1.6838181E-1,-1.15900345E-1,-7.747314E-1,4.3424758E-1,-3.159261E-1,5.006499E-2,6.342373E-1,6.05775E-2,-1.2392436E-1,-2.4044016E-1,-1.0000935E0,5.343148E-1,-1.3098264E-1,-1.129417E0,5.5255616E-1,1.0797235E0,-1.285977E-1,3.28555E-1,-4.2791635E-1,-5.295112E-1,2.5058309E-2,-7.118023E-2,3.2238543E-1,2.7025634E-1,-2.5062786E-2,-5.351918E-2,-3.9296535E-1,2.0991741E-1,-3.193958E-1,3.9876756E-1,1.6019455E-1,-3.6308375E-1,3.4378197E-2,-2.0259275E-1,3.978341E-2,-2.7129003E-1,2.5701024E-2,2.9065272E-1,-9.8839656E-2,3.9977804E-2,-8.624266E-2,3.2674918E-1,7.3046975E-2,6.4576365E-2,-1.5757028E-2,-9.389835E-2,2.373587E-3,-1.9297187E-1,-2.4639145E-3,-3.664997E-1,2.0250292E-1,-1.1537366E-2,3.0816016E-1,1.3485815E-1,-1.4152491E-1,-5.436182E-2,-4.145214E-1,-4.8200466E-2,3.869057E-1,3.6527884E-1,9.295036E-2,-4.2719087E-3,1.4571588E-1,-2.7789024E-1,6.8749934E-2,1.23764165E-1,-2.7855727E-1,-8.33292E-2,6.275134E-2],"categories":[],"categories_nodes":[],"categories_segments":[],"categories_sizes":[],"default_left":[0,0,0,0,0,0,0,0,0,0,0,0,0,0,0,0,0,0,0,0,0,0,0,0,0,0,0,0,0,0,0,0,0,0,0,0,0,0,0,0,0,0,0,0,0,0,0,0,0,0,0,0,0,0,0,0,0,0,0,0,0,0,0,0,0,0,0,0,0,0,0,0,0,0,0,0,0,0,0,0,0,0,0,0,0,0,0,0,0,0,0,0,0,0,0,0,0,0,0,0,0,0,0,0,0],"id":11,"left_children":[1,3,5,7,9,11,13,-1,15,17,19,21,23,25,27,29,31,33,35,37,39,41,43,45,47,49,51,53,55,57,-1,59,61,63,65,67,-1,69,71,73,-1,75,77,79,81,83,85,87,89,91,93,95,-1,97,99,101,103,-1,-1,-1,-1,-1,-1,-1,-1,-1,-1,-1,-1,-1,-1,-1,-1,-1,-1,-1,-1,-1,-1,-1,-1,-1,-1,-1,-1,-1,-1,-1,-1,-1,-1,-1,-1,-1,-1,-1,-1,-1,-1,-1,-1,-1,-1,-1,-1],"loss_changes":[5.153875E0,9.662329E0,5.7158E0,4.9133663E0,8.890128E0,9.792003E0,9.415076E0,0E0,4.305769E0,1.6409649E1,5.8566313E0,9.617787E0,1.0966285E1,6.726366E0,6.0855575E0,3.6392863E0,9.046419E0,4.885517E0,4.443461E0,7.3315697E0,6.742207E0,1.926678E1,6.754092E0,1.0888704E1,4.757023E0,8.298706E0,3.8464737E0,8.996316E0,6.0686984E0,1.7602414E0,0E0,1.2444427E0,1.4471836E0,3.7287807E0,3.3466358E0,2.9650707E0,0E0,6.8389344E0,3.04031E0,8.780493E0,0E0,1.0886042E1,1.1501926E1,6.0138025E0,1.1738119E1,1.0386035E1,9.3906975E0,6.2564816E0,4.4399633E0,7.754731E-1,5.090699E0,1.7934036E0,0E0,6.291667E0,6.201844E0,9.397512E0,6.298615E0,0E0,0E0,0E0,0E0,0E0,0E0,0E0,0E0,0E0,0E0,0E0,0E0,0E0,0E0,0E0,0E0,0E0,0E0,0E0,0E0,0E0,0E0,0E0,0E0,0E0,0E0,0E0,0E0,0E0,0E0,0E0,0E0,0E0,0E0,0E0,0E0,0E0,0E0,0E0,0E0,0E0,0E0,0E0,0E0,0E0,0E0,0E0,0E0],"parents":[2147483647,0,0,1,1,2,2,3,3,4,4,5,5,6,6,8,8,9,9,10,10,11,11,12,12,13,13,14,14,15,15,16,16,17,17,18,18,19,19,20,20,21,21,22,22,23,23,24,24,25,25,26,26,27,27,28,28,29,29,31,31,32,32,33,33,34,34,35,35,37,37,38,38,39,39,41,41,42,42,43,43,44,44,45,45,46,46,47,47,48,48,49,49,50,50,51,51,53,53,54,54,55,55,56,56],"right_children":[2,4,6,8,10,12,14,-1,16,18,20,22,24,26,28,30,32,34,36,38,40,42,44,46,48,50,52,54,56,58,-1,60,62,64,66,68,-1,70,72,74,-1,76,78,80,82,84,86,88,90,92,94,96,-1,98,100,102,104,-1,-1,-1,-1,-1,-1,-1,-1,-1,-1,-1,-1,-1,-1,-1,-1,-1,-1,-1,-1,-1,-1,-1,-1,-1,-1,-1,-1,-1,-1,-1,-1,-1,-1,-1,-1,-1,-1,-1,-1,-1,-1,-1,-1,-1,-1,-1,-1],"split_conditions":[-8.739864E-1,-7.27873E-1,1.274595E0,-6.499241E-1,-7.141507E-1,3.2138664E-1,-3.1154767E-1,1.9200787E-1,-8.4892875E-1,1.9454772E0,1.2359545E0,-6.9865805E-1,1.2931015E0,-4.8316285E-1,5.422311E-1,-1.1640756E-1,-3.9012E-1,-1.2533112E0,3.76662E-1,1.1371927E0,9.256996E-1,-6.0323555E-2,-3.976771E-1,4.1158232E-1,3.3761845E0,-5.5320877E-1,6.107066E-1,7.734368E-1,-5.792207E-1,4.870466E-1,-2.4336688E-1,-1.5840842E0,-1.4342978E0,-7.3881954E-1,-8.26816E-1,1.2351444E0,1.6838181E-1,-6.49193E-1,2.0824802E0,2.228773E0,-3.159261E-1,-4.550729E-1,-4.9520027E-2,-5.8172625E-1,-6.71225E-1,6.399707E-1,1.9967469E0,1.6954358E-1,-8.464246E-1,-5.637653E-1,8.243818E-1,7.734368E-1,-1.285977E-1,-8.023163E-1,9.224409E-1,-8.06285E-1,2.673133E-1,-7.118023E-2,3.2238543E-1,2.7025634E-1,-2.5062786E-2,-5.351918E-2,-3.9296535E-1,2.0991741E-1,-3.193958E-1,3.9876756E-1,1.6019455E-1,-3.6308375E-1,3.4378197E-2,-2.0259275E-1,3.978341E-2,-2.7129003E-1,2.5701024E-2,2.9065272E-1,-9.8839656E-2,3.9977804E-2,-8.624266E-2,3.2674918E-1,7.3046975E-2,6.4576365E-2,-1.5757028E-2,-9.389835E-2,2.373587E-3,-1.9297187E-1,-2.4639145E-3,-3.664997E-1,2.0250292E-1,-1.1537366E-2,3.0816016E-1,1.3485815E-1,-1.4152491E-1,-5.436182E-2,-4.145214E-1,-4.8200466E-2,3.869057E-1,3.6527884E-1,9.295036E-2,-4.2719087E-3,1.4571588E-1,-2.7789024E-1,6.8749934E-2,1.23764165E-1,-2.7855727E-1,-8.33292E-2,6.275134E-2],"split_indices":[25,16,28,17,5,17,24,0,4,19,14,26,17,4,0,24,14,1,16,7,26,28,17,3,17,25,14,17,16,28,0,5,15,0,15,7,0,15,24,14,0,18,14,3,28,28,27,3,5,14,26,17,0,15,8,16,25,0,0,0,0,0,0,0,0,0,0,0,0,0,0,0,0,0,0,0,0,0,0,0,0,0,0,0,0,0,0,0,0,0,0,0,0,0,0,0,0,0,0,0,0,0,0,0,0],"split_type":[0,0,0,0,0,0,0,0,0,0,0,0,0,0,0,0,0,0,0,0,0,0,0,0,0,0,0,0,0,0,0,0,0,0,0,0,0,0,0,0,0,0,0,0,0,0,0,0,0,0,0,0,0,0,0,0,0,0,0,0,0,0,0,0,0,0,0,0,0,0,0,0,0,0,0,0,0,0,0,0,0,0,0,0,0,0,0,0,0,0,0,0,0,0,0,0,0,0,0,0,0,0,0,0,0],"sum_hessian":[1.8992604E3,1.6407484E2,1.7351855E3,2.984173E1,1.3423312E2,1.4359823E3,2.992033E2,1.9055548E0,2.7936174E1,3.8778854E1,9.545426E1,1.2624202E3,1.7356213E2,3.2347584E1,2.6685574E2,4.9264793E0,2.3009695E1,2.8090446E1,1.068841E1,7.3126884E1,2.2327383E1,4.5049136E2,8.119288E2,1.3216782E2,4.139431E1,1.1576536E1,2.0771048E1,1.329438E2,1.3391193E2,3.0463636E0,1.8801156E0,3.8733592E0,1.9136337E1,3.009754E0,2.5080692E1,8.942928E0,1.7454815E0,4.7549835E1,2.5577045E1,1.9724394E1,2.602988E0,3.8529517E2,6.519619E1,3.421152E2,4.6981357E2,1.10088425E2,2.2079395E1,2.10217E1,2.037261E1,3.2877243E0,8.288813E0,1.9449652E1,1.3213967E0,1.15653915E2,1.7289883E1,2.2981392E1,1.10930534E2,1.0978694E0,1.9484942E0,1.2817501E0,2.5916092E0,1.5695657E0,1.756677E1,1.1885206E0,1.8212333E0,9.706375E0,1.5374317E1,7.0084286E0,1.9345001E0,1.4097791E1,3.3452045E1,2.2185143E1,3.391904E0,1.1444627E1,8.279767E0,3.0959406E2,7.570112E1,2.9298317E1,3.589787E1,1.4411714E2,1.9799806E2,1.9244655E2,2.7736703E2,3.9611736E1,7.0476685E1,1.973912E1,2.3402748E0,1.0149333E1,1.0872367E1,7.417481E0,1.2955129E1,1.0521078E0,2.2356164E0,4.6101775E0,3.6786346E0,1.6002403E1,3.4472492E0,3.664223E1,7.901169E1,9.599291E0,7.6905904E0,6.8276305E0,1.615376E1,4.175111E1,6.917943E1],"tree_param":{"num_deleted":"0","num_feature":"29","num_nodes":"105","size_leaf_vector":"1"}},{"base_weights":[-1.8805327E-3,-1.24845155E-1,1.8554531E-2,-4.73972E-2,-4.266326E-1,2.8247824E-1,-5.7426137E-3,7.1850374E-2,-3.0311248E-1,-7.2509E-1,1.6274326E-1,5.3174627E-1,-2.4102831E-2,8.018007E-2,-7.1870714E-2,2.1218036E-1,-3.6673656E-1,-1.1195841E-1,-6.911304E-1,-3.0722782E-1,-1.1751912E0,-2.6785916E-1,6.056729E-1,6.6683996E-1,-2.7369243E-1,-2.0543428E-1,8.5622406E-1,1.6572948E-1,-9.135576E-2,-9.4983226E-1,-5.5139337E-2,3.423163E-2,6.90562E-1,4.728552E-1,-5.7082355E-1,-6.6233677E-1,1.09342135E-1,2.0970225E-1,-9.597949E-1,-8.722725E-1,2.5998044E-1,-1.2936088E0,3.323229E-2,-5.1140964E-1,2.658668E-1,8.8825375E-1,-1.7074491E-1,3.9051422E-1,1.2195114E0,7.306015E-1,-7.740429E-1,3.8350818E-1,-3.179416E-1,1.1256344E0,-1.6013688E-1,9.453233E-2,5.7301563E-1,-7.6176804E-1,-2.9867003E-2,-1.0865954E0,8.6018175E-2,-7.932751E-2,3.0497208E-1,1.625056E-1,-6.101117E-2,2.6313022E-1,-2.0822214E-1,-2.185386E-1,2.6013E-1,-2.9350322E-1,-9.66464E-3,1.133612E-1,-3.013757E-1,2.3650925E-1,-5.393975E-2,-1.9756116E-1,2.2776312E-1,1.06200606E-1,-3.2262012E-1,1.3011634E-1,-3.191507E-1,2.5407106E-1,-1.720646E-1,-4.0565744E-1,-8.877732E-2,-1.2347159E-2,-4.2196158E-1,-7.1292003E-3,3.237812E-1,-2.7289337E-1,1.7832913E-1,1.5313634E-1,-2.8473225E-1,3.9653158E-1,6.7358837E-3,-5.079103E-2,3.412602E-1,-3.481689E-1,1.0273068E-1,-1.2440057E-1,4.076894E-1,1.010284E-2,4.312035E-1,4.6465803E-2,-1.1808069E-1,2.2329147E-1,-1.4542777E-2,9.911134E-2,-3.1515437E-1,-6.8828166E-2,4.1825615E-2,1.860281E-2,-3.546148E-1,-3.764513E-2,5.3947322E-2,1.3724196E-1,-1.5795752E-1],"categories":[],"categories_nodes":[],"categories_segments":[],"categories_sizes":[],"default_left":[0,0,0,0,0,0,0,0,0,0,0,0,0,0,0,0,0,0,0,0,0,0,0,0,0,0,0,0,0,0,0,0,0,0,0,0,0,0,0,0,0,0,0,0,0,0,0,0,0,0,0,0,0,0,0,0,0,0,0,0,0,0,0,0,0,0,0,0,0,0,0,0,0,0,0,0,0,0,0,0,0,0,0,0,0,0,0,0,0,0,0,0,0,0,0,0,0,0,0,0,0,0,0,0,0,0,0,0,0,0,0,0,0,0,0,0,0],"id":12,"left_children":[1,3,5,7,9,11,13,15,17,19,21,23,25,27,29,31,33,35,37,39,41,43,45,47,49,51,53,55,57,59,61,63,65,67,69,71,73,75,77,79,81,83,-1,85,-1,87,89,91,93,95,97,-1,99,101,-1,103,105,107,109,111,-1,113,115,-1,-1,-1,-1,-1,-1,-1,-1,-1,-1,-1,-1,-1,-1,-1,-1,-1,-1,-1,-1,-1,-1,-1,-1,-1,-1,-1,-1,-1,-1,-1,-1,-1,-1,-1,-1,-1,-1,-1,-1,-1,-1,-1,-1,-1,-1,-1,-1,-1,-1,-1,-1,-1,-1],"loss_changes":[4.731761E0,6.2517257E0,1.035671E1,6.567714E0,9.735797E0,1.04174185E1,8.413029E0,9.137886E0,5.0004673E0,6.5000286E0,3.8236046E0,8.358122E0,1.0074918E1,9.465513E0,1.22378845E1,9.523962E0,6.446967E0,5.804166E0,5.623067E0,6.7236586E0,2.7637997E0,3.3840964E0,2.2951372E0,9.394722E0,6.3449106E0,9.125064E0,4.639719E0,1.2416108E1,8.837767E0,2.9471684E0,7.1849103E0,1.0093543E1,8.449497E0,4.2293253E0,6.4332647E0,5.2345767E0,6.899901E0,3.3468728E0,3.0287647E0,3.0594277E0,5.8116693E0,5.254326E-1,0E0,3.8333862E0,0E0,1.3015652E0,2.4888673E0,7.644443E0,2.5499783E0,1.7815504E0,3.9197688E0,0E0,8.567646E0,3.1360865E0,0E0,1.0880498E1,6.827055E0,6.0287437E0,6.7184286E0,1.6347122E0,0E0,9.2464905E0,6.8282485E0,0E0,0E0,0E0,0E0,0E0,0E0,0E0,0E0,0E0,0E0,0E0,0E0,0E0,0E0,0E0,0E0,0E0,0E0,0E0,0E0,0E0,0E0,0E0,0E0,0E0,0E0,0E0,0E0,0E0,0E0,0E0,0E0,0E0,0E0,0E0,0E0,0E0,0E0,0E0,0E0,0E0,0E0,0E0,0E0,0E0,0E0,0E0,0E0,0E0,0E0,0E0,0E0,0E0,0E0],"parents":[2147483647,0,0,1,1,2,2,3,3,4,4,5,5,6,6,7,7,8,8,9,9,10,10,11,11,12,12,13,13,14,14,15,15,16,16,17,17,18,18,19,19,20,20,21,21,22,22,23,23,24,24,25,25,26,26,27,27,28,28,29,29,30,30,31,31,32,32,33,33,34,34,35,35,36,36,37,37,38,38,39,39,40,40,41,41,43,43,45,45,46,46,47,47,48,48,49,49,50,50,52,52,53,53,55,55,56,56,57,57,58,58,59,59,61,61,62,62],"right_children":[2,4,6,8,10,12,14,16,18,20,22,24,26,28,30,32,34,36,38,40,42,44,46,48,50,52,54,56,58,60,62,64,66,68,70,72,74,76,78,80,82,84,-1,86,-1,88,90,92,94,96,98,-1,100,102,-1,104,106,108,110,112,-1,114,116,-1,-1,-1,-1,-1,-1,-1,-1,-1,-1,-1,-1,-1,-1,-1,-1,-1,-1,-1,-1,-1,-1,-1,-1,-1,-1,-1,-1,-1,-1,-1,-1,-1,-1,-1,-1,-1,-1,-1,-1,-1,-1,-1,-1,-1,-1,-1,-1,-1,-1,-1,-1,-1,-1],"split_conditions":[-9.472425E-1,-2.954758E-1,-6.5410656E-1,-5.186293E-1,-1.7525959E-1,-2.91757E-1,-1.817326E-1,9.275468E-1,-5.3526145E-1,-1.3759798E0,6.9303954E-1,1.0689955E0,-6.675919E-1,2.6178658E-1,-8.731301E-1,-1.0379362E0,-1.1506246E0,-1.0862691E0,-1.2533112E0,2.9539794E-3,1.4982836E0,1.2845443E0,9.2411834E-1,-5.164316E-1,-1.0411383E0,-1.4401214E0,7.4389625E-1,-3.5508105E-1,3.2449862E-1,9.587848E-2,1.5062264E0,-6.57311E-1,1.7150185E-1,-7.349914E-1,5.4962325E-1,-9.023084E-1,-5.755749E-1,-3.535537E-1,-7.4609303E-1,-6.631091E-1,-4.0864846E-1,1.3889524E0,3.323229E-2,9.125455E-1,2.658668E-1,-1.6420971E0,1.5788077E0,1.4222308E0,1.0885757E0,-6.5991217E-1,1.2380997E0,3.8350818E-1,1.7446259E0,-8.6749053E-1,-1.6013688E-1,5.973428E-1,1.7499648E0,-5.854443E-1,-2.3664783E-1,-1.4205431E0,8.6018175E-2,1.5792592E0,9.3303776E-1,1.625056E-1,-6.101117E-2,2.6313022E-1,-2.0822214E-1,-2.185386E-1,2.6013E-1,-2.9350322E-1,-9.66464E-3,1.133612E-1,-3.013757E-1,2.3650925E-1,-5.393975E-2,-1.9756116E-1,2.2776312E-1,1.06200606E-1,-3.2262012E-1,1.3011634E-1,-3.191507E-1,2.5407106E-1,-1.720646E-1,-4.0565744E-1,-8.877732E-2,-1.2347159E-2,-4.2196158E-1,-7.1292003E-3,3.237812E-1,-2.7289337E-1,1.7832913E-1,1.5313634E-1,-2.8473225E-1,3.9653158E-1,6.7358837E-3,-5.079103E-2,3.412602E-1,-3.481689E-1,1.0273068E-1,-1.2440057E-1,4.076894E-1,1.010284E-2,4.312035E-1,4.6465803E-2,-1.1808069E-1,2.2329147E-1,-1.4542777E-2,9.911134E-2,-3.1515437E-1,-6.8828166E-2,4.1825615E-2,1.860281E-2,-3.546148E-1,-3.764513E-2,5.3947322E-2,1.3724196E-1,-1.5795752E-1],"split_indices":[28,17,14,14,16,16,17,26,17,26,22,8,14,14,28,28,4,28,1,25,2,25,3,16,4,1,4,28,14,0,15,17,16,3,15,23,18,5,18,0,16,1,0,1,0,4,14,2,4,16,28,0,1,28,0,25,11,3,5,1,0,28,26,0,0,0,0,0,0,0,0,0,0,0,0,0,0,0,0,0,0,0,0,0,0,0,0,0,0,0,0,0,0,0,0,0,0,0,0,0,0,0,0,0,0,0,0,0,0,0,0,0,0,0,0,0,0],"split_type":[0,0,0,0,0,0,0,0,0,0,0,0,0,0,0,0,0,0,0,0,0,0,0,0,0,0,0,0,0,0,0,0,0,0,0,0,0,0,0,0,0,0,0,0,0,0,0,0,0,0,0,0,0,0,0,0,0,0,0,0,0,0,0,0,0,0,0,0,0,0,0,0,0,0,0,0,0,0,0,0,0,0,0,0,0,0,0,0,0,0,0,0,0,0,0,0,0,0,0,0,0,0,0,0,0,0,0,0,0,0,0,0,0,0,0,0,0],"sum_hessian":[1.8811488E3,2.673436E2,1.6138052E3,2.136671E2,5.36765E1,1.3514871E2,1.4786565E3,1.4620596E2,6.746113E1,3.547954E1,1.8196957E1,7.41368E1,6.101191E1,6.4298706E2,8.3566943E2,1.1115659E2,3.5049374E1,4.6059032E1,2.1402094E1,1.927122E1,1.6208324E1,9.427292E0,8.769665E0,6.3635498E1,1.0501306E1,5.122676E1,9.78515E0,4.2904498E2,2.139421E2,1.4584665E1,8.210848E2,8.1800095E1,2.9356499E1,6.5962367E0,2.8453136E1,1.263719E1,3.3421844E1,4.9670453E0,1.643505E1,9.384591E0,9.886628E0,1.4836195E1,1.3721292E0,8.244328E0,1.1829644E0,6.3239813E0,2.4456832E0,4.3561916E1,2.007358E1,3.3390496E0,7.1622562E0,2.8801146E0,4.8346645E1,8.355833E0,1.4293162E0,3.6625293E2,6.2792072E1,1.7016993E1,1.969251E2,1.3241441E1,1.3432242E0,7.7013556E2,5.0949196E1,2.5678343E1,5.6121754E1,2.6194159E1,3.1623406E0,1.4203862E0,5.175851E0,1.5732907E1,1.2720229E1,3.1027684E0,9.534421E0,9.465771E0,2.3956072E1,1.8482857E0,3.1187594E0,1.162434E0,1.5272615E1,1.0387477E0,8.345843E0,5.792112E0,4.0945163E0,1.3677728E1,1.1584669E0,6.090622E0,2.1537054E0,1.246779E0,5.0772023E0,1.1481522E0,1.2975309E0,4.0550285E1,3.0116293E0,1.8397741E1,1.6758378E0,1.2215724E0,2.117477E0,5.2910366E0,1.8712196E0,4.642168E1,1.9249679E0,2.1016269E0,6.254206E0,3.2655936E2,3.9693577E1,4.907022E1,1.37218485E1,3.5281515E0,1.3488841E1,9.021779E1,1.06707306E2,1.0428709E0,1.219857E1,6.5414484E2,1.15990715E2,4.343314E1,7.516054E0],"tree_param":{"num_deleted":"0","num_feature":"29","num_nodes":"117","size_leaf_vector":"1"}},{"base_weights":[-1.6946446E-3,1.2658821E-1,-1.9675983E-2,6.309912E-2,4.8794785E-1,-6.03637E-2,4.2037804E-2,1.8948676E-1,-1.3413517E-1,-2.852325E-1,6.063642E-1,-5.179953E-3,-1.7840555E-1,2.8985381E-2,7.7863634E-1,6.1531253E-2,5.706876E-1,-2.0847376E-1,5.152844E-1,-1.7369904E-1,6.7491573E-1,-1.865521E-1,6.918651E-2,-5.434145E-1,-5.4382227E-2,5.203382E-1,1.2959918E-2,2.149519E-2,1.0979186E0,2.1358603E-1,-7.257677E-1,8.975445E-1,8.1479594E-2,-2.6245296E-2,-6.3512504E-1,-6.0406107E-2,6.98914E-1,8.0503273E-1,1.3191821E-3,6.2436925E-4,-4.2220297E-1,2.3968142E-1,-1.00479834E-1,7.407402E-2,-7.823473E-1,2.890692E-1,-1.6537327E-1,-7.593628E-1,1.0669404E0,-8.820715E-2,8.53605E-2,2.2127004E-1,-1.7908116E-1,6.3467346E-2,1.2639618E0,-2.0355978E-3,1.659742E-1,-2.9582098E-1,1.2845223E-1,-1.0663048E-1,3.3625224E-1,1.1600321E-1,-2.1292347E-1,-5.610312E-2,3.2504117E-1,-2.7780992E-1,2.2417512E-2,6.884685E-2,2.728418E-1,2.670507E-1,-1.7969932E-1,-2.2562668E-1,2.7263328E-1,1.4772579E-1,-3.4112327E-2,1.7017758E-2,-2.013353E-1,3.1888615E-2,1.8796372E-1,1.633447E-1,-4.3520775E-2,1.21982634E-1,-2.862626E-1,-2.5476336E-1,7.787704E-2,1.3668981E-1,-1.700658E-1,-6.363979E-2,1.6191095E-1,2.9395698E-2,-3.7110507E-1,-1.1779164E-2,3.9662257E-1,-1.8299058E-2,-3.3839482E-1,1.7114392E-1,8.825193E-3,4.154274E-1,1.13223836E-1],"categories":[],"categories_nodes":[],"categories_segments":[],"categories_sizes":[],"default_left":[0,0,0,0,0,0,0,0,0,0,0,0,0,0,0,0,0,0,0,0,0,0,0,0,0,0,0,0,0,0,0,0,0,0,0,0,0,0,0,0,0,0,0,0,0,0,0,0,0,0,0,0,0,0,0,0,0,0,0,0,0,0,0,0,0,0,0,0,0,0,0,0,0,0,0,0,0,0,0,0,0,0,0,0,0,0,0,0,0,0,0,0,0,0,0,0,0,0,0],"id":13,"left_children":[1,3,5,7,9,11,13,15,17,-1,19,21,23,25,27,29,31,33,35,-1,37,39,41,43,45,47,49,51,53,55,57,59,61,63,65,-1,67,69,71,73,75,77,79,81,83,85,87,89,91,93,95,-1,-1,-1,97,-1,-1,-1,-1,-1,-1,-1,-1,-1,-1,-1,-1,-1,-1,-1,-1,-1,-1,-1,-1,-1,-1,-1,-1,-1,-1,-1,-1,-1,-1,-1,-1,-1,-1,-1,-1,-1,-1,-1,-1,-1,-1,-1,-1],"loss_changes":[4.2946453E0,5.220462E0,4.102606E0,4.907115E0,6.3786497E0,6.4119067E0,6.2207994E0,5.806687E0,3.8279338E0,0E0,2.9973059E0,9.075249E0,1.4166485E1,5.0257025E0,2.7003107E0,1.1023561E1,4.720293E0,5.4149895E0,1.2202947E0,0E0,2.6971464E0,8.629946E0,1.3829149E1,1.1775135E1,9.012519E0,1.4912298E1,4.5483766E0,2.3720338E0,8.9611053E-1,5.7572384E0,4.9048324E0,5.3983746E0,3.4394357E0,9.122214E0,4.3779736E0,0E0,4.588592E-1,3.617138E0,4.775757E0,6.243157E0,1.0363105E1,1.2231836E1,6.978229E0,8.276639E0,4.21574E0,8.499027E0,5.9951463E0,2.8314564E0,4.156246E0,7.2615833E0,9.803684E0,0E0,0E0,0E0,1.689024E-1,0E0,0E0,0E0,0E0,0E0,0E0,0E0,0E0,0E0,0E0,0E0,0E0,0E0,0E0,0E0,0E0,0E0,0E0,0E0,0E0,0E0,0E0,0E0,0E0,0E0,0E0,0E0,0E0,0E0,0E0,0E0,0E0,0E0,0E0,0E0,0E0,0E0,0E0,0E0,0E0,0E0,0E0,0E0,0E0],"parents":[2147483647,0,0,1,1,2,2,3,3,4,4,5,5,6,6,7,7,8,8,10,10,11,11,12,12,13,13,14,14,15,15,16,16,17,17,18,18,20,20,21,21,22,22,23,23,24,24,25,25,26,26,27,27,28,28,29,29,30,30,31,31,32,32,33,33,34,34,36,36,37,37,38,38,39,39,40,40,41,41,42,42,43,43,44,44,45,45,46,46,47,47,48,48,49,49,50,50,54,54],"right_children":[2,4,6,8,10,12,14,16,18,-1,20,22,24,26,28,30,32,34,36,-1,38,40,42,44,46,48,50,52,54,56,58,60,62,64,66,-1,68,70,72,74,76,78,80,82,84,86,88,90,92,94,96,-1,-1,-1,98,-1,-1,-1,-1,-1,-1,-1,-1,-1,-1,-1,-1,-1,-1,-1,-1,-1,-1,-1,-1,-1,-1,-1,-1,-1,-1,-1,-1,-1,-1,-1,-1,-1,-1,-1,-1,-1,-1,-1,-1,-1,-1,-1,-1],"split_conditions":[-6.455682E-1,-6.580207E-1,5.8476616E-2,-5.118E-1,-1.3925333E0,2.2205384E-2,2.2883599E0,-8.3073825E-1,1.3505869E0,-2.852325E-1,-7.8002083E-1,-8.899658E-1,5.1825154E-1,-6.363226E-1,1.98346E0,-5.9872366E-2,-1.1023526E0,1.08658485E-1,-6.727948E-1,-1.7369904E-1,1.03583276E-1,-1.3163398E-1,-5.735469E-2,-6.8759465E-1,-3.3521277E-1,2.4397087E-1,-3.1154767E-1,1.8406763E0,7.483678E-1,-1.0055133E0,4.1106805E-1,-7.4808794E-1,1.9442594E-2,-5.1848084E-1,7.612119E-1,-6.0406107E-2,-6.947297E-1,-3.4029144E-1,7.1164566E-1,-6.9143087E-1,-6.266698E-1,-5.867755E-1,-7.3939794E-1,-4.2537642E-1,6.2528205E-1,7.043454E-1,2.275903E0,3.073415E-1,-6.841279E-1,4.836879E-1,-2.0439345E-1,2.2127004E-1,-1.7908116E-1,6.3467346E-2,1.0680758E0,-2.0355978E-3,1.659742E-1,-2.9582098E-1,1.2845223E-1,-1.0663048E-1,3.3625224E-1,1.1600321E-1,-2.1292347E-1,-5.610312E-2,3.2504117E-1,-2.7780992E-1,2.2417512E-2,6.884685E-2,2.728418E-1,2.670507E-1,-1.7969932E-1,-2.2562668E-1,2.7263328E-1,1.4772579E-1,-3.4112327E-2,1.7017758E-2,-2.013353E-1,3.1888615E-2,1.8796372E-1,1.633447E-1,-4.3520775E-2,1.21982634E-1,-2.862626E-1,-2.5476336E-1,7.787704E-2,1.3668981E-1,-1.700658E-1,-6.363979E-2,1.6191095E-1,2.9395698E-2,-3.7110507E-1,-1.1779164E-2,3.9662257E-1,-1.8299058E-2,-3.3839482E-1,1.7114392E-1,8.825193E-3,4.154274E-1,1.13223836E-1],"split_indices":[18,18,16,14,26,17,11,28,2,0,3,28,28,14,10,17,26,17,3,0,3,1,14,14,24,22,24,10,14,28,25,14,16,28,15,0,18,24,28,3,17,28,3,24,6,17,10,2,14,14,24,0,0,0,25,0,0,0,0,0,0,0,0,0,0,0,0,0,0,0,0,0,0,0,0,0,0,0,0,0,0,0,0,0,0,0,0,0,0,0,0,0,0,0,0,0,0,0,0],"split_type":[0,0,0,0,0,0,0,0,0,0,0,0,0,0,0,0,0,0,0,0,0,0,0,0,0,0,0,0,0,0,0,0,0,0,0,0,0,0,0,0,0,0,0,0,0,0,0,0,0,0,0,0,0,0,0,0,0,0,0,0,0,0,0,0,0,0,0,0,0,0,0,0,0,0,0,0,0,0,0,0,0,0,0,0,0,0,0,0,0,0,0,0,0,0,0,0,0,0,0],"sum_hessian":[1.859736E3,2.2788855E2,1.6318474E3,1.9483212E2,3.3056416E1,9.834702E2,6.4837714E2,1.18766136E2,7.6065994E1,1.9793104E0,3.1077106E1,6.708816E2,3.1258862E2,6.3810925E2,1.0267856E1,8.97887E1,2.8977442E1,6.886235E1,7.2036405E0,1.2919066E0,2.97852E1,1.9464758E2,4.76234E2,7.841791E1,2.3417072E2,1.9160625E1,6.1894867E2,3.362173E0,6.9056826E0,7.58652E1,1.3923495E1,1.6870789E1,1.2106651E1,4.8996716E1,1.9865639E1,1.4496548E0,5.7539854E0,2.4799597E1,4.9856024E0,1.0903717E2,8.561041E1,2.3733118E2,2.3890285E2,2.2070295E1,5.6347614E1,5.680097E1,1.7736975E2,5.6181684E0,1.3542456E1,2.5809207E2,3.6085657E2,1.4688172E0,1.8933558E0,1.4483435E0,5.4573393E0,4.660683E1,2.9258366E1,1.1479472E1,2.4440231E0,2.4623077E0,1.4408482E1,9.10564E0,3.0010116E0,4.3523E1,5.473719E0,1.3874924E1,5.990714E0,2.4288836E0,3.3251019E0,2.372686E1,1.0727377E0,2.817563E0,2.1680393E0,1.9943615E1,8.909356E1,2.9541891E1,5.606852E1,1.7743019E2,5.990098E1,1.4723547E1,2.241793E2,1.713395E1,4.9363465E0,5.3123505E1,3.22411E0,4.7939865E1,8.861103E0,1.6699414E2,1.0375606E1,2.2945347E0,3.3236337E0,2.6966262E0,1.084583E1,2.5254187E2,5.5502024E0,3.635982E1,3.2449677E2,4.3083444E0,1.148995E0],"tree_param":{"num_deleted":"0","num_feature":"29","num_nodes":"99","size_leaf_vector":"1"}},{"base_weights":[-1.2381278E-3,-4.7857603E-1,2.8424263E-3,-6.641923E-1,1.80817E-1,2.1188144E-1,-8.942692E-3,1.3972516E-1,-8.715595E-1,-6.7816734E-1,2.4947612E-1,6.80454E-2,-4.0179502E-2,-3.1139433E-1,-4.3403342E-1,2.355774E-2,-3.2670245E-1,1.8264386E-1,8.4234595E-1,5.502725E-2,8.9971226E-1,-1.10725924E-1,4.6009086E-2,3.1043E-1,-9.461369E-1,5.7829064E-1,7.271391E-2,8.493677E-2,3.9358187E-1,1.8923357E-1,-2.9100144E-2,3.8352394E-1,-1.3785525E-1,-1.9502595E-2,-3.0360603E-1,2.2722692E-3,3.7378374E-1,-3.9922202E-1,5.7067677E-2,2.8684777E-1,-1.1196781E-1,-1.06697276E-1,7.140844E-2,-1.4796165E-1,2.5778842E-1,1.4330729E-2,1.6987444E-1,4.2975307E-2,-4.9196422E-2,1.1155102E-2,-1.8677422E-1,-1.3171212E-1,6.894692E-2,1.1173576E-1,-1.0366557E-2,1.4665912E-1,-7.1708485E-2],"categories":[],"categories_nodes":[],"categories_segments":[],"categories_sizes":[],"default_left":[0,0,0,0,0,0,0,0,0,0,0,0,0,0,0,0,0,0,0,0,0,0,0,0,0,0,0,0,0,0,0,0,0,0,0,0,0,0,0,0,0,0,0,0,0,0,0,0,0,0,0,0,0,0,0,0,0],"id":14,"left_children":[1,3,5,7,-1,9,11,-1,13,15,17,19,21,23,-1,-1,-1,25,27,29,31,33,35,-1,37,39,41,43,-1,45,47,-1,-1,49,51,53,55,-1,-1,-1,-1,-1,-1,-1,-1,-1,-1,-1,-1,-1,-1,-1,-1,-1,-1,-1,-1],"loss_changes":[3.5861106E0,3.5324318E0,4.499847E0,3.6382256E0,0E0,3.4310179E0,4.1615114E0,0E0,3.4173784E0,1.3972962E0,3.581067E0,5.3584905E0,7.4888296E0,7.2643414E0,0E0,0E0,0E0,3.6979184E0,3.1865554E0,5.5702143E0,4.516532E0,1.1908121E1,7.9511924E0,0E0,2.6661606E0,7.027645E0,4.931016E0,2.4912155E0,0E0,1.0108769E1,7.086864E0,0E0,0E0,1.577518E1,1.5803211E1,6.6984053E0,4.7217236E0,0E0,0E0,0E0,0E0,0E0,0E0,0E0,0E0,0E0,0E0,0E0,0E0,0E0,0E0,0E0,0E0,0E0,0E0,0E0,0E0],"parents":[2147483647,0,0,1,1,2,2,3,3,5,5,6,6,8,8,9,9,10,10,11,11,12,12,13,13,17,17,18,18,19,19,20,20,21,21,22,22,24,24,25,25,26,26,27,27,29,29,30,30,33,33,34,34,35,35,36,36],"right_children":[2,4,6,8,-1,10,12,-1,14,16,18,20,22,24,-1,-1,-1,26,28,30,32,34,36,-1,38,40,42,44,-1,46,48,-1,-1,50,52,54,56,-1,-1,-1,-1,-1,-1,-1,-1,-1,-1,-1,-1,-1,-1,-1,-1,-1,-1,-1,-1],"split_conditions":[-1.2077581E0,1.4380265E0,-8.627246E-1,-1.6962718E0,1.80817E-1,-1.0535314E0,-3.976771E-1,1.3972516E-1,-6.727948E-1,-3.7802556E-1,3.6333972E-1,-4.0002367E-1,5.1825154E-1,-6.688236E-1,-4.3403342E-1,2.355774E-2,-3.2670245E-1,-6.219889E-1,-1.1334199E-1,-4.3943712E-1,-3.3852825E-1,-2.8868535E-1,1.2183374E0,3.1043E-1,2.7177408E-1,1.0632707E0,-9.66557E-1,6.585986E-1,3.9358187E-1,-9.168801E-1,-9.474704E-1,3.8352394E-1,-1.3785525E-1,2.4849586E-1,7.532848E-1,