{"learner":{"attributes":{"scikit_learn":"{\"_estimator_type\": \"classifier\"}"},"feature_names":[],"feature_types":[],"gradient_booster":{"model":{"gbtree_model_param":{"num_parallel_tree":"1","num_trees":"100"},"iteration_indptr":[0,1,2,3,4,5,6,7,8,9,10,11,12,13,14,15,16,17,18,19,20,21,22,23,24,25,26,27,28,29,30,31,32,33,34,35,36,37,38,39,40,41,42,43,44,45,46,47,48,49,50,51,52,53,54,55,56,57,58,59,60,61,62,63,64,65,66,67,68,69,70,71,72,73,74,75,76,77,78,79,80,81,82,83,84,85,86,87,88,89,90,91,92,93,94,95,96,97,98,99,100],"tree_info":[0,0,0,0,0,0,0,0,0,0,0,0,0,0,0,0,0,0,0,0,0,0,0,0,0,0,0,0,0,0,0,0,0,0,0,0,0,0,0,0,0,0,0,0,0,0,0,0,0,0,0,0,0,0,0,0,0,0,0,0,0,0,0,0,0,0,0,0,0,0,0,0,0,0,0,0,0,0,0,0,0,0,0,0,0,0,0,0,0,0,0,0,0,0,0,0,0,0,0,0],"trees":[{"base_weights":[-3.8842664E-8,1.6495378E-1,-2.7438453E-1,-3.881655E-2,2.6214802E-1,-4.5979205E-1,5.3945452E-2,1.2741366E-1,-4.2420137E-1,2.0945048E-1,6.2126195E-1,5.429985E-1,-5.290891E-1,2.6907673E-1,-4.330545E-1,-2.6100937E-1,2.7483606E-1,-1.1566693E0,-2.4772939E-1,3.0914223E-1,-6.250367E-2,1.6577615E0,5.197582E-1,9.237176E-1,-5.0840765E-1,-9.0803516E-1,-3.6592922E-1,1.1282059E0,1.21727884E-1,-7.680313E-1,4.2247665E-1,5.699108E-1,-6.455111E-1,7.898833E-1,-5.8615062E-2,-1.4819318E0,5.761483E-1,-3.2112747E-1,4.2567134E-1,1.7018124E-1,4.3665653E-1,-3.510487E-1,2.3469582E-1,5.4188526E-1,2.1265021E-1,6.7117685E-1,-7.066334E-2,-6.150369E-1,1.3290354E0,1.5155691E-1,-8.798629E-1,-1.0176631E0,-1.8456833E-1,-1.7998E-1,-6.634192E-1,1.3444813E0,-3.9609003E-1,-2.5832433E-1,3.5192528E-1,7.193844E-1,-9.023035E-1,8.371698E-2,1.4387397E0,2.6399266E-2,3.774355E-1,-5.7872783E-2,-3.8442913E-1,2.5879666E-1,-2.8613454E-1,-1.6302992E-1,6.0399298E-2,6.652967E-2,-4.9262902E-1,3.3629742E-1,-1.08803526E-1,1.47389835E-2,-1.6757089E-1,2.3886415E-1,2.931044E-2,4.592757E-1,1.15755044E-1,-5.4172684E-2,-3.023495E-1,2.3818336E-1,-1.2430561E-2,2.6848865E-1,5.955566E-2,5.4928586E-2,-4.265434E-1,1.7568853E-1,-3.741638E-1,-5.627101E-2,4.3117929E-1,-3.3463347E-1,1.1266957E-2,-2.2943844E-1,-4.1566637E-1,3.0270454E-1,-1.8259163E-1,1.9656484E-1,-1.2143269E-1,-2.9491118E-1,1.47389835E-2,1.2454562E-1,4.5470247E-1,1.7568853E-1,-3.7010583E-1,2.1969613E-2,-2.2658576E-1,3.306913E-1,6.18269E-2,-2.2887401E-1,4.1491246E-1,-2.958793E-1,3.1271547E-1,-1.2124744E-1,2.3968726E-1,5.0130385E-1,7.713483E-2],"categories":[],"categories_nodes":[],"categories_segments":[],"categories_sizes":[],"default_left":[0,0,0,0,0,0,0,0,0,0,0,0,0,0,0,0,0,0,0,0,0,0,0,0,0,0,0,0,0,0,0,0,0,0,0,0,0,0,0,0,0,0,0,0,0,0,0,0,0,0,0,0,0,0,0,0,0,0,0,0,0,0,0,0,0,0,0,0,0,0,0,0,0,0,0,0,0,0,0,0,0,0,0,0,0,0,0,0,0,0,0,0,0,0,0,0,0,0,0,0,0,0,0,0,0,0,0,0,0,0,0,0,0,0,0,0,0,0,0],"id":0,"left_children":[1,3,5,7,9,11,13,15,17,19,21,23,25,27,29,31,33,35,37,39,41,43,45,47,49,51,53,55,57,59,61,63,65,67,69,71,73,75,-1,77,79,81,83,-1,-1,85,87,89,91,-1,93,95,97,99,101,103,105,107,109,111,113,115,117,-1,-1,-1,-1,-1,-1,-1,-1,-1,-1,-1,-1,-1,-1,-1,-1,-1,-1,-1,-1,-1,-1,-1,-1,-1,-1,-1,-1,-1,-1,-1,-1,-1,-1,-1,-1,-1,-1,-1,-1,-1,-1,-1,-1,-1,-1,-1,-1,-1,-1,-1,-1,-1,-1,-1,-1],"loss_changes":[9.839117E1,2.6899261E1,4.9710957E1,2.819808E1,1.7268055E1,3.654323E1,3.1071724E1,1.769131E1,1.6856073E1,2.179573E1,1.1462109E1,1.416655E1,2.9872482E1,2.588355E1,2.63783E1,2.7578094E1,3.8436386E1,1.5212627E1,1.368479E1,1.0343437E1,1.8630363E1,1.277771E-1,9.715691E0,1.6706411E1,4.1122084E0,1.1420113E1,1.8863796E1,1.0413216E1,1.5539201E1,1.3767948E1,8.908108E0,9.001238E0,1.6645863E1,1.197834E1,1.73268E1,6.293602E0,2.8343706E0,9.2056265E0,0E0,1.2762063E1,1.6418823E1,1.2150056E1,1.6579023E1,0E0,0E0,8.936504E0,8.138852E0,5.28088E0,3.6313362E0,0E0,1.6614747E0,1.0743439E1,1.0980821E1,4.01698E1,3.002438E1,3.5828247E0,4.419942E0,1.11254635E1,1.185334E1,6.9527535E0,1.0937641E1,7.5568347E0,1.3528643E0,0E0,0E0,0E0,0E0,0E0,0E0,0E0,0E0,0E0,0E0,0E0,0E0,0E0,0E0,0E0,0E0,0E0,0E0,0E0,0E0,0E0,0E0,0E0,0E0,0E0,0E0,0E0,0E0,0E0,0E0,0E0,0E0,0E0,0E0,0E0,0E0,0E0,0E0,0E0,0E0,0E0,0E0,0E0,0E0,0E0,0E0,0E0,0E0,0E0,0E0,0E0,0E0,0E0,0E0,0E0,0E0],"parents":[2147483647,0,0,1,1,2,2,3,3,4,4,5,5,6,6,7,7,8,8,9,9,10,10,11,11,12,12,13,13,14,14,15,15,16,16,17,17,18,18,19,19,20,20,21,21,22,22,23,23,24,24,25,25,26,26,27,27,28,28,29,29,30,30,31,31,32,32,33,33,34,34,35,35,36,36,37,37,39,39,40,40,41,41,42,42,45,45,46,46,47,47,48,48,50,50,51,51,52,52,53,53,54,54,55,55,56,56,57,57,58,58,59,59,60,60,61,61,62,62],"right_children":[2,4,6,8,10,12,14,16,18,20,22,24,26,28,30,32,34,36,38,40,42,44,46,48,50,52,54,56,58,60,62,64,66,68,70,72,74,76,-1,78,80,82,84,-1,-1,86,88,90,92,-1,94,96,98,100,102,104,106,108,110,112,114,116,118,-1,-1,-1,-1,-1,-1,-1,-1,-1,-1,-1,-1,-1,-1,-1,-1,-1,-1,-1,-1,-1,-1,-1,-1,-1,-1,-1,-1,-1,-1,-1,-1,-1,-1,-1,-1,-1,-1,-1,-1,-1,-1,-1,-1,-1,-1,-1,-1,-1,-1,-1,-1,-1,-1,-1,-1],"split_conditions":[-6.2121186E-2,-5.2910703E-1,1.3303713E0,-1.5702328E-1,9.329615E-1,-5.256444E-1,7.335254E-1,-1.006229E0,-3.7631547E-1,-7.882563E-2,-3.7225372E-1,2.0070748E0,-6.0851604E-1,-3.2758135E-1,2.9049647E-1,-6.711249E-1,-3.4720266E-1,4.9249828E-2,1.9523022E0,-8.45009E-1,-3.3862802E-1,1.026758E0,1.4565037E0,-6.7194366E-1,1.8024058E0,3.745021E-1,2.9934904E-1,1.7144505E0,-8.469121E-1,-3.1336394E-1,2.7023005E-1,-2.2554825E-1,-4.1753653E-1,9.459957E-3,-8.0536205E-1,-1.4816269E0,3.4150985E-1,3.4954476E-1,4.2567134E-1,-7.7956176E-1,-1.3922817E0,-1.8389787E-1,-3.9951465E-1,5.4188526E-1,2.1265021E-1,5.387232E-1,-1.8917662E-1,3.9657056E-1,-3.0547116E0,1.5155691E-1,-5.210213E-1,-2.7991468E-1,6.6179144E-1,-4.5089066E-1,1.3015612E0,-1.0159969E0,-3.3022827E-1,2.8615037E-1,-7.6482224E-1,5.6179357E-3,1.3564123E0,1.2279356E0,-1.6426459E-1,2.6399266E-2,3.774355E-1,-5.7872783E-2,-3.8442913E-1,2.5879666E-1,-2.8613454E-1,-1.6302992E-1,6.0399298E-2,6.652967E-2,-4.9262902E-1,3.3629742E-1,-1.08803526E-1,1.47389835E-2,-1.6757089E-1,2.3886415E-1,2.931044E-2,4.592757E-1,1.15755044E-1,-5.4172684E-2,-3.023495E-1,2.3818336E-1,-1.2430561E-2,2.6848865E-1,5.955566E-2,5.4928586E-2,-4.265434E-1,1.7568853E-1,-3.741638E-1,-5.627101E-2,4.3117929E-1,-3.3463347E-1,1.1266957E-2,-2.2943844E-1,-4.1566637E-1,3.0270454E-1,-1.8259163E-1,1.9656484E-1,-1.2143269E-1,-2.9491118E-1,1.47389835E-2,1.2454562E-1,4.5470247E-1,1.7568853E-1,-3.7010583E-1,2.1969613E-2,-2.2658576E-1,3.306913E-1,6.18269E-2,-2.2887401E-1,4.1491246E-1,-2.958793E-1,3.1271547E-1,-1.2124744E-1,2.3968726E-1,5.0130385E-1,7.713483E-2],"split_indices":[3,16,28,17,28,17,17,28,25,17,25,10,28,14,16,17,14,23,4,28,28,6,14,16,11,24,17,3,25,24,22,25,3,0,28,15,1,26,0,3,26,3,14,0,0,17,3,14,22,0,25,14,3,14,16,4,16,17,25,15,8,6,1,0,0,0,0,0,0,0,0,0,0,0,0,0,0,0,0,0,0,0,0,0,0,0,0,0,0,0,0,0,0,0,0,0,0,0,0,0,0,0,0,0,0,0,0,0,0,0,0,0,0,0,0,0,0,0,0],"split_type":[0,0,0,0,0,0,0,0,0,0,0,0,0,0,0,0,0,0,0,0,0,0,0,0,0,0,0,0,0,0,0,0,0,0,0,0,0,0,0,0,0,0,0,0,0,0,0,0,0,0,0,0,0,0,0,0,0,0,0,0,0,0,0,0,0,0,0,0,0,0,0,0,0,0,0,0,0,0,0,0,0,0,0,0,0,0,0,0,0,0,0,0,0,0,0,0,0,0,0,0,0,0,0,0,0,0,0,0,0,0,0,0,0,0,0,0,0,0,0],"sum_hessian":[2.171873E3,1.3566714E3,8.1520166E2,4.3832074E2,9.1835065E2,5.2074005E2,2.9446164E2,3.0669965E2,1.3162111E2,8.0221436E2,1.1613627E2,3.321747E1,4.8752255E2,2.0454968E2,8.991195E1,8.416757E1,2.2253207E2,2.447603E1,1.0714507E2,5.8692523E2,2.1528917E2,8.991195E0,1.0714507E2,2.447603E1,8.74144E0,1.4535765E2,3.4216492E2,2.8971628E1,1.7557805E2,6.468665E1,2.5225296E1,2.6474073E1,5.76935E1,8.691489E1,1.3561719E2,2.07297E1,3.7463312E0,1.0339874E2,3.7463312E0,2.8197385E2,3.0495135E2,1.0914311E2,1.0614605E2,6.9931517E0,1.9980433E0,8.5166595E1,2.1978476E1,4.995108E0,1.9480923E1,2.2477987E0,6.493641E0,1.25876724E2,1.9480923E1,2.1154283E2,1.3062209E2,2.5475052E1,3.4965758E0,6.618518E1,1.0939287E2,4.995108E0,5.9691544E1,1.9730677E1,5.494619E0,1.6234102E1,1.0239972E1,3.4466248E1,2.3227253E1,8.3917816E1,2.997065E0,4.6954018E1,8.866317E1,1.7482879E0,1.8981411E1,2.2477987E0,1.4985325E0,4.0710133E1,6.268861E1,2.8222363E1,2.537515E2,1.2238015E1,2.9271335E2,8.766415E1,2.1478966E1,3.4466248E1,7.16798E1,5.719399E1,2.7972607E1,1.9231167E1,2.7473094E0,1.7482879E0,3.2468204E0,1.248777E0,1.8232145E1,4.995108E0,1.4985325E0,7.6425156E1,4.9451572E1,4.7453527E0,1.4735569E1,4.4456463E1,1.6708636E2,8.991195E1,4.0710133E1,4.4955974E0,2.0979454E1,1.7482879E0,1.7482879E0,4.021062E1,2.5974564E1,1.6733612E1,9.2659256E1,1.4985325E0,3.4965758E0,5.76935E1,1.9980433E0,1.198826E1,7.742418E0,4.245842E0,1.248777E0],"tree_param":{"num_deleted":"0","num_feature":"29","num_nodes":"119","size_leaf_vector":"1"}},{"base_weights":[2.8936088E-4,1.14973724E-1,-2.027237E-1,4.6805132E-2,2.786981E-1,-3.488692E-1,4.472436E-2,1.2293835E-1,-4.3285504E-1,3.6449966E-1,-6.841595E-2,8.709442E-2,-4.386556E-1,1.0136263E0,-2.8034827E-2,1.6745745E-1,-4.226042E-1,-8.0377084E-1,-8.9301996E-2,5.836367E-1,1.5830527E-1,5.216589E-1,-2.9618895E-1,6.4746165E-1,-2.4683145E-1,-8.260389E-1,-3.3182782E-1,1.2121514E0,-1.2697701E-1,-3.638336E-1,1.5848534E-1,5.37756E-2,3.5027617E-1,7.9734195E-3,-9.384896E-1,-1.24370284E-1,-1.0670102E0,8.862686E-1,-5.980758E-1,3.5159588E-1,1.0549941E0,7.934742E-1,4.001531E-2,8.463239E-1,-9.036556E-1,-8.235027E-1,1.5395857E-1,8.351249E-1,-3.0418083E-1,2.2076291E-1,-6.2795967E-1,-9.5054716E-1,2.7386698E-1,-1.3473013E-1,-4.9488935E-1,1.4849092E0,-2.3606679E-1,-7.8432953E-1,-1.16651244E-1,-2.1532899E-1,2.8909627E-1,5.473819E-2,-1.08861335E-1,2.1675357E-1,5.725422E-2,3.1519702E-1,-7.128242E-2,-3.2661846E-1,2.6717448E-1,-4.7219884E-1,1.3893528E-1,-3.439079E-1,2.3724885E-1,5.2081007E-1,8.770446E-2,-8.217741E-2,-3.420774E-1,1.8913358E-1,-4.2597435E-2,2.6676375E-2,3.9434567E-1,3.442191E-1,-1.8745345E-1,-6.380453E-2,7.6708436E-2,3.4770593E-1,-3.1373417E-1,6.8516724E-2,-4.1220325E-1,5.373445E-2,-3.2918978E-1,-2.1067868E-1,1.9667856E-1,-1.8504842E-1,2.9686067E-1,-1.10762484E-1,2.1264791E-1,1.13666624E-1,-2.6753888E-1,-1.8041357E-1,-3.502345E-1,2.4609007E-1,-1.2291528E-1,1.6689543E-2,-1.8102187E-1,-2.0603517E-1,-2.2414835E-2,4.668996E-1,1.4682056E-1,3.0019182E-1,-3.7487224E-1,-4.2581443E-2,-3.6497253E-1,-4.4656914E-1,-1.4050036E-3,2.0645726E-1,-1.7673303E-1,3.3148658E-1,6.6549756E-2],"categories":[],"categories_nodes":[],"categories_segments":[],"categories_sizes":[],"default_left":[0,0,0,0,0,0,0,0,0,0,0,0,0,0,0,0,0,0,0,0,0,0,0,0,0,0,0,0,0,0,0,0,0,0,0,0,0,0,0,0,0,0,0,0,0,0,0,0,0,0,0,0,0,0,0,0,0,0,0,0,0,0,0,0,0,0,0,0,0,0,0,0,0,0,0,0,0,0,0,0,0,0,0,0,0,0,0,0,0,0,0,0,0,0,0,0,0,0,0,0,0,0,0,0,0,0,0,0,0,0,0,0,0,0,0,0,0,0,0],"id":1,"left_children":[1,3,5,7,9,11,13,15,17,19,21,23,25,27,29,31,33,35,37,39,41,43,45,47,49,51,53,55,-1,57,59,61,63,65,67,69,71,73,75,77,79,81,83,85,87,89,91,93,-1,95,97,99,101,103,105,107,109,111,113,115,117,-1,-1,-1,-1,-1,-1,-1,-1,-1,-1,-1,-1,-1,-1,-1,-1,-1,-1,-1,-1,-1,-1,-1,-1,-1,-1,-1,-1,-1,-1,-1,-1,-1,-1,-1,-1,-1,-1,-1,-1,-1,-1,-1,-1,-1,-1,-1,-1,-1,-1,-1,-1,-1,-1,-1,-1,-1,-1],"loss_changes":[5.0127262E1,1.5342075E1,2.8122065E1,3.556939E1,1.2064287E1,1.9169067E1,2.0435158E1,2.047482E1,1.6932915E1,1.4560009E1,1.1035721E1,1.5934021E1,1.6504173E1,6.2884483E0,1.6982754E1,1.6139057E1,1.4150279E1,1.1320839E1,3.5473923E1,1.6782494E1,1.2624176E1,1.13661995E1,1.4143396E1,1.0746856E1,9.681303E0,1.2170216E1,1.0200748E1,7.4794693E0,0E0,9.969916E0,8.57839E0,2.5831379E1,1.754116E1,9.3899975E0,8.931498E0,1.6923761E1,7.691616E0,1.1874632E1,7.924721E0,1.4760967E1,1.2727577E1,1.3965073E1,7.8509674E0,1.2557436E1,2.8344493E0,7.704912E0,1.45047E1,7.129757E0,0E0,7.398512E0,8.243671E0,5.231537E0,3.9294147E0,1.3060583E1,1.401487E1,3.2790756E-1,5.917017E0,9.729654E0,9.538179E0,1.5851613E1,6.871846E0,0E0,0E0,0E0,0E0,0E0,0E0,0E0,0E0,0E0,0E0,0E0,0E0,0E0,0E0,0E0,0E0,0E0,0E0,0E0,0E0,0E0,0E0,0E0,0E0,0E0,0E0,0E0,0E0,0E0,0E0,0E0,0E0,0E0,0E0,0E0,0E0,0E0,0E0,0E0,0E0,0E0,0E0,0E0,0E0,0E0,0E0,0E0,0E0,0E0,0E0,0E0,0E0,0E0,0E0,0E0,0E0,0E0,0E0],"parents":[2147483647,0,0,1,1,2,2,3,3,4,4,5,5,6,6,7,7,8,8,9,9,10,10,11,11,12,12,13,13,14,14,15,15,16,16,17,17,18,18,19,19,20,20,21,21,22,22,23,23,24,24,25,25,26,26,27,27,29,29,30,30,31,31,32,32,33,33,34,34,35,35,36,36,37,37,38,38,39,39,40,40,41,41,42,42,43,43,44,44,45,45,46,46,47,47,49,49,50,50,51,51,52,52,53,53,54,54,55,55,56,56,57,57,58,58,59,59,60,60],"right_children":[2,4,6,8,10,12,14,16,18,20,22,24,26,28,30,32,34,36,38,40,42,44,46,48,50,52,54,56,-1,58,60,62,64,66,68,70,72,74,76,78,80,82,84,86,88,90,92,94,-1,96,98,100,102,104,106,108,110,112,114,116,118,-1,-1,-1,-1,-1,-1,-1,-1,-1,-1,-1,-1,-1,-1,-1,-1,-1,-1,-1,-1,-1,-1,-1,-1,-1,-1,-1,-1,-1,-1,-1,-1,-1,-1,-1,-1,-1,-1,-1,-1,-1,-1,-1,-1,-1,-1,-1,-1,-1,-1,-1,-1,-1,-1,-1,-1,-1,-1],"split_conditions":[-4.238352E-2,-2.7263096E-1,1.3303713E0,-2.7937347E-2,4.3409255E-1,-3.3700848E-1,-3.382811E-1,1.19375944E-1,-3.0501613E-1,-9.6250854E-2,-5.875557E-1,-5.4949456E-1,-6.676889E-1,8.046046E-1,-5.2062327E-1,-8.508869E-1,-5.221547E-1,-7.343253E-1,-5.0999E-1,6.8350255E-1,-1.9365128E0,1.0103561E0,-8.0773294E-2,1.3664666E0,-5.4396886E-1,1.7144505E0,2.6520246E-1,4.5962924E-1,-1.2697701E-1,5.4143995E-1,3.0525133E-1,-2.922138E-1,-4.993797E-1,-8.5550046E-1,9.344378E-1,-9.287367E-1,1.793344E0,-1.0769432E0,-2.7069774E-1,-3.836715E-1,-9.849244E-1,-2.0386508E-1,-1.7242223E-1,2.5037038E0,-1.3706229E0,-8.657929E-1,-2.722023E-1,-8.036893E-1,-3.0418083E-1,-1.4914255E-1,-3.00992E-1,-4.7813863E-1,2.2021813E0,-3.4994673E-2,5.5560714E-1,8.3096975E-1,-1.8337268E-2,5.811425E-1,-8.480028E-1,-4.4191197E-1,1.0489292E-1,5.473819E-2,-1.08861335E-1,2.1675357E-1,5.725422E-2,3.1519702E-1,-7.128242E-2,-3.2661846E-1,2.6717448E-1,-4.7219884E-1,1.3893528E-1,-3.439079E-1,2.3724885E-1,5.2081007E-1,8.770446E-2,-8.217741E-2,-3.420774E-1,1.8913358E-1,-4.2597435E-2,2.6676375E-2,3.9434567E-1,3.442191E-1,-1.8745345E-1,-6.380453E-2,7.6708436E-2,3.4770593E-1,-3.1373417E-1,6.8516724E-2,-4.1220325E-1,5.373445E-2,-3.2918978E-1,-2.1067868E-1,1.9667856E-1,-1.8504842E-1,2.9686067E-1,-1.10762484E-1,2.1264791E-1,1.13666624E-1,-2.6753888E-1,-1.8041357E-1,-3.502345E-1,2.4609007E-1,-1.2291528E-1,1.6689543E-2,-1.8102187E-1,-2.0603517E-1,-2.2414835E-2,4.668996E-1,1.4682056E-1,3.0019182E-1,-3.7487224E-1,-4.2581443E-2,-3.6497253E-1,-4.4656914E-1,-1.4050036E-3,2.0645726E-1,-1.7673303E-1,3.3148658E-1,6.6549756E-2],"split_indices":[3,28,28,17,17,17,24,14,16,18,3,5,28,17,16,28,22,14,15,28,22,22,5,15,17,3,3,14,0,26,6,17,18,28,26,28,4,5,3,24,1,3,1,23,26,15,16,16,0,16,14,14,24,14,16,22,17,3,23,14,24,0,0,0,0,0,0,0,0,0,0,0,0,0,0,0,0,0,0,0,0,0,0,0,0,0,0,0,0,0,0,0,0,0,0,0,0,0,0,0,0,0,0,0,0,0,0,0,0,0,0,0,0,0,0,0,0,0,0],"split_type":[0,0,0,0,0,0,0,0,0,0,0,0,0,0,0,0,0,0,0,0,0,0,0,0,0,0,0,0,0,0,0,0,0,0,0,0,0,0,0,0,0,0,0,0,0,0,0,0,0,0,0,0,0,0,0,0,0,0,0,0,0,0,0,0,0,0,0,0,0,0,0,0,0,0,0,0,0,0,0,0,0,0,0,0,0,0,0,0,0,0,0,0,0,0,0,0,0,0,0,0,0,0,0,0,0,0,0,0,0,0,0,0,0,0,0,0,0,0,0],"sum_hessian":[2.1510078E3,1.3748009E3,7.7620685E2,9.715644E2,4.0323654E2,4.8773523E2,2.8847162E2,8.391202E2,1.3244418E2,3.2327704E2,7.9959496E1,8.3299446E1,4.044358E2,1.9246271E1,2.6922534E2,7.764508E2,6.2669365E1,6.304177E1,6.9402405E1,1.5583252E2,1.674445E2,2.1909613E1,5.8049885E1,3.0753122E1,5.2546326E1,8.596687E1,3.184689E2,1.7047348E1,2.198923E0,9.5800934E1,1.7342442E2,4.7954828E2,2.9690253E2,3.469562E1,2.7973743E1,1.8016088E1,4.5025684E1,2.3534046E1,4.586836E1,1.0559562E2,5.0236908E1,2.5391989E1,1.4205252E2,1.8175688E1,3.7339256E0,2.635159E1,3.1698298E1,2.8078815E1,2.6743083E0,2.3785454E1,2.8760872E1,7.734705E1,8.61982E0,1.4501315E2,1.7345576E2,1.4324192E1,2.7231567E0,3.4662132E1,6.1138798E1,4.4736866E1,1.2868755E2,3.66816E2,1.12732285E2,8.7972244E1,2.0893028E2,5.9890847E0,2.8706537E1,2.6224451E1,1.7492925E0,4.7114334E0,1.3304656E1,4.3548656E1,1.4770268E0,8.890606E0,1.464344E1,2.9648073E1,1.6220285E1,6.729846E1,3.8297157E1,1.0921063E1,3.9315845E1,2.0473991E1,4.9179974E0,6.541918E1,7.663334E1,1.5930415E1,2.2452722E0,1.247028E0,2.4868975E0,5.7267103E0,2.0624878E1,1.1562629E1,2.013567E1,2.4111917E0,2.5667624E1,1.0878747E1,1.2906708E1,5.881172E0,2.28797E1,3.1082645E1,4.6264412E1,4.679331E0,3.940489E0,1.03753105E2,4.1260044E1,1.186386E2,5.481716E1,1.2839654E1,1.484538E0,1.2322419E0,1.4909148E0,1.447627E1,2.0185863E1,3.6855981E0,5.74532E1,1.2845357E1,3.1891512E1,8.626567E0,1.2006098E2],"tree_param":{"num_deleted":"0","num_feature":"29","num_nodes":"119","size_leaf_vector":"1"}},{"base_weights":[-9.194399E-4,1.5281932E-1,-9.202806E-2,1.1303947E0,1.2796672E-1,-6.090415E-1,-5.4576863E-2,1.391661E0,3.785843E-1,-3.4909788E-1,1.5889932E-1,-2.3414677E-1,-1.0077236E0,2.646588E-1,-1.19402684E-1,4.0650788E-1,1.6424992E0,9.6957934E-1,-4.214261E-1,2.4701825E-1,-7.8258586E-1,2.7035743E-1,5.2293926E-3,4.2086452E-1,-9.5630693E-1,-1.2623559E0,-6.0309738E-2,6.041584E-1,2.2727778E-2,-3.046583E-1,2.0042653E-3,3.6315176E-1,-1.939364E-1,5.4175663E-1,1.777422E-1,6.339558E-2,3.70185E-1,-1.9866216E-1,6.4627677E-3,-9.257472E-1,5.606314E-1,-9.850355E-1,9.0210456E-1,2.3229203E-1,9.061864E-1,-9.1747046E-1,5.7327017E-2,-1.5262577E-3,1.3251752E0,-4.0686443E-1,-1.2156856E0,-1.7027108E-1,-1.3785669E0,-3.1622538E-1,2.5477633E-1,2.619539E-1,1.0357738E0,3.6992967E-1,-2.3816277E-1,-1.4147523E-1,-6.982058E-1,1.5170676E-1,-2.1098727E-1,6.6004954E-2,-4.195983E-1,4.1770247E-1,4.492818E-2,-3.6402112E-1,-2.2584153E-2,6.1701305E-2,3.5920095E-1,4.0145367E-2,1.4846838E-1,3.2429504E-1,-1.221526E-1,5.476531E-2,-3.682791E-1,3.233641E-2,-2.2919275E-1,-1.604813E-1,3.4193406E-1,4.4791254E-1,1.02769725E-1,3.0520904E-1,-2.675446E-1,-4.2698744E-1,1.2752953E-1,3.0935943E-1,-3.8884106E-1,-4.2962313E-1,-6.1923475E-3,-7.977444E-2,2.2582209E-1,4.7064963E-1,1.3401168E-2,4.4992793E-1,1.1859334E-1,3.712224E-2,2.4392372E-1,-1.3662621E-1,1.0223626E-1,6.437954E-2,-1.7943034E-1,-2.823E-1,-7.515276E-2,2.1509774E-1,1.47501305E-2,-9.899003E-2,7.601923E-2],"categories":[],"categories_nodes":[],"categories_segments":[],"categories_sizes":[],"default_left":[0,0,0,0,0,0,0,0,0,0,0,0,0,0,0,0,0,0,0,0,0,0,0,0,0,0,0,0,0,0,0,0,0,0,0,0,0,0,0,0,0,0,0,0,0,0,0,0,0,0,0,0,0,0,0,0,0,0,0,0,0,0,0,0,0,0,0,0,0,0,0,0,0,0,0,0,0,0,0,0,0,0,0,0,0,0,0,0,0,0,0,0,0,0,0,0,0,0,0,0,0,0,0,0,0,0,0,0,0],"id":2,"left_children":[1,3,5,7,9,11,13,15,17,19,21,23,25,27,29,31,33,35,37,39,41,43,45,47,49,51,53,55,57,59,61,-1,-1,-1,-1,-1,-1,-1,-1,63,65,67,69,71,73,75,77,79,81,83,85,87,89,-1,91,93,95,97,99,101,103,105,107,-1,-1,-1,-1,-1,-1,-1,-1,-1,-1,-1,-1,-1,-1,-1,-1,-1,-1,-1,-1,-1,-1,-1,-1,-1,-1,-1,-1,-1,-1,-1,-1,-1,-1,-1,-1,-1,-1,-1,-1,-1,-1,-1,-1,-1,-1],"loss_changes":[2.9763834E1,1.9065609E1,2.5801224E1,3.298603E0,1.1451055E1,1.3219086E1,2.5800896E1,2.8115063E0,3.432816E0,1.2424974E1,1.243144E1,2.296464E1,1.0375519E1,1.7275003E1,2.3295345E1,4.326504E0,7.9855156E-1,5.374241E-1,3.7846678E-1,8.128317E0,1.0317499E1,9.971989E0,1.4770752E1,9.82106E0,2.7820072E0,4.0925484E0,3.471088E0,1.2659153E1,1.1315274E1,2.623449E1,2.0013773E1,0E0,0E0,0E0,0E0,0E0,0E0,0E0,0E0,2.8773794E0,5.5825806E0,5.135395E0,4.7085357E-1,1.0233402E1,5.8165855E0,5.8265343E0,1.2132391E1,1.1884884E1,8.386936E-1,7.037898E0,5.753929E0,7.3158092E0,2.1994743E0,0E0,2.4224663E0,1.4175993E1,1.0811272E1,5.743577E0,9.133139E0,4.746091E1,1.2800903E1,2.1330107E1,1.4398333E1,0E0,0E0,0E0,0E0,0E0,0E0,0E0,0E0,0E0,0E0,0E0,0E0,0E0,0E0,0E0,0E0,0E0,0E0,0E0,0E0,0E0,0E0,0E0,0E0,0E0,0E0,0E0,0E0,0E0,0E0,0E0,0E0,0E0,0E0,0E0,0E0,0E0,0E0,0E0,0E0,0E0,0E0,0E0,0E0,0E0,0E0],"parents":[2147483647,0,0,1,1,2,2,3,3,4,4,5,5,6,6,7,7,8,8,9,9,10,10,11,11,12,12,13,13,14,14,15,15,16,16,17,17,18,18,19,19,20,20,21,21,22,22,23,23,24,24,25,25,26,26,27,27,28,28,29,29,30,30,39,39,40,40,41,41,42,42,43,43,44,44,45,45,46,46,47,47,48,48,49,49,50,50,51,51,52,52,54,54,55,55,56,56,57,57,58,58,59,59,60,60,61,61,62,62],"right_children":[2,4,6,8,10,12,14,16,18,20,22,24,26,28,30,32,34,36,38,40,42,44,46,48,50,52,54,56,58,60,62,-1,-1,-1,-1,-1,-1,-1,-1,64,66,68,70,72,74,76,78,80,82,84,86,88,90,-1,92,94,96,98,100,102,104,106,108,-1,-1,-1,-1,-1,-1,-1,-1,-1,-1,-1,-1,-1,-1,-1,-1,-1,-1,-1,-1,-1,-1,-1,-1,-1,-1,-1,-1,-1,-1,-1,-1,-1,-1,-1,-1,-1,-1,-1,-1,-1,-1,-1,-1,-1,-1],"split_conditions":[-4.1290057E-1,-9.6602887E-1,-9.5061547E-1,-5.4541826E-1,-1.5339068E0,-3.890724E-1,-3.812164E-1,-1.2483227E0,5.2691275E-1,-2.912832E-1,-3.0948538E-1,-5.333973E-1,-8.874978E-2,3.9781302E-2,-4.047205E-2,-3.6167976E-1,6.2193565E-2,3.637984E-1,7.7930325E-1,-1.061623E0,-4.538905E-1,1.7138649E0,-9.4808584E-1,1.0416331E0,-6.9470483E-1,-8.742064E-1,-1.0760117E0,-8.2851E-1,-2.3494774E-1,-2.7502665E-1,4.5532295E-1,3.6315176E-1,-1.939364E-1,5.4175663E-1,1.777422E-1,6.339558E-2,3.70185E-1,-1.9866216E-1,6.4627677E-3,4.7055596E-1,-7.0804715E-1,1.1170186E0,1.78369E-1,8.451433E-1,-2.6017037E-1,-3.738613E-1,1.3455089E0,-1.006229E0,-1.006229E0,-6.012759E-1,1.2666632E0,-2.457272E-1,1.6744616E0,-3.1622538E-1,3.0117666E-2,-6.699383E-1,2.1840966E-1,1.6980749E0,8.89961E-1,-1.8337268E-2,6.0263526E-2,-4.5089066E-1,1.9591788E0,6.6004954E-2,-4.195983E-1,4.1770247E-1,4.492818E-2,-3.6402112E-1,-2.2584153E-2,6.1701305E-2,3.5920095E-1,4.0145367E-2,1.4846838E-1,3.2429504E-1,-1.221526E-1,5.476531E-2,-3.682791E-1,3.233641E-2,-2.2919275E-1,-1.604813E-1,3.4193406E-1,4.4791254E-1,1.02769725E-1,3.0520904E-1,-2.675446E-1,-4.2698744E-1,1.2752953E-1,3.0935943E-1,-3.8884106E-1,-4.2962313E-1,-6.1923475E-3,-7.977444E-2,2.2582209E-1,4.7064963E-1,1.3401168E-2,4.4992793E-1,1.1859334E-1,3.712224E-2,2.4392372E-1,-1.3662621E-1,1.0223626E-1,6.437954E-2,-1.7943034E-1,-2.823E-1,-7.515276E-2,2.1509774E-1,1.47501305E-2,-9.899003E-2,7.601923E-2],"split_indices":[3,23,28,3,2,17,17,15,22,0,14,14,16,14,28,1,0,5,22,28,3,4,28,5,18,16,4,28,2,14,17,0,0,0,0,0,0,0,0,15,3,8,0,5,18,5,8,28,28,17,5,3,5,0,15,18,23,18,26,17,16,14,27,0,0,0,0,0,0,0,0,0,0,0,0,0,0,0,0,0,0,0,0,0,0,0,0,0,0,0,0,0,0,0,0,0,0,0,0,0,0,0,0,0,0,0,0,0,0],"split_type":[0,0,0,0,0,0,0,0,0,0,0,0,0,0,0,0,0,0,0,0,0,0,0,0,0,0,0,0,0,0,0,0,0,0,0,0,0,0,0,0,0,0,0,0,0,0,0,0,0,0,0,0,0,0,0,0,0,0,0,0,0,0,0,0,0,0,0,0,0,0,0,0,0,0,0,0,0,0,0,0,0,0,0,0,0,0,0,0,0,0,0,0,0,0,0,0,0,0,0,0,0,0,0,0,0,0,0,0,0],"sum_hessian":[2.1229329E3,7.8969916E2,1.3332336E3,1.8475672E1,7.7122345E2,8.902209E1,1.2442115E3,1.3079318E1,5.3963547E0,4.6334473E1,7.24889E2,4.6697807E1,4.2324284E1,2.094904E2,1.0347212E3,3.186218E0,9.8931E0,2.981707E0,2.4146473E0,1.968903E1,2.6645443E1,4.1971024E2,3.0517877E2,2.470614E1,2.1991667E1,3.3096622E1,9.227661E0,8.654516E1,1.22945244E2,4.0904596E2,6.256752E2,1.7218595E0,1.4643586E0,7.93829E0,1.9548093E0,1.2359928E0,1.7457142E0,1.2436928E0,1.1709547E0,3.742387E0,1.5946643E1,2.4157705E1,2.4877357E0,3.972908E2,2.2419422E1,1.5422399E1,2.8975638E2,1.7520754E1,7.185386E0,7.8761687E0,1.4115499E1,3.4202466E0,2.9676374E1,1.6567911E0,7.5708704E0,4.9168797E1,3.737636E1,5.2568016E1,7.037723E1,2.901117E2,1.1893428E2,3.6759583E2,2.5807938E2,1.2496151E0,2.492772E0,4.4830394E0,1.1463603E1,1.9043583E1,5.114123E0,1.2457446E0,1.2419913E0,2.900381E2,1.0725271E2,1.994222E1,2.4772012E0,3.482238E0,1.1940161E1,2.7380264E2,1.59537325E1,1.2302321E1,5.2184324E0,5.6932917E0,1.4920943E0,1.7217574E0,6.1544113E0,1.2647752E1,1.4677466E0,1.6952465E0,1.725E0,2.849875E1,1.1776235E0,3.9287782E0,3.6420922E0,6.122719E0,4.3046078E1,2.089628E1,1.6480083E1,3.461635E1,1.7951666E1,5.1328842E1,1.9048384E1,1.6330084E2,1.2681085E2,7.639953E1,4.2534756E1,5.5521545E1,3.1207428E2,2.0567346E2,5.240592E1],"tree_param":{"num_deleted":"0","num_feature":"29","num_nodes":"109","size_leaf_vector":"1"}},{"base_weights":[-3.2573132E-4,6.09572E-2,-1.4742082E-1,9.3565114E-2,-1.8994491E-1,-4.557425E-1,-5.0545596E-2,2.7111715E-1,4.660753E-2,-5.4331225E-1,1.6570866E-1,-6.3689137E-1,9.324568E-2,3.9664E-2,-3.291655E-1,5.8998656E-1,1.2732048E-1,-2.8539324E-1,1.03050105E-1,-3.894547E-1,-1.3236444E0,4.60495E-1,-1.6604239E-1,-7.715201E-2,-8.712121E-1,3.785833E-1,-7.1310717E-1,-7.3062433E-3,8.5477364E-1,-7.200982E-1,-1.9224191E-2,4.6083882E-1,1.2715865E0,-1.7440751E-1,3.150591E-1,-1.11313626E-1,-1.2187604E0,3.1614172E-1,7.2973706E-3,6.223752E-1,-5.3229576E-1,-1.7645871E-2,-1.5627489E0,6.624801E-1,-5.006938E-1,-5.2393067E-1,2.4951209E-1,-5.712535E-1,8.403739E-1,-1.100329E0,-8.452967E-2,-8.400736E-1,5.686904E-1,1.3286234E-1,-1.0025034E0,1.6077018E-1,-1.6516806E-1,-3.374683E-1,1.133984E0,-1.0037289E0,-3.621203E-2,2.3178364E-1,-5.5412745E-1,1.6226242E-1,-2.2752728E-1,-4.1762233E-2,4.496218E-1,3.4694606E-1,-7.805702E-2,-2.0575131E-1,1.22172326E-1,-7.4073784E-2,2.186785E-1,6.3922584E-2,-3.9219704E-1,2.057078E-1,5.8637504E-2,-5.8672547E-2,4.392934E-2,3.994996E-1,6.2964284E-3,8.770013E-2,-1.9966988E-1,-5.106568E-1,-1.05969176E-1,8.3755545E-2,4.5559847E-1,-4.0009898E-1,2.0562443E-1,-2.735474E-1,8.121223E-2,-4.2769495E-2,3.3234632E-1,-8.4827235E-3,-3.7436658E-1,4.7044316E-1,-2.0027193E-1,-1.7045942E-1,-3.9179802E-1,2.3859937E-1,-2.0523328E-1,2.1883126E-2,-3.603692E-1,7.71547E-2,4.3267742E-1,1.0972294E-1,-4.709944E-2,-3.550717E-1,-2.1441781E-3,2.5820518E-1,-1.7359905E-2,-7.208128E-2,3.1258833E-1,4.1109526E-1,1.4167096E-2,-1.5016758E-2,-3.2605195E-1,1.3962877E-1,-2.5925457E-1,-3.3295494E-2,2.3862007E-1,-2.0891106E-1,2.4080984E-1],"categories":[],"categories_nodes":[],"categories_segments":[],"categories_sizes":[],"default_left":[0,0,0,0,0,0,0,0,0,0,0,0,0,0,0,0,0,0,0,0,0,0,0,0,0,0,0,0,0,0,0,0,0,0,0,0,0,0,0,0,0,0,0,0,0,0,0,0,0,0,0,0,0,0,0,0,0,0,0,0,0,0,0,0,0,0,0,0,0,0,0,0,0,0,0,0,0,0,0,0,0,0,0,0,0,0,0,0,0,0,0,0,0,0,0,0,0,0,0,0,0,0,0,0,0,0,0,0,0,0,0,0,0,0,0,0,0,0,0,0,0,0,0],"id":3,"left_children":[1,3,5,7,9,11,13,15,17,19,21,23,25,27,29,31,33,35,37,39,41,43,45,47,49,51,53,55,57,59,61,63,65,67,69,71,73,75,77,79,81,-1,83,85,87,89,91,93,95,97,99,101,103,105,107,109,111,-1,113,115,117,119,121,-1,-1,-1,-1,-1,-1,-1,-1,-1,-1,-1,-1,-1,-1,-1,-1,-1,-1,-1,-1,-1,-1,-1,-1,-1,-1,-1,-1,-1,-1,-1,-1,-1,-1,-1,-1,-1,-1,-1,-1,-1,-1,-1,-1,-1,-1,-1,-1,-1,-1,-1,-1,-1,-1,-1,-1,-1,-1,-1,-1],"loss_changes":[1.8941656E1,1.2153192E1,1.8434948E1,1.0937425E1,2.157205E1,1.4740053E1,1.1860038E1,1.25109215E1,1.9515572E1,9.806652E0,8.482619E0,1.4507561E1,8.897467E0,1.3672684E1,1.3967741E1,6.8995247E0,1.0843409E1,2.445792E1,1.8147343E1,1.09155855E1,4.06427E0,9.219468E0,6.254731E0,1.5843566E1,1.4008163E1,7.0456896E0,2.6175237E0,9.007932E0,1.2030471E1,9.856422E0,8.908091E0,7.539668E0,4.3674603E0,8.71434E0,1.1144416E1,1.4840263E1,3.2829323E0,1.2164324E1,1.738093E1,4.0330215E0,7.306307E0,0E0,1.341444E0,1.2131731E1,9.330854E0,7.1656146E0,6.7979107E0,8.27608E0,1.450859E1,5.8796616E0,1.0424692E1,1.4822271E0,6.4649315E0,2.9162335E-1,1.3753381E0,2.5215466E1,1.6119963E1,0E0,4.4428444E0,2.799984E0,7.0429864E0,8.822571E0,4.646621E0,0E0,0E0,0E0,0E0,0E0,0E0,0E0,0E0,0E0,0E0,0E0,0E0,0E0,0E0,0E0,0E0,0E0,0E0,0E0,0E0,0E0,0E0,0E0,0E0,0E0,0E0,0E0,0E0,0E0,0E0,0E0,0E0,0E0,0E0,0E0,0E0,0E0,0E0,0E0,0E0,0E0,0E0,0E0,0E0,0E0,0E0,0E0,0E0,0E0,0E0,0E0,0E0,0E0,0E0,0E0,0E0,0E0,0E0,0E0,0E0],"parents":[2147483647,0,0,1,1,2,2,3,3,4,4,5,5,6,6,7,7,8,8,9,9,10,10,11,11,12,12,13,13,14,14,15,15,16,16,17,17,18,18,19,19,20,20,21,21,22,22,23,23,24,24,25,25,26,26,27,27,28,28,29,29,30,30,31,31,32,32,33,33,34,34,35,35,36,36,37,37,38,38,39,39,40,40,42,42,43,43,44,44,45,45,46,46,47,47,48,48,49,49,50,50,51,51,52,52,53,53,54,54,55,55,56,56,58,58,59,59,60,60,61,61,62,62],"right_children":[2,4,6,8,10,12,14,16,18,20,22,24,26,28,30,32,34,36,38,40,42,44,46,48,50,52,54,56,58,60,62,64,66,68,70,72,74,76,78,80,82,-1,84,86,88,90,92,94,96,98,100,102,104,106,108,110,112,-1,114,116,118,120,122,-1,-1,-1,-1,-1,-1,-1,-1,-1,-1,-1,-1,-1,-1,-1,-1,-1,-1,-1,-1,-1,-1,-1,-1,-1,-1,-1,-1,-1,-1,-1,-1,-1,-1,-1,-1,-1,-1,-1,-1,-1,-1,-1,-1,-1,-1,-1,-1,-1,-1,-1,-1,-1,-1,-1,-1,-1,-1,-1,-1],"split_conditions":[7.3976785E-2,1.3667524E0,-1.7090563E-2,-6.268586E-1,1.6895347E0,3.2432738E-1,7.335254E-1,-7.0838E-1,-9.373207E-1,7.250379E-1,-4.3166545E-1,-5.026583E-1,1.6571199E0,6.7133045E-1,-3.4026814E-1,9.346898E-1,-4.6368992E-1,-3.4258392E-1,-3.9659825E-1,-1.3893635E0,-3.67983E-1,-8.745891E-2,-6.380816E-2,-6.676889E-1,6.0263526E-2,-6.0677063E-1,1.80919E0,1.4300346E-1,-1.3850068E0,5.750432E-1,3.8590226E-1,9.3400246E-1,-5.9702325E-1,-8.130372E-1,-1.4562013E0,2.2573587E-1,-1.7104766E0,-4.3831643E-1,-5.034424E-1,1.6018672E0,-6.5276945E-1,-1.7645871E-2,1.259058E0,-2.457272E-1,-5.034424E-1,4.5373073E-1,2.5793533E-3,-2.1096265E-1,7.545869E-1,-3.950082E-1,9.196349E-1,-7.902643E-1,1.2208399E0,2.117649E0,5.4438764E-1,-3.4994673E-2,1.5552506E0,-3.374683E-1,8.061747E-1,-6.88392E-1,2.0116582E0,8.9075726E-1,3.5430896E0,1.6226242E-1,-2.2752728E-1,-4.1762233E-2,4.496218E-1,3.4694606E-1,-7.805702E-2,-2.0575131E-1,1.22172326E-1,-7.4073784E-2,2.186785E-1,6.3922584E-2,-3.9219704E-1,2.057078E-1,5.8637504E-2,-5.8672547E-2,4.392934E-2,3.994996E-1,6.2964284E-3,8.770013E-2,-1.9966988E-1,-5.106568E-1,-1.05969176E-1,8.3755545E-2,4.5559847E-1,-4.0009898E-1,2.0562443E-1,-2.735474E-1,8.121223E-2,-4.2769495E-2,3.3234632E-1,-8.4827235E-3,-3.7436658E-1,4.7044316E-1,-2.0027193E-1,-1.7045942E-1,-3.9179802E-1,2.3859937E-1,-2.0523328E-1,2.1883126E-2,-3.603692E-1,7.71547E-2,4.3267742E-1,1.0972294E-1,-4.709944E-2,-3.550717E-1,-2.1441781E-3,2.5820518E-1,-1.7359905E-2,-7.208128E-2,3.1258833E-1,4.1109526E-1,1.4167096E-2,-1.5016758E-2,-3.2605195E-1,1.3962877E-1,-2.5925457E-1,-3.3295494E-2,2.3862007E-1,-2.0891106E-1,2.4080984E-1],"split_indices":[3,4,28,14,4,13,17,1,28,22,18,24,14,17,25,26,0,17,17,26,25,3,28,28,16,16,10,17,4,18,25,26,16,17,5,16,15,18,28,1,24,0,22,3,28,16,2,14,22,22,8,16,14,3,4,14,16,0,5,18,10,0,12,0,0,0,0,0,0,0,0,0,0,0,0,0,0,0,0,0,0,0,0,0,0,0,0,0,0,0,0,0,0,0,0,0,0,0,0,0,0,0,0,0,0,0,0,0,0,0,0,0,0,0,0,0,0,0,0,0,0,0,0],"split_type":[0,0,0,0,0,0,0,0,0,0,0,0,0,0,0,0,0,0,0,0,0,0,0,0,0,0,0,0,0,0,0,0,0,0,0,0,0,0,0,0,0,0,0,0,0,0,0,0,0,0,0,0,0,0,0,0,0,0,0,0,0,0,0,0,0,0,0,0,0,0,0,0,0,0,0,0,0,0,0,0,0,0,0,0,0,0,0,0,0,0,0,0,0,0,0,0,0,0,0,0,0,0,0,0,0,0,0,0,0,0,0,0,0,0,0,0,0,0,0,0,0,0,0],"sum_hessian":[2.0992651E3,1.4822952E3,6.1697E2,1.312364E3,1.6993126E2,1.4662067E2,4.703493E2,2.734906E2,1.0388734E3,8.497492E1,8.495634E1,1.10123314E2,3.6497353E1,3.5595752E2,1.14391785E2,8.403653E1,1.8945409E2,1.5036359E2,8.8850977E2,7.223206E1,1.274286E1,4.4778828E1,4.017751E1,3.2888756E1,7.723456E1,2.7349796E1,9.147554E0,3.375003E2,1.8457232E1,5.000126E1,6.4390526E1,7.205908E1,1.1977447E1,7.269377E1,1.1676031E2,1.2767124E2,2.2692335E1,2.7475604E2,6.137537E2,8.520327E0,6.3711735E1,2.22404E0,1.051882E1,3.725979E1,7.5190372E0,2.1446407E1,1.8731102E1,2.162225E1,1.1266508E1,5.9505276E1,1.7729284E1,3.229373E0,2.4120424E1,2.469514E0,6.67804E0,1.6345274E2,1.7404755E2,1.9070371E0,1.6550194E1,3.5012646E1,1.4988611E1,4.4210884E1,2.0179646E1,6.814241E1,3.9166691E0,1.7147406E0,1.0262706E1,3.6459632E0,6.904781E1,9.303576E0,1.07456726E2,1.10538574E2,1.7132671E1,1.2399317E0,2.1452404E1,6.648551E1,2.0827054E2,2.4952003E2,3.642337E2,3.352264E0,5.168062E0,8.698018E0,5.5013718E1,9.06628E0,1.4525402E0,2.6653597E1,1.0606192E1,4.3439827E0,3.1750548E0,1.4312461E1,7.1339455E0,1.3430106E1,5.300997E0,1.25738945E1,9.048354E0,7.5721126E0,3.6943953E0,1.7636288E1,4.1868988E1,7.0529256E0,1.0676358E1,1.1415426E0,2.0878305E0,1.8734306E1,5.3861175E0,1.2241848E0,1.2453293E0,5.4902034E0,1.1878369E0,3.820661E1,1.2524614E2,1.6460728E2,9.440267E0,1.3379653E1,3.170541E0,2.9351325E0,3.2077515E1,9.606312E0,5.3822994E0,2.799099E1,1.6219894E1,1.870543E1,1.474215E0],"tree_param":{"num_deleted":"0","num_feature":"29","num_nodes":"123","size_leaf_vector":"1"}},{"base_weights":[-1.1766521E-3,4.725189E-2,-1.265302E-1,1.5468785E-1,-2.198077E-2,-3.2602844E-1,4.1760013E-2,-2.8880058E-2,2.930091E-1,-1.623495E-1,7.792715E-2,-7.04298E-1,-2.0165916E-1,1.2120623E-1,-5.484394E-1,1.438704E-1,-8.109867E-1,5.929294E-1,1.0655373E-1,-1.1030868E-1,-8.6108094E-1,2.674207E-1,-9.153948E-3,-1.2096388E0,-2.0078339E-1,-2.4297278E-1,9.9087757E-1,7.0606863E-1,3.9312627E-2,-1.3119074E0,-1.3852015E-1,-2.5556427E-1,3.2521477E-1,-4.7548386E-1,-1.3522563E0,9.514736E-1,2.1460992E-1,4.180151E-2,1.1400218E0,4.1614613E-1,-1.2876797E-1,5.008052E-1,-1.1061989E0,7.828687E-1,1.7998815E-1,-3.1244034E-1,5.3875763E-2,5.3281292E-2,-1.2681844E0,-6.3347703E-1,5.055563E-1,-7.4509166E-2,-4.7572988E-1,4.718539E-1,2.5151604E-1,9.272775E-1,-2.2043419E-1,-1.0655598E-1,4.0621188E-1,-1.2668036E-1,-4.7776118E-1,-9.169499E-1,2.4723192E-1,1.2862559E-1,-1.8398184E-1,1.4028758E-1,-6.245939E-2,-4.2214906E-1,-4.924392E-2,-4.1951612E-1,-9.334972E-2,7.5046465E-2,3.4978196E-1,3.5922977E-3,4.485086E-1,2.3440295E-1,-1.9928522E-2,-1.2585372E-1,4.175728E-1,-1.0885708E-1,1.8620004E-3,-2.4057184E-1,4.0957978E-1,-3.9024717E-1,1.3479133E-1,-1.8969722E-1,3.0367485E-1,-1.7097649E-1,7.6808624E-2,1.618719E-1,-1.4991151E-1,1.7399436E-1,-4.0106424E-3,-4.0136805E-1,-2.9615927E-2,-3.4096193E-1,-1.1877582E-2,-2.3264216E-1,2.0391202E-1,6.4848855E-2,-1.17827974E-1,-2.7108404E-1,-3.471115E-2,-1.5710966E-1,2.3689963E-1,3.497463E-1,-1.1545316E-1,-1.9662338E-1,3.2325482E-1,-9.9521115E-2,4.700432E-2,-3.5729697E-1,1.5224071E-1,-2.7745497E-1,2.3284683E-1,-3.593679E-1,9.628168E-2,-2.2531076E-1,1.8519668E-1],"categories":[],"categories_nodes":[],"categories_segments":[],"categories_sizes":[],"default_left":[0,0,0,0,0,0,0,0,0,0,0,0,0,0,0,0,0,0,0,0,0,0,0,0,0,0,0,0,0,0,0,0,0,0,0,0,0,0,0,0,0,0,0,0,0,0,0,0,0,0,0,0,0,0,0,0,0,0,0,0,0,0,0,0,0,0,0,0,0,0,0,0,0,0,0,0,0,0,0,0,0,0,0,0,0,0,0,0,0,0,0,0,0,0,0,0,0,0,0,0,0,0,0,0,0,0,0,0,0,0,0,0,0,0,0,0,0,0,0],"id":4,"left_children":[1,3,5,7,9,11,13,15,17,19,21,23,25,27,29,31,33,35,37,39,41,43,45,47,49,51,53,55,57,59,61,63,65,67,69,71,73,75,77,-1,79,81,83,85,87,89,91,-1,93,95,97,99,101,-1,103,105,107,109,111,113,-1,115,117,-1,-1,-1,-1,-1,-1,-1,-1,-1,-1,-1,-1,-1,-1,-1,-1,-1,-1,-1,-1,-1,-1,-1,-1,-1,-1,-1,-1,-1,-1,-1,-1,-1,-1,-1,-1,-1,-1,-1,-1,-1,-1,-1,-1,-1,-1,-1,-1,-1,-1,-1,-1,-1,-1,-1,-1],"loss_changes":[1.2604695E1,1.1143568E1,1.9439764E1,1.4914439E1,1.2797894E1,1.2318901E1,1.4824446E1,3.432303E1,1.8663568E1,1.3701006E1,8.802119E0,1.633094E1,1.0130574E1,1.3298017E1,1.1561086E1,1.5165641E1,7.702257E0,1.7179577E1,1.3852628E1,9.970806E0,9.284048E0,7.427479E0,7.0197053E0,2.849392E0,1.065856E1,7.6035366E0,2.5812182E0,7.195915E0,1.3161192E1,4.1188755E0,7.8933764E0,1.6314898E1,1.1009169E1,8.445511E0,3.833561E-1,9.561195E0,1.649666E1,1.578049E1,5.380005E0,0E0,1.1087749E1,6.362141E0,7.388376E0,8.449206E0,8.407502E0,1.0350114E1,1.0768057E1,0E0,2.4052887E0,6.3545647E0,3.5178728E0,1.0649458E1,1.2467949E1,0E0,2.1813228E0,9.128176E0,4.874427E0,1.0494802E1,1.1914702E1,3.2927997E0,0E0,3.4004707E0,7.061768E0,0E0,0E0,0E0,0E0,0E0,0E0,0E0,0E0,0E0,0E0,0E0,0E0,0E0,0E0,0E0,0E0,0E0,0E0,0E0,0E0,0E0,0E0,0E0,0E0,0E0,0E0,0E0,0E0,0E0,0E0,0E0,0E0,0E0,0E0,0E0,0E0,0E0,0E0,0E0,0E0,0E0,0E0,0E0,0E0,0E0,0E0,0E0,0E0,0E0,0E0,0E0,0E0,0E0,0E0,0E0,0E0],"parents":[2147483647,0,0,1,1,2,2,3,3,4,4,5,5,6,6,7,7,8,8,9,9,10,10,11,11,12,12,13,13,14,14,15,15,16,16,17,17,18,18,19,19,20,20,21,21,22,22,23,23,24,24,25,25,26,26,27,27,28,28,29,29,30,30,31,31,32,32,33,33,34,34,35,35,36,36,37,37,38,38,40,40,41,41,42,42,43,43,44,44,45,45,46,46,48,48,49,49,50,50,51,51,52,52,54,54,55,55,56,56,57,57,58,58,59,59,61,61,62,62],"right_children":[2,4,6,8,10,12,14,16,18,20,22,24,26,28,30,32,34,36,38,40,42,44,46,48,50,52,54,56,58,60,62,64,66,68,70,72,74,76,78,-1,80,82,84,86,88,90,92,-1,94,96,98,100,102,-1,104,106,108,110,112,114,-1,116,118,-1,-1,-1,-1,-1,-1,-1,-1,-1,-1,-1,-1,-1,-1,-1,-1,-1,-1,-1,-1,-1,-1,-1,-1,-1,-1,-1,-1,-1,-1,-1,-1,-1,-1,-1,-1,-1,-1,-1,-1,-1,-1,-1,-1,-1,-1,-1,-1,-1,-1,-1,-1,-1,-1,-1,-1],"split_conditions":[1.4957502E-1,1.7841277E-1,1.1029332E0,-9.013033E-1,-4.7142252E-1,-4.070669E-1,1.0996447E0,-2.457272E-1,-3.65264E-1,3.972189E-2,-5.512878E-1,1.3320524E-1,3.0729055E0,-3.382811E-1,1.2055583E0,-1.1015255E0,-2.496765E-1,-3.3195175E-2,1.3649898E0,-8.151354E-1,-7.343253E-1,-1.2503811E0,-6.9409317E-1,-1.3924376E0,1.4167872E-1,4.5532295E-1,3.359285E0,8.286736E-1,3.0571917E-1,-5.2850914E-1,-3.0994886E-1,-7.137849E-1,-1.9666804E-1,-1.0266672E0,1.7315737E0,-6.084922E-1,-5.293357E-1,-6.7398834E-1,-2.7555618E-1,4.1614613E-1,-8.4213114E-1,-8.320506E-1,1.5287032E0,-7.44034E-1,-1.8300573E0,-3.42047E-1,-6.245524E-1,5.3281292E-2,1.9514499E0,1.609685E-1,-1.6241708E0,1.0419048E-1,7.803627E-1,4.718539E-1,1.9244733E0,1.285973E-1,1.0234703E0,7.3872936E-1,1.9273894E-1,-7.031781E-1,-4.7776118E-1,1.7255923E0,1.6219935E-1,1.2862559E-1,-1.8398184E-1,1.4028758E-1,-6.245939E-2,-4.2214906E-1,-4.924392E-2,-4.1951612E-1,-9.334972E-2,7.5046465E-2,3.4978196E-1,3.5922977E-3,4.485086E-1,2.3440295E-1,-1.9928522E-2,-1.2585372E-1,4.175728E-1,-1.0885708E-1,1.8620004E-3,-2.4057184E-1,4.0957978E-1,-3.9024717E-1,1.3479133E-1,-1.8969722E-1,3.0367485E-1,-1.7097649E-1,7.6808624E-2,1.618719E-1,-1.4991151E-1,1.7399436E-1,-4.0106424E-3,-4.0136805E-1,-2.9615927E-2,-3.4096193E-1,-1.1877582E-2,-2.3264216E-1,2.0391202E-1,6.4848855E-2,-1.17827974E-1,-2.7108404E-1,-3.471115E-2,-1.5710966E-1,2.3689963E-1,3.497463E-1,-1.1545316E-1,-1.9662338E-1,3.2325482E-1,-9.9521115E-2,4.700432E-2,-3.5729697E-1,1.5224071E-1,-2.7745497E-1,2.3284683E-1,-3.593679E-1,9.628168E-2,-2.2531076E-1,1.8519668E-1],"split_indices":[17,26,28,28,16,25,17,3,14,17,4,4,3,24,17,28,17,16,28,3,14,5,3,26,6,17,3,17,16,23,25,3,17,28,1,0,28,3,17,0,28,14,28,3,1,4,3,0,21,15,15,5,17,0,10,14,15,26,17,23,0,11,3,0,0,0,0,0,0,0,0,0,0,0,0,0,0,0,0,0,0,0,0,0,0,0,0,0,0,0,0,0,0,0,0,0,0,0,0,0,0,0,0,0,0,0,0,0,0,0,0,0,0,0,0,0,0,0,0],"split_type":[0,0,0,0,0,0,0,0,0,0,0,0,0,0,0,0,0,0,0,0,0,0,0,0,0,0,0,0,0,0,0,0,0,0,0,0,0,0,0,0,0,0,0,0,0,0,0,0,0,0,0,0,0,0,0,0,0,0,0,0,0,0,0,0,0,0,0,0,0,0,0,0,0,0,0,0,0,0,0,0,0,0,0,0,0,0,0,0,0,0,0,0,0,0,0,0,0,0,0,0,0,0,0,0,0,0,0,0,0,0,0,0,0,0,0,0,0,0,0],"sum_hessian":[2.0743354E3,1.4967216E3,5.7761383E2,5.860495E2,9.1067206E2,2.6387183E2,3.1374197E2,2.5217543E2,3.3387405E2,3.7840094E2,5.322711E2,6.413674E1,1.9973509E2,2.7722025E2,3.6521736E1,2.0722087E2,4.4954563E1,1.27157135E2,2.067169E2,3.5324915E2,2.5151777E1,1.6693654E2,3.653346E2,3.13104E1,3.2826347E1,1.9381685E2,5.9182334E0,3.3113144E1,2.441071E2,1.1990051E1,2.4531683E1,6.457554E1,1.4264532E2,2.8912052E1,1.6042511E1,6.4507E1,6.2650135E1,1.9550777E2,1.1209146E1,3.3986135E0,3.4985052E2,3.6773174E0,2.147446E1,2.3056398E1,1.4388014E2,6.2179966E1,3.0315463E2,1.1855329E0,3.0124866E1,2.042031E1,1.2406036E1,1.13203316E2,8.061353E1,2.6808054E0,3.237428E0,2.6730274E1,6.3828707E0,1.7517294E2,6.893416E1,2.57329E0,9.416761E0,7.672298E0,1.6859385E1,2.2099453E1,4.247608E1,1.12684235E2,2.9961092E1,6.3599925E0,2.2552061E1,1.50331955E1,1.0093149E0,1.5614143E1,4.889286E1,5.4961437E1,7.6886964E0,2.4165325E1,1.7134244E2,1.4661506E0,9.742994E0,1.27330536E2,2.2252E2,1.4957052E0,2.1816123E0,1.923189E1,2.2425706E0,2.9708312E0,2.0085567E1,1.264828E1,1.3123186E2,1.0865044E1,5.1314922E1,3.349248E1,2.6966214E2,2.8294289E1,1.8305786E0,1.0560816E1,9.859493E0,1.0714774E0,1.1334559E1,5.9332855E1,5.3870457E1,3.61455E1,4.4468037E1,1.3375347E0,1.8998933E0,2.2712624E1,4.017652E0,5.1515074E0,1.2313633E0,9.427068E1,8.090226E1,3.46805E0,6.546611E1,1.352874E0,1.2204162E0,6.279462E0,1.3928359E0,4.2814455E0,1.257794E1],"tree_param":{"num_deleted":"0","num_feature":"29","num_nodes":"119","size_leaf_vector":"1"}},{"base_weights":[-1.9485422E-3,1.3642466E-1,-4.3758318E-2,2.8412914E-1,-3.5298057E-3,-2.0331559E-1,1.1366414E-2,-3.30729E-1,3.6917448E-1,-7.526974E-1,5.115404E-2,1.381615E0,-2.4501517E-1,8.885192E-2,-1.4506485E-1,2.1991774E-1,-1.2682377E0,5.261055E-1,-1.9825087E-3,-9.9663144E-1,3.834403E-1,1.5319476E-1,-2.661627E-1,4.5973662E-1,2.6992364E-2,-1.4006335E-1,-7.0371544E-1,3.8909328E-1,-8.163891E-3,-3.847448E-1,7.964393E-3,9.8144853E-1,-8.694074E-2,-4.8667493E-1,2.385301E-2,-4.065689E-1,6.242013E-1,-3.4580785E-1,3.7987155E-1,6.873827E-2,-1.2254575E0,-1.3193655E-1,2.956502E-1,2.8241014E-2,6.770453E-1,-5.649761E-1,4.9302468E-1,-6.7422636E-2,-7.783963E-1,-7.935011E-1,5.0234616E-1,9.714934E-1,2.7913362E-1,-2.6695016E-1,8.854809E-2,-7.2317564E-1,-1.6819796E-1,-1.8979813E-1,1.7430234E-1,4.084562E-1,-8.421488E-3,2.3921461E-1,-2.920658E-1,2.54795E-1,-2.3553802E-1,-3.7807295E-1,1.09934665E-1,2.2957571E-1,2.7493166E-2,9.615135E-2,-2.3549922E-1,9.814252E-3,3.5690236E-1,-1.13603726E-1,-4.3647948E-1,2.8672861E-2,-3.4155285E-1,-5.5995755E-2,2.7509707E-1,-5.6018285E-2,-4.081726E-1,2.749061E-3,4.0065026E-1,-4.8091486E-2,1.87396E-1,-3.1652257E-1,1.2900066E-1,-2.5613198E-1,2.8690907E-1,3.14259E-1,-7.8973554E-2,-3.3033565E-2,3.4143105E-1,1.8130946E-1,2.1896971E-2,-2.7268078E-2,-2.3721111E-1,1.252356E-1,-3.955773E-3,-4.8044422E-1,-1.3603407E-1,1.9484676E-1,-1.0061508E-1,6.579468E-2,-1.3634494E-1,8.702919E-2,-7.9893015E-2],"categories":[],"categories_nodes":[],"categories_segments":[],"categories_sizes":[],"default_left":[0,0,0,0,0,0,0,0,0,0,0,0,0,0,0,0,0,0,0,0,0,0,0,0,0,0,0,0,0,0,0,0,0,0,0,0,0,0,0,0,0,0,0,0,0,0,0,0,0,0,0,0,0,0,0,0,0,0,0,0,0,0,0,0,0,0,0,0,0,0,0,0,0,0,0,0,0,0,0,0,0,0,0,0,0,0,0,0,0,0,0,0,0,0,0,0,0,0,0,0,0,0,0,0,0,0,0],"id":5,"left_children":[1,3,5,7,9,11,13,15,17,19,21,23,25,27,29,31,33,35,37,39,41,43,45,-1,-1,47,49,51,53,55,57,59,61,-1,63,65,67,69,71,-1,73,-1,-1,75,77,79,81,83,85,87,89,91,93,95,97,99,101,103,105,-1,-1,-1,-1,-1,-1,-1,-1,-1,-1,-1,-1,-1,-1,-1,-1,-1,-1,-1,-1,-1,-1,-1,-1,-1,-1,-1,-1,-1,-1,-1,-1,-1,-1,-1,-1,-1,-1,-1,-1,-1,-1,-1,-1,-1,-1,-1,-1],"loss_changes":[1.1876412E1,9.847983E0,1.3868178E1,1.2241465E1,1.0099171E1,2.7095284E1,1.4226349E1,1.5089558E1,1.1887835E1,5.029725E0,7.481779E0,1.9135208E0,1.8932636E1,2.286308E1,1.4263918E1,4.5080338E0,4.962101E0,1.3377022E1,8.224412E0,4.230962E0,2.260448E0,1.1404732E1,1.3046793E1,0E0,0E0,1.4922783E1,8.34251E0,1.2004162E1,1.4893198E1,1.0983467E1,7.8714337E0,2.1551447E0,1.2073596E1,0E0,2.8707204E0,9.86948E0,9.708759E0,9.896818E0,8.305664E0,0E0,1.7857418E0,0E0,0E0,1.1261361E1,7.127841E0,1.2040108E1,6.68544E0,1.880973E1,1.1454121E1,8.05843E0,2.6528764E0,5.538595E0,1.0860087E1,1.4854952E1,1.4502196E1,1.3209171E1,1.30282345E1,1.1939317E1,6.707114E0,0E0,0E0,0E0,0E0,0E0,0E0,0E0,0E0,0E0,0E0,0E0,0E0,0E0,0E0,0E0,0E0,0E0,0E0,0E0,0E0,0E0,0E0,0E0,0E0,0E0,0E0,0E0,0E0,0E0,0E0,0E0,0E0,0E0,0E0,0E0,0E0,0E0,0E0,0E0,0E0,0E0,0E0,0E0,0E0,0E0,0E0,0E0,0E0],"parents":[2147483647,0,0,1,1,2,2,3,3,4,4,5,5,6,6,7,7,8,8,9,9,10,10,11,11,12,12,13,13,14,14,15,15,16,16,17,17,18,18,19,19,20,20,21,21,22,22,25,25,26,26,27,27,28,28,29,29,30,30,31,31,32,32,34,34,35,35,36,36,37,37,38,38,40,40,43,43,44,44,45,45,46,46,47,47,48,48,49,49,50,50,51,51,52,52,53,53,54,54,55,55,56,56,57,57,58,58],"right_children":[2,4,6,8,10,12,14,16,18,20,22,24,26,28,30,32,34,36,38,40,42,44,46,-1,-1,48,50,52,54,56,58,60,62,-1,64,66,68,70,72,-1,74,-1,-1,76,78,80,82,84,86,88,90,92,94,96,98,100,102,104,106,-1,-1,-1,-1,-1,-1,-1,-1,-1,-1,-1,-1,-1,-1,-1,-1,-1,-1,-1,-1,-1,-1,-1,-1,-1,-1,-1,-1,-1,-1,-1,-1,-1,-1,-1,-1,-1,-1,-1,-1,-1,-1,-1,-1,-1,-1,-1,-1],"split_conditions":[-4.6924287E-1,-2.5412267E-1,-7.868135E-1,-1.1672735E0,-9.4808584E-1,-8.0283386E-1,8.547199E-2,-6.630208E-1,8.75836E-1,-4.8376095E-1,-5.568216E-1,1.1580908E0,-3.65264E-1,-1.445938E-1,3.9657056E-1,-1.3850068E0,-4.4969937E-1,-7.811347E-1,-2.2554825E-1,-7.158971E-1,-1.3507736E-1,-6.0621756E-1,-8.874978E-2,4.5973662E-1,2.6992364E-2,6.020847E-1,1.1865277E0,-5.927691E-1,-2.9495484E-1,-4.9011025E-1,1.7086535E0,-6.7844075E-1,-7.9435116E-1,-4.8667493E-1,-7.776933E-1,-5.333973E-1,1.9001345E-1,-5.177873E-1,6.4551336E-1,6.873827E-2,-8.130372E-1,-1.3193655E-1,2.956502E-1,-6.179741E-1,-7.906188E-1,8.7322414E-1,7.688987E-2,3.1891114E-1,1.0887108E0,1.652668E0,1.3133997E0,-7.687466E-1,-1.3638742E-1,-3.65264E-1,1.2557688E-1,-7.0838E-1,-5.5588377E-1,6.811492E-1,2.117649E0,4.084562E-1,-8.421488E-3,2.3921461E-1,-2.920658E-1,2.54795E-1,-2.3553802E-1,-3.7807295E-1,1.09934665E-1,2.2957571E-1,2.7493166E-2,9.615135E-2,-2.3549922E-1,9.814252E-3,3.5690236E-1,-1.13603726E-1,-4.3647948E-1,2.8672861E-2,-3.4155285E-1,-5.5995755E-2,2.7509707E-1,-5.6018285E-2,-4.081726E-1,2.749061E-3,4.0065026E-1,-4.8091486E-2,1.87396E-1,-3.1652257E-1,1.2900066E-1,-2.5613198E-1,2.8690907E-1,3.14259E-1,-7.8973554E-2,-3.3033565E-2,3.4143105E-1,1.8130946E-1,2.1896971E-2,-2.7268078E-2,-2.3721111E-1,1.252356E-1,-3.955773E-3,-4.8044422E-1,-1.3603407E-1,1.9484676E-1,-1.0061508E-1,6.579468E-2,-1.3634494E-1,8.702919E-2,-7.9893015E-2],"split_indices":[17,14,28,28,28,3,14,17,1,0,17,1,14,17,14,4,0,17,25,18,14,17,16,0,0,25,8,24,28,2,10,3,17,0,14,14,16,23,22,0,17,0,0,17,28,26,15,25,25,15,14,1,23,14,17,1,3,14,3,0,0,0,0,0,0,0,0,0,0,0,0,0,0,0,0,0,0,0,0,0,0,0,0,0,0,0,0,0,0,0,0,0,0,0,0,0,0,0,0,0,0,0,0,0,0,0,0],"split_type":[0,0,0,0,0,0,0,0,0,0,0,0,0,0,0,0,0,0,0,0,0,0,0,0,0,0,0,0,0,0,0,0,0,0,0,0,0,0,0,0,0,0,0,0,0,0,0,0,0,0,0,0,0,0,0,0,0,0,0,0,0,0,0,0,0,0,0,0,0,0,0,0,0,0,0,0,0,0,0,0,0,0,0,0,0,0,0,0,0,0,0,0,0,0,0,0,0,0,0,0,0,0,0,0,0,0,0],"sum_hessian":[2.0508098E3,4.7534613E2,1.5754636E3,2.3076855E2,2.4457759E2,4.0384763E2,1.171616E3,2.7689684E1,2.0307887E2,1.5769616E1,2.2880797E2,9.529125E0,3.943185E2,7.838042E2,3.878118E2,1.7926159E1,9.763526E0,1.4243684E2,6.064203E1,1.3083351E1,2.6862657E0,1.7352432E2,5.5283646E1,8.36572E0,1.1634061E0,3.2195883E2,7.235968E1,1.9068082E2,5.9312335E2,1.5053079E2,2.3728099E2,4.517271E0,1.3408887E1,7.463205E0,2.3003213E0,1.3256085E1,1.2918076E2,3.1959639E1,2.868239E1,2.0579824E0,1.1025369E1,1.248565E0,1.4377007E0,1.4095607E2,3.2568256E1,3.9853333E1,1.5430313E1,2.9005673E2,3.190211E1,6.766445E1,4.695227E0,2.903933E1,1.6164148E2,1.6087814E2,4.3224524E2,5.7822758E1,9.270804E1,1.083365E2,1.2894449E2,3.0284245E0,1.4888465E0,6.763496E0,6.6453915E0,1.1138816E0,1.1864398E0,5.999885E0,7.2562E0,1.01785355E2,2.7395403E1,1.2804161E1,1.9155478E1,2.080417E1,7.878219E0,2.915848E0,8.10952E0,1.341331E2,6.8229694E0,7.129011E0,2.5439245E1,2.7848251E1,1.200508E1,1.0443278E1,4.987034E0,2.5641245E2,3.3644295E1,2.6061798E1,5.840313E0,6.590646E1,1.7579834E0,2.5272732E0,2.167954E0,3.9213915E0,2.5117937E1,6.1958424E1,9.968306E1,1.21283104E2,3.959504E1,1.0138058E2,3.3086465E2,1.2425338E1,4.539742E1,1.5247805E1,7.7460236E1,4.2624626E1,6.571188E1,1.0238012E2,2.6564363E1],"tree_param":{"num_deleted":"0","num_feature":"29","num_nodes":"107","size_leaf_vector":"1"}},{"base_weights":[-1.4427577E-3,1.559291E-1,-4.18254E-2,-2.1552564E-1,2.2986315E-1,-8.0423765E-2,9.819676E-2,3.7779576E-1,-4.6620443E-1,5.522588E-1,1.4173882E-1,2.3520011E-2,-2.1889456E-1,1.4184533E-1,-4.5621464E-1,5.762335E-1,-7.6477677E-1,-8.307882E-1,-1.7328968E-2,9.645892E-1,2.698839E-1,4.0481284E-1,2.6033788E-3,8.376321E-3,7.1070266E-1,-4.7787413E-1,-9.333524E-2,9.055416E-1,1.094599E-1,-7.76149E-1,3.7864178E-1,1.1459721E0,1.469922E-1,-4.0289488E-1,6.2368907E-2,-1.0566059E0,5.2622065E-2,-5.564987E-1,9.0109E-1,-2.1867509E-1,1.1122047E0,-6.720531E-1,4.6540597E-1,4.7921747E-1,-1.2689188E0,-5.2339125E-1,1.8700562E-1,1.9274715E-2,-9.5264775E-1,4.1876173E-1,1.5929049E-1,-5.306996E-1,6.963826E-1,2.6878318E-1,-1.7075397E-1,1.2015723E0,-3.6305004E-1,-9.482832E-2,2.5949475E-1,-6.073238E-2,-1.1945208E0,3.745399E-1,-4.580678E-1,1.5192921E-2,3.9930293E-1,2.2685252E-1,-1.1354805E-1,-3.8006836E-1,5.7253566E-2,-3.4102625E-1,1.8638293E-1,2.5701144E-1,-2.4622986E-1,3.9513415E-1,-3.04998E-1,3.599991E-1,-1.4727941E-1,-3.692711E-1,1.6194141E-1,2.384547E-1,-1.5400929E-2,3.9402372E-1,1.0919441E-1,-1.0538209E-1,-4.394681E-1,3.188358E-2,-2.7765763E-1,1.5653524E-1,-1.612184E-2,-2.9775396E-3,1.0417153E-1,2.2949629E-1,-3.9891347E-1,-3.1291062E-1,2.466168E-1,-1.1511761E-1,-3.315648E-1,-1.06655054E-1,3.0554375E-1,3.0925673E-1,3.8375095E-2,-7.506579E-2,6.744371E-2,8.344964E-3,5.241912E-1,7.978602E-2,-2.322716E-1,-1.8334574E-1,6.206832E-3,1.12878464E-1,-3.361406E-2,-2.107787E-1,2.0170474E-1,-4.0882108E-1,6.643537E-2,-2.933023E-1,8.712148E-2],"categories":[],"categories_nodes":[],"categories_segments":[],"categories_sizes":[],"default_left":[0,0,0,0,0,0,0,0,0,0,0,0,0,0,0,0,0,0,0,0,0,0,0,0,0,0,0,0,0,0,0,0,0,0,0,0,0,0,0,0,0,0,0,0,0,0,0,0,0,0,0,0,0,0,0,0,0,0,0,0,0,0,0,0,0,0,0,0,0,0,0,0,0,0,0,0,0,0,0,0,0,0,0,0,0,0,0,0,0,0,0,0,0,0,0,0,0,0,0,0,0,0,0,0,0,0,0,0,0,0,0,0,0,0,0,0,0],"id":6,"left_children":[1,3,5,7,9,11,13,15,17,19,21,23,25,27,29,31,33,35,37,39,41,43,45,47,49,51,53,55,57,59,61,63,65,-1,-1,67,69,71,73,-1,75,77,79,81,83,85,87,89,91,-1,93,95,97,99,101,103,105,107,109,111,113,-1,115,-1,-1,-1,-1,-1,-1,-1,-1,-1,-1,-1,-1,-1,-1,-1,-1,-1,-1,-1,-1,-1,-1,-1,-1,-1,-1,-1,-1,-1,-1,-1,-1,-1,-1,-1,-1,-1,-1,-1,-1,-1,-1,-1,-1,-1,-1,-1,-1,-1,-1,-1,-1,-1,-1],"loss_changes":[1.2886953E1,1.1421865E1,8.729319E0,1.0476674E1,9.747309E0,1.8220276E1,8.5140295E0,5.229683E0,8.026378E0,8.3433075E0,9.98951E0,7.526236E0,1.7603886E1,7.925038E0,7.1636295E0,4.3721585E0,2.2787015E0,5.459959E0,1.1911609E1,8.222111E0,8.64592E0,1.2365606E1,1.751149E1,7.446284E0,5.6695113E0,1.1347321E1,1.0328165E1,5.3411455E0,9.59902E0,5.591016E0,6.247035E0,1.5196838E0,4.043151E0,0E0,0E0,5.914068E0,5.080665E0,6.356279E0,8.443926E0,0E0,4.482914E0,6.2089796E0,6.5200806E0,8.281258E0,2.5737286E-1,1.1965245E1,1.0801052E1,6.7283516E0,6.180532E0,0E0,8.642439E0,1.3923939E1,3.0899086E0,6.8448315E0,9.573739E0,6.8833475E0,1.043674E0,7.945663E0,7.867298E0,4.2535715E0,3.1329403E0,0E0,2.114188E0,0E0,0E0,0E0,0E0,0E0,0E0,0E0,0E0,0E0,0E0,0E0,0E0,0E0,0E0,0E0,0E0,0E0,0E0,0E0,0E0,0E0,0E0,0E0,0E0,0E0,0E0,0E0,0E0,0E0,0E0,0E0,0E0,0E0,0E0,0E0,0E0,0E0,0E0,0E0,0E0,0E0,0E0,0E0,0E0,0E0,0E0,0E0,0E0,0E0,0E0,0E0,0E0,0E0,0E0],"parents":[2147483647,0,0,1,1,2,2,3,3,4,4,5,5,6,6,7,7,8,8,9,9,10,10,11,11,12,12,13,13,14,14,15,15,16,16,17,17,18,18,19,19,20,20,21,21,22,22,23,23,24,24,25,25,26,26,27,27,28,28,29,29,30,30,31,31,32,32,35,35,36,36,37,37,38,38,40,40,41,41,42,42,43,43,44,44,45,45,46,46,47,47,48,48,50,50,51,51,52,52,53,53,54,54,55,55,56,56,57,57,58,58,59,59,60,60,62,62],"right_children":[2,4,6,8,10,12,14,16,18,20,22,24,26,28,30,32,34,36,38,40,42,44,46,48,50,52,54,56,58,60,62,64,66,-1,-1,68,70,72,74,-1,76,78,80,82,84,86,88,90,92,-1,94,96,98,100,102,104,106,108,110,112,114,-1,116,-1,-1,-1,-1,-1,-1,-1,-1,-1,-1,-1,-1,-1,-1,-1,-1,-1,-1,-1,-1,-1,-1,-1,-1,-1,-1,-1,-1,-1,-1,-1,-1,-1,-1,-1,-1,-1,-1,-1,-1,-1,-1,-1,-1,-1,-1,-1,-1,-1,-1,-1,-1,-1,-1],"split_conditions":[-6.033495E-1,-1.061623E0,1.3303713E0,-6.711249E-1,-3.4258392E-1,-1.7736748E-1,1.0996447E0,-4.4191197E-1,-3.6180735E-2,-1.895533E-1,-6.268586E-1,1.5431404E0,-3.0501613E-1,-1.3480337E0,1.628264E0,-2.7276134E-1,-6.7398834E-1,9.499744E-1,-1.3789132E0,-7.591444E-1,-7.2897834E-1,1.5685893E0,-8.508869E-1,1.2961903E0,5.7465297E-1,2.0031621E0,-5.2511543E-1,1.0165601E0,7.02698E-1,-1.2816197E-1,1.9006554E0,-8.623413E-1,-7.088462E-1,-4.0289488E-1,6.2368907E-2,7.37156E-1,5.8730197E-1,-1.2295246E0,6.9691163E-1,-2.1867509E-1,6.4030766E-1,4.7055596E-1,8.943359E-1,-8.1376964E-1,8.416192E-1,-1.3806429E0,8.498598E-2,7.06224E-1,-4.896577E-1,4.1876173E-1,1.0765841E0,-4.6122707E-2,7.8327075E-2,-1.1488932E0,6.318639E-1,-3.2419214E-1,1.7591625E-1,-8.5277045E-1,1.8905842E0,1.6623791E0,2.5813544E0,3.745399E-1,2.3653722E0,1.5192921E-2,3.9930293E-1,2.2685252E-1,-1.1354805E-1,-3.8006836E-1,5.7253566E-2,-3.4102625E-1,1.8638293E-1,2.5701144E-1,-2.4622986E-1,3.9513415E-1,-3.04998E-1,3.599991E-1,-1.4727941E-1,-3.692711E-1,1.6194141E-1,2.384547E-1,-1.5400929E-2,3.9402372E-1,1.0919441E-1,-1.0538209E-1,-4.394681E-1,3.188358E-2,-2.7765763E-1,1.5653524E-1,-1.612184E-2,-2.9775396E-3,1.0417153E-1,2.2949629E-1,-3.9891347E-1,-3.1291062E-1,2.466168E-1,-1.1511761E-1,-3.315648E-1,-1.06655054E-1,3.0554375E-1,3.0925673E-1,3.8375095E-2,-7.506579E-2,6.744371E-2,8.344964E-3,5.241912E-1,7.978602E-2,-2.322716E-1,-1.8334574E-1,6.206832E-3,1.12878464E-1,-3.361406E-2,-2.107787E-1,2.0170474E-1,-4.0882108E-1,6.643537E-2,-2.933023E-1,8.712148E-2],"split_indices":[18,28,28,17,17,17,17,14,25,1,14,25,16,26,17,1,3,5,26,25,3,15,28,25,13,21,24,17,26,23,17,5,24,0,0,1,22,5,22,0,23,15,26,16,22,26,17,28,23,0,13,14,26,1,18,16,6,1,13,28,0,0,17,0,0,0,0,0,0,0,0,0,0,0,0,0,0,0,0,0,0,0,0,0,0,0,0,0,0,0,0,0,0,0,0,0,0,0,0,0,0,0,0,0,0,0,0,0,0,0,0,0,0,0,0,0,0],"split_type":[0,0,0,0,0,0,0,0,0,0,0,0,0,0,0,0,0,0,0,0,0,0,0,0,0,0,0,0,0,0,0,0,0,0,0,0,0,0,0,0,0,0,0,0,0,0,0,0,0,0,0,0,0,0,0,0,0,0,0,0,0,0,0,0,0,0,0,0,0,0,0,0,0,0,0,0,0,0,0,0,0,0,0,0,0,0,0,0,0,0,0,0,0,0,0,0,0,0,0,0,0,0,0,0,0,0,0,0,0,0,0,0,0,0,0,0,0],"sum_hessian":[2.0257892E3,4.1309384E2,1.6126953E3,6.825522E1,3.4483862E2,1.2645393E3,3.4815598E2,2.0122055E1,4.8133163E1,7.289424E1,2.719444E2,7.227978E2,5.417416E2,3.2343613E2,2.4719833E1,1.7566792E1,2.5552645E0,2.60909E1,2.2042263E1,2.8647093E1,4.424715E1,9.341259E1,1.785318E2,7.0820306E2,1.4594736E1,1.759728E2,3.6576877E2,1.2060898E1,3.1137524E2,1.7922052E1,6.797782E0,6.8306293E0,1.0736162E1,1.3638246E0,1.1914399E0,2.0623148E1,5.4677534E0,1.4137014E1,7.905248E0,1.9811033E0,2.666599E1,7.1868634E0,3.7060287E1,9.012005E1,3.2925441E0,4.5865456E1,1.3266635E2,7.012308E2,6.972291E0,5.8251343E0,8.769602E0,1.6892168E2,7.0511103E0,6.3990013E1,3.0177875E2,9.821778E0,2.2391195E0,1.3200479E2,1.7937044E2,7.035868E0,1.0886184E1,3.0916533E0,3.7061284E0,1.1712308E0,5.6593986E0,4.7688026E0,5.9673595E0,1.7634785E1,2.9883623E0,1.4454596E0,4.0222936E0,1.873961E0,1.2263053E1,6.753408E0,1.1518402E0,2.5519915E1,1.1460748E0,4.9078727E0,2.2789907E0,2.230305E1,1.4757237E1,9.676226E0,8.044382E1,1.0708358E0,2.2217083E0,1.8162289E1,2.7703169E1,5.5006836E1,7.765951E1,6.4479224E2,5.643855E1,1.069879E0,5.902412E0,2.9124143E0,5.8571873E0,1.3583891E2,3.3082756E1,1.6286204E0,5.42249E0,8.997332E0,5.4992683E1,2.516019E2,5.0176857E1,3.4507976E0,6.3709807E0,1.024749E0,1.2143706E0,2.3349615E1,1.0865518E2,1.3646881E2,4.2901634E1,3.7734976E0,3.2623708E0,9.7638445E0,1.1223387E0,2.006763E0,1.6993655E0],"tree_param":{"num_deleted":"0","num_feature":"29","num_nodes":"117","size_leaf_vector":"1"}},{"base_weights":[-1.4006086E-3,5.532077E-1,-9.768744E-3,-5.8794343E-1,7.454299E-1,-1.8747559E-1,1.1499981E-2,2.4190266E-2,-2.407698E-1,9.140306E-1,-3.2123614E-2,-2.6741318E-2,-5.639905E-1,1.0507258E-1,-5.6882683E-2,2.6319203E-1,1.0955738E0,5.0359184E-1,-2.9206693E-1,4.3735096E-1,-2.1354218E-1,-6.8928623E-1,5.1713645E-1,5.294374E-1,5.2372053E-2,-1.6438566E-1,1.766253E-2,2.9127926E-1,-3.4099382E-1,9.894747E-3,1.1835424E0,1.4839284E-2,1.9609036E-1,2.134732E-1,9.7902733E-1,-1.1280813E-1,-1.2630632E0,-3.520196E-1,-9.28979E-1,8.1145394E-1,-1.5143491E-1,8.7449896E-1,1.3860492E-1,9.514821E-1,3.3831608E-2,-1.9299175E-1,4.3573886E-1,-4.047495E-2,2.3414278E-1,-3.007135E-1,1.1925037E-1,4.971606E-2,3.7760633E-1,6.801812E-3,2.783832E-1,3.8241547E-2,3.5706455E-1,-1.04336774E-4,-3.138649E-1,-4.3339282E-1,2.2498801E-2,1.6030227E-1,-1.9959693E-1,-3.1884962E-1,1.4569925E-4,-1.0507615E-2,3.462433E-1,3.662558E-1,1.3038866E-1,9.19969E-2,-3.423374E-1,-1.3597886E-1,3.647475E-1,-3.8954407E-2,4.567061E-2,1.0486809E-1,-6.752479E-2,-3.1726643E-1,1.9384292E-1,1.1095033E-1,-2.0583741E-2,4.1699E-1,5.706233E-2],"categories":[],"categories_nodes":[],"categories_segments":[],"categories_sizes":[],"default_left":[0,0,0,0,0,0,0,0,0,0,0,0,0,0,0,0,0,0,0,0,0,0,0,0,0,0,0,0,0,0,0,0,0,0,0,0,0,0,0,0,0,0,0,0,0,0,0,0,0,0,0,0,0,0,0,0,0,0,0,0,0,0,0,0,0,0,0,0,0,0,0,0,0,0,0,0,0,0,0,0,0,0,0],"id":7,"left_children":[1,3,5,7,9,11,13,-1,-1,15,17,19,21,23,25,27,29,31,-1,33,35,37,39,41,43,45,47,-1,49,-1,51,-1,-1,53,55,57,59,61,63,65,-1,67,69,71,73,75,77,79,81,-1,-1,-1,-1,-1,-1,-1,-1,-1,-1,-1,-1,-1,-1,-1,-1,-1,-1,-1,-1,-1,-1,-1,-1,-1,-1,-1,-1,-1,-1,-1,-1,-1,-1],"loss_changes":[9.313028E0,6.98104E0,7.4732027E0,7.619468E-1,3.43371E0,1.2775402E1,1.1308272E1,0E0,0E0,2.2372036E0,3.3112998E0,1.3025019E1,8.915007E0,1.6659405E1,8.186455E0,2.8873339E0,1.4936447E0,2.554847E-1,0E0,5.022253E0,1.1172844E1,4.284754E0,2.5550416E0,1.0980064E1,1.1050557E1,7.2642765E0,7.6102905E0,0E0,2.3350887E0,0E0,9.474354E-1,0E0,0E0,4.314151E0,2.0668058E0,1.0365934E1,2.3618317E0,7.384144E0,4.073469E0,1.7581801E0,0E0,6.101162E0,8.906438E0,5.5253487E0,1.2664242E1,7.041561E0,6.7587795E0,5.5315447E0,6.235658E0,0E0,0E0,0E0,0E0,0E0,0E0,0E0,0E0,0E0,0E0,0E0,0E0,0E0,0E0,0E0,0E0,0E0,0E0,0E0,0E0,0E0,0E0,0E0,0E0,0E0,0E0,0E0,0E0,0E0,0E0,0E0,0E0,0E0,0E0],"parents":[2147483647,0,0,1,1,2,2,3,3,4,4,5,5,6,6,9,9,10,10,11,11,12,12,13,13,14,14,15,15,16,16,17,17,19,19,20,20,21,21,22,22,23,23,24,24,25,25,26,26,28,28,30,30,33,33,34,34,35,35,36,36,37,37,38,38,39,39,41,41,42,42,43,43,44,44,45,45,46,46,47,47,48,48],"right_children":[2,4,6,8,10,12,14,-1,-1,16,18,20,22,24,26,28,30,32,-1,34,36,38,40,42,44,46,48,-1,50,-1,52,-1,-1,54,56,58,60,62,64,66,-1,68,70,72,74,76,78,80,82,-1,-1,-1,-1,-1,-1,-1,-1,-1,-1,-1,-1,-1,-1,-1,-1,-1,-1,-1,-1,-1,-1,-1,-1,-1,-1,-1,-1,-1,-1,-1,-1,-1,-1],"split_conditions":[-9.6602887E-1,-5.431706E-1,-9.7761536E-1,-4.8649773E-1,1.0888345E0,-5.172773E-1,-4.0658242E-1,2.4190266E-2,-2.407698E-1,-1.230798E0,-4.2501858E-1,-6.4293796E-1,7.595888E-1,-4.6924287E-1,-2.659114E-1,-6.5276945E-1,-8.534977E-1,1.3522844E0,-2.9206693E-1,-6.6999805E-1,9.342014E-1,-6.243942E-1,2.2989604E0,9.0464157E-1,-1.3925394E0,2.030073E0,1.1241947E0,2.9127926E-1,-1.7836085E-1,9.894747E-3,-1.2483227E0,1.4839284E-2,1.9609036E-1,-1.0681303E0,-6.841166E-1,-2.071699E-1,9.350182E-1,-6.4129245E-1,-1.1191999E-1,-1.3658867E0,-1.5143491E-1,-4.9312708E-1,-4.326505E-1,-1.1522467E0,-7.585756E-1,-8.527842E-1,7.539644E-1,-6.2868994E-1,6.616737E-1,-3.007135E-1,1.1925037E-1,4.971606E-2,3.7760633E-1,6.801812E-3,2.783832E-1,3.8241547E-2,3.5706455E-1,-1.04336774E-4,-3.138649E-1,-4.3339282E-1,2.2498801E-2,1.6030227E-1,-1.9959693E-1,-3.1884962E-1,1.4569925E-4,-1.0507615E-2,3.462433E-1,3.662558E-1,1.3038866E-1,9.19969E-2,-3.423374E-1,-1.3597886E-1,3.647475E-1,-3.8954407E-2,4.567061E-2,1.0486809E-1,-6.752479E-2,-3.1726643E-1,1.9384292E-1,1.1095033E-1,-2.0583741E-2,4.1699E-1,5.706233E-2],"split_indices":[23,25,28,17,5,14,18,0,0,2,3,17,25,17,16,24,16,5,0,24,26,17,3,26,26,0,18,0,16,0,15,0,0,28,16,17,26,18,14,1,0,18,24,4,28,17,28,24,6,0,0,0,0,0,0,0,0,0,0,0,0,0,0,0,0,0,0,0,0,0,0,0,0,0,0,0,0,0,0,0,0,0,0],"split_type":[0,0,0,0,0,0,0,0,0,0,0,0,0,0,0,0,0,0,0,0,0,0,0,0,0,0,0,0,0,0,0,0,0,0,0,0,0,0,0,0,0,0,0,0,0,0,0,0,0,0,0,0,0,0,0,0,0,0,0,0,0,0,0,0,0,0,0,0,0,0,0,0,0,0,0,0,0,0,0,0,0,0,0],"sum_hessian":[2.0045049E3,2.882737E1,1.9756776E3,3.8590388E0,2.4968332E1,2.103471E2,1.7653304E3,1.0894756E0,2.7695632E0,2.0374834E1,4.5934973E0,1.4816602E2,6.2181084E1,7.451521E2,1.02017834E3,4.97806E0,1.5396775E1,3.223989E0,1.369508E0,4.213747E1,1.0602855E2,5.604792E1,6.1331644E0,8.131626E1,6.638359E2,4.172498E2,6.029286E2,2.0130181E0,2.9650416E0,1.2823181E0,1.4114457E1,1.1308781E0,2.093111E0,3.0801245E1,1.1336224E1,9.7753555E1,8.274996E0,2.431019E1,3.1737732E1,4.921656E0,1.2115083E0,4.2529728E1,3.8786533E1,1.2395644E1,6.514402E2,3.9891324E2,1.8336546E1,4.759275E2,1.2700106E2,1.3756791E0,1.5893624E0,1.1907972E0,1.2923659E1,2.5123667E1,5.6775794E0,2.5713933E0,8.76483E0,8.813509E1,9.618458E0,7.216091E0,1.0589044E0,6.164584E0,1.8145605E1,2.7617085E1,4.120647E0,1.6770266E0,3.2446294E0,2.2800854E1,1.9728876E1,3.4956493E1,3.8300393E0,1.8499805E0,1.0545664E1,2.7339975E2,3.7804047E2,2.1724813E1,3.7718842E2,1.7672937E0,1.6569252E1,2.976352E1,4.4616397E2,3.5288448E0,1.2347221E2],"tree_param":{"num_deleted":"0","num_feature":"29","num_nodes":"83","size_leaf_vector":"1"}},{"base_weights":[-3.034145E-4,6.659424E-2,-5.2454364E-2,5.490151E-2,1.0446965E0,-2.4759007E-1,-1.9351237E-2,1.4234784E-1,-5.0743993E-2,1.302727E0,-4.7531556E-2,-9.432128E-2,-7.154005E-1,4.413731E-1,-3.694218E-2,-1.2103116E-1,2.624464E-1,-3.2181567E-1,1.180501E-1,4.2798576E-1,8.645789E-2,9.834656E-2,-3.910225E-1,-8.669078E-1,1.9446999E-1,-2.567904E-1,7.3493606E-1,-1.01642355E-1,6.2335063E-2,8.6997E-3,-4.8221773E-1,3.8184914E-1,-6.022509E-2,1.9132254E-1,-5.4839844E-1,2.749487E-1,-1.7412744E-1,2.7885613E-1,-5.561944E-1,1.3366707E-1,-9.4011164E-1,-1.2288731E-1,-9.559077E-1,-1.6717161E-1,2.607065E-1,8.666161E-1,-8.267734E-1,-3.28502E-1,8.9517635E-1,6.538875E-1,-1.2399365E-1,1.8891408E-1,-1.2461938E-1,1.0082261E-1,-6.3527785E-2,8.073902E-2,-2.2150357E-1,2.441037E-1,6.3122764E-2,-1.9834642E-1,4.194826E-2,4.2562088E-1,-3.0278908E-2,-8.071223E-2,-2.4284185E-1,1.9271705E-1,-2.651202E-4,-1.485229E-1,8.1902124E-2,3.00064E-1,9.4619645E-3,2.5049943E-1,-2.5806013E-1,-1.663683E-1,1.3816859E-1,-3.6566922E-1,2.9458532E-2,1.6567554E-1,-2.3803261E-1,5.2121013E-2,-3.069326E-1,-2.556543E-1,6.962722E-2,3.5677457E-1,-9.507075E-3,1.5070456E-1,-3.3959267E-1,-1.1004607E-1,3.2099646E-1,9.892261E-3,3.3645603E-1,-3.1659186E-1,-3.0742276E-2,1.2220087E-1,6.6103414E-3,-8.6559474E-2,5.9934262E-2],"categories":[],"categories_nodes":[],"categories_segments":[],"categories_sizes":[],"default_left":[0,0,0,0,0,0,0,0,0,0,0,0,0,0,0,0,0,0,0,0,0,0,0,0,0,0,0,0,0,0,0,0,0,0,0,0,0,0,0,0,0,0,0,0,0,0,0,0,0,0,0,0,0,0,0,0,0,0,0,0,0,0,0,0,0,0,0,0,0,0,0,0,0,0,0,0,0,0,0,0,0,0,0,0,0,0,0,0,0,0,0,0,0,0,0,0,0],"id":8,"left_children":[1,3,5,7,9,11,13,15,17,19,-1,21,23,25,27,29,31,33,35,-1,-1,37,39,41,43,45,47,49,51,53,55,57,59,61,63,65,67,69,71,73,75,77,79,81,-1,83,85,-1,87,89,91,93,95,-1,-1,-1,-1,-1,-1,-1,-1,-1,-1,-1,-1,-1,-1,-1,-1,-1,-1,-1,-1,-1,-1,-1,-1,-1,-1,-1,-1,-1,-1,-1,-1,-1,-1,-1,-1,-1,-1,-1,-1,-1,-1,-1,-1],"loss_changes":[6.956513E0,9.932465E0,7.2330585E0,7.991208E0,3.3926E0,1.1578616E1,7.789023E0,1.4996688E1,1.7979685E1,6.647043E-1,0E0,7.0980206E0,5.673214E0,7.433515E0,5.9459496E0,6.9789605E0,1.2554211E1,1.7631382E1,1.1159173E1,0E0,0E0,9.09596E0,1.419128E1,2.1613903E0,1.7350278E0,7.89103E0,8.353111E0,9.541659E0,8.672408E0,8.046155E0,7.771962E0,1.741441E1,1.0757293E1,1.6972198E1,7.4275627E0,1.60229E1,1.23757E1,1.0669321E1,7.7777934E0,6.0690913E0,7.0612564E0,2.6222606E0,2.4999523E0,1.5874438E0,0E0,1.2722206E0,3.791522E0,0E0,5.6142464E0,4.6833E0,1.0813749E1,7.949041E0,7.9353857E0,0E0,0E0,0E0,0E0,0E0,0E0,0E0,0E0,0E0,0E0,0E0,0E0,0E0,0E0,0E0,0E0,0E0,0E0,0E0,0E0,0E0,0E0,0E0,0E0,0E0,0E0,0E0,0E0,0E0,0E0,0E0,0E0,0E0,0E0,0E0,0E0,0E0,0E0,0E0,0E0,0E0,0E0,0E0,0E0],"parents":[2147483647,0,0,1,1,2,2,3,3,4,4,5,5,6,6,7,7,8,8,9,9,11,11,12,12,13,13,14,14,15,15,16,16,17,17,18,18,21,21,22,22,23,23,24,24,25,25,26,26,27,27,28,28,29,29,30,30,31,31,32,32,33,33,34,34,35,35,36,36,37,37,38,38,39,39,40,40,41,41,42,42,43,43,45,45,46,46,48,48,49,49,50,50,51,51,52,52],"right_children":[2,4,6,8,10,12,14,16,18,20,-1,22,24,26,28,30,32,34,36,-1,-1,38,40,42,44,46,48,50,52,54,56,58,60,62,64,66,68,70,72,74,76,78,80,82,-1,84,86,-1,88,90,92,94,96,-1,-1,-1,-1,-1,-1,-1,-1,-1,-1,-1,-1,-1,-1,-1,-1,-1,-1,-1,-1,-1,-1,-1,-1,-1,-1,-1,-1,-1,-1,-1,-1,-1,-1,-1,-1,-1,-1,-1,-1,-1,-1,-1,-1],"split_conditions":[-3.6162397E-1,9.862969E-1,-7.8112805E-1,-1.268448E-1,6.547637E-1,-3.7440246E-1,-6.1466193E-1,-1.0120013E0,-6.676889E-1,1.3690768E-1,-4.7531556E-2,5.580927E-1,1.8337485E0,-6.6315603E-1,3.374779E-1,-4.4189253E-1,1.281016E-1,-7.147386E-1,4.187111E-1,4.2798576E-1,8.645789E-2,-8.526993E-2,-1.8246664E-1,-7.323624E-1,1.0548148E0,-7.0067275E-1,-7.0896053E-1,-7.3984194E-1,2.964457E-1,-6.104882E-1,-7.0604485E-1,-6.033495E-1,-5.5066127E-1,-1.4148095E0,-1.8337268E-2,-2.5427857E-1,1.4153469E0,-4.1883495E-1,-3.0601868E-1,-7.6278263E-1,3.9638937E-1,-7.506548E-2,-1.8300573E0,1.8596283E0,2.607065E-1,-6.9642377E-1,-7.3851323E-1,-3.28502E-1,-4.8143503E-1,-4.308116E-1,-5.914289E-1,-1.2592424E-1,6.5874153E-1,1.0082261E-1,-6.3527785E-2,8.073902E-2,-2.2150357E-1,2.441037E-1,6.3122764E-2,-1.9834642E-1,4.194826E-2,4.2562088E-1,-3.0278908E-2,-8.071223E-2,-2.4284185E-1,1.9271705E-1,-2.651202E-4,-1.485229E-1,8.1902124E-2,3.00064E-1,9.4619645E-3,2.5049943E-1,-2.5806013E-1,-1.663683E-1,1.3816859E-1,-3.6566922E-1,2.9458532E-2,1.6567554E-1,-2.3803261E-1,5.2121013E-2,-3.069326E-1,-2.556543E-1,6.962722E-2,3.5677457E-1,-9.507075E-3,1.5070456E-1,-3.3959267E-1,-1.1004607E-1,3.2099646E-1,9.892261E-3,3.3645603E-1,-3.1659186E-1,-3.0742276E-2,1.2220087E-1,6.6103414E-3,-8.6559474E-2,5.9934262E-2],"split_indices":[14,16,28,17,1,17,24,28,28,3,0,5,3,24,15,17,16,14,17,0,0,25,14,0,25,24,25,0,23,1,18,18,14,15,17,23,28,22,14,15,18,3,1,19,0,28,28,0,18,16,24,3,16,0,0,0,0,0,0,0,0,0,0,0,0,0,0,0,0,0,0,0,0,0,0,0,0,0,0,0,0,0,0,0,0,0,0,0,0,0,0,0,0,0,0,0,0],"split_type":[0,0,0,0,0,0,0,0,0,0,0,0,0,0,0,0,0,0,0,0,0,0,0,0,0,0,0,0,0,0,0,0,0,0,0,0,0,0,0,0,0,0,0,0,0,0,0,0,0,0,0,0,0,0,0,0,0,0,0,0,0,0,0,0,0,0,0,0,0,0,0,0,0,0,0,0,0,0,0,0,0,0,0,0,0,0,0,0,0,0,0,0,0,0,0,0,0],"sum_hessian":[1.9919681E3,8.724889E2,1.1194794E3,8.632256E2,9.263308E0,1.6142642E2,9.5805286E2,4.721028E2,3.9112274E2,7.55932E0,1.703988E0,1.22495E2,3.8931427E1,3.434821E1,9.2370465E2,1.4785202E2,3.242508E2,1.4974156E2,2.4138118E2,6.3746796E0,1.18464E0,7.467323E1,4.7821766E1,3.3414604E1,5.516822E0,1.0204563E1,2.4143648E1,5.592263E2,3.6447833E2,1.0949836E2,3.835367E1,2.365379E2,8.77129E1,4.5914772E1,1.0382679E2,1.570856E2,8.4295586E1,5.8981316E1,1.5691922E1,2.4841091E1,2.2980675E1,3.8243773E0,2.9590227E1,4.0810547E0,1.435767E0,3.2596128E0,6.9449496E0,1.474246E0,2.2669401E1,1.5256694E1,5.439696E2,2.1732573E2,1.4715262E2,4.385316E1,6.5645195E1,9.737635E0,2.8616032E1,6.6155815E1,1.7038208E2,2.1331425E1,6.638147E1,8.0887575E0,3.782601E1,5.1138027E1,5.2688763E1,6.6787636E1,9.029796E1,4.9009686E1,3.5285904E1,1.4281531E1,4.4699783E1,2.5008545E0,1.3191068E1,7.775175E0,1.7065916E1,1.79793E1,5.0013747E0,1.9935867E0,1.8307906E0,1.5724291E0,2.8017797E1,1.0850533E0,2.9960012E0,2.1599677E0,1.099645E0,1.176307E0,5.768643E0,2.6244774E0,2.0044924E1,7.0140667E0,8.242628E0,1.1200414E1,5.327692E2,9.350276E1,1.2382297E2,9.7831245E1,4.9321373E1],"tree_param":{"num_deleted":"0","num_feature":"29","num_nodes":"97","size_leaf_vector":"1"}},{"base_weights":[-1.6426823E-4,8.575705E-2,-3.893949E-2,1.1010608E-1,-4.864398E-1,-1.1212762E-1,2.657974E-2,-3.2405123E-1,1.3904744E-1,-7.031869E-1,3.105128E-1,8.0086184E-1,-1.3408615E-1,1.005324E-1,-1.7266622E-1,1.3996957E-1,-8.995018E-1,2.00112E-1,-1.3702083E-1,-1.0157293E0,-5.4805353E-2,1.1726909E-1,1.3485018E0,-2.7644807E-1,-2.8892675E-2,4.6633914E-1,7.914056E-4,-2.2925939E-1,1.0040617E0,-1.9061327E-1,7.370511E-1,3.5910937E-1,-1.1577137E0,1.7708524E-1,9.624004E-1,-5.0651014E-1,8.016649E-2,-1.2299728E0,-1.234679E-1,7.6791996E-1,-6.090637E-1,4.1037786E-1,-4.515743E-1,4.506983E-1,4.9642723E-2,-2.1538502E-1,-9.5219386E-1,5.8967346E-1,-1.02902584E-1,5.688428E-1,-4.2526618E-1,3.433222E-2,-5.469837E-1,-4.7852963E-1,-9.099955E-2,-6.296053E-3,1.1540221E0,-1.901644E-1,1.5599222E-1,3.821325E-1,7.8103533E-3,-1.6231522E-1,2.9575932E-1,5.2761346E-2,-4.0282634E-1,8.0946326E-2,-1.7524133E-2,3.3734277E-1,-1.3389872E-1,-7.860895E-2,-3.3852553E-1,7.8061424E-2,-1.2885292E-1,-4.298522E-1,-1.3365184E-1,-1.7814119E-1,1.3782866E-1,-3.9753183E-3,3.2995534E-1,-2.4497283E-1,3.3466984E-2,-3.1539768E-1,3.2024887E-1,9.624874E-2,-9.24402E-2,6.86009E-2,-3.2701576E-1,-5.1521678E-2,2.5150374E-1,-1.11323595E-1,8.168121E-4,2.772635E-1,5.5247754E-2,1.4854336E-1,-4.1890594E-1,1.18285336E-1,-9.907827E-3,1.5449393E-1,-2.3885499E-1,9.0279825E-2,-1.9990659E-1,1.8522002E-1,-5.764185E-2,3.9000008E-1,8.70889E-2],"categories":[],"categories_nodes":[],"categories_segments":[],"categories_sizes":[],"default_left":[0,0,0,0,0,0,0,0,0,0,0,0,0,0,0,0,0,0,0,0,0,0,0,0,0,0,0,0,0,0,0,0,0,0,0,0,0,0,0,0,0,0,0,0,0,0,0,0,0,0,0,0,0,0,0,0,0,0,0,0,0,0,0,0,0,0,0,0,0,0,0,0,0,0,0,0,0,0,0,0,0,0,0,0,0,0,0,0,0,0,0,0,0,0,0,0,0,0,0,0,0,0,0,0,0],"id":9,"left_children":[1,3,5,7,9,11,13,15,17,19,-1,21,23,25,27,29,31,33,35,37,39,41,43,45,47,49,51,53,55,57,59,61,63,65,67,69,71,73,75,77,79,-1,81,-1,-1,83,85,87,89,91,93,95,97,99,101,-1,103,-1,-1,-1,-1,-1,-1,-1,-1,-1,-1,-1,-1,-1,-1,-1,-1,-1,-1,-1,-1,-1,-1,-1,-1,-1,-1,-1,-1,-1,-1,-1,-1,-1,-1,-1,-1,-1,-1,-1,-1,-1,-1,-1,-1,-1,-1,-1,-1],"loss_changes":[6.5630994E0,8.588123E0,6.511897E0,7.438113E0,9.034106E0,1.2965206E1,1.05824585E1,1.002466E1,9.338237E0,4.5327177E0,0E0,5.5346117E0,9.383899E0,1.910218E1,1.3180146E1,4.3621335E0,5.837594E0,7.7754173E0,8.116225E0,2.7577648E0,4.3079267E0,6.2087965E0,1.2704906E0,1.0786446E1,1.662259E1,1.0493252E1,7.5955744E0,6.378832E0,1.4244242E0,4.9159093E0,2.953875E0,2.5662925E0,3.7106266E0,9.638732E0,3.4809513E0,5.389386E0,6.0066795E0,1.2971802E0,1.3855233E0,1.0082188E0,9.269173E-1,0E0,6.7287617E0,0E0,0E0,1.231302E1,3.795473E0,7.491989E0,9.177654E0,1.364106E1,1.1540303E1,9.457675E0,6.7225637E0,9.899678E0,8.79517E0,0E0,6.2679577E-1,0E0,0E0,0E0,0E0,0E0,0E0,0E0,0E0,0E0,0E0,0E0,0E0,0E0,0E0,0E0,0E0,0E0,0E0,0E0,0E0,0E0,0E0,0E0,0E0,0E0,0E0,0E0,0E0,0E0,0E0,0E0,0E0,0E0,0E0,0E0,0E0,0E0,0E0,0E0,0E0,0E0,0E0,0E0,0E0,0E0,0E0,0E0,0E0],"parents":[2147483647,0,0,1,1,2,2,3,3,4,4,5,5,6,6,7,7,8,8,9,9,11,11,12,12,13,13,14,14,15,15,16,16,17,17,18,18,19,19,20,20,21,21,22,22,23,23,24,24,25,25,26,26,27,27,28,28,29,29,30,30,31,31,32,32,33,33,34,34,35,35,36,36,37,37,38,38,39,39,40,40,42,42,45,45,46,46,47,47,48,48,49,49,50,50,51,51,52,52,53,53,54,54,56,56],"right_children":[2,4,6,8,10,12,14,16,18,20,-1,22,24,26,28,30,32,34,36,38,40,42,44,46,48,50,52,54,56,58,60,62,64,66,68,70,72,74,76,78,80,-1,82,-1,-1,84,86,88,90,92,94,96,98,100,102,-1,104,-1,-1,-1,-1,-1,-1,-1,-1,-1,-1,-1,-1,-1,-1,-1,-1,-1,-1,-1,-1,-1,-1,-1,-1,-1,-1,-1,-1,-1,-1,-1,-1,-1,-1,-1,-1,-1,-1,-1,-1,-1,-1,-1,-1,-1,-1,-1,-1],"split_conditions":[-9.9074864E-1,1.5947595E0,-2.3760448E-1,-1.1268553E0,7.2110236E-1,-7.7211195E-1,5.545682E-1,-6.4293796E-1,3.3119712E-3,-1.3681227E0,3.105128E-1,6.572944E-1,-4.8914784E-1,-5.8040872E-2,1.7495495E0,-1.1672735E0,-7.7211195E-1,1.3864535E0,-4.2860305E-1,1.10012166E-1,1.0144117E0,2.7023005E-1,-5.375476E-1,-3.7184753E-2,-4.7834077E-1,1.8558025E0,1.3412598E0,5.360367E-3,-8.077253E-1,-2.1148422E-1,-6.1423993E-1,-4.3721545E-1,-7.7956176E-1,1.6475078E-1,8.9717716E-1,-5.5879664E-1,1.0833371E0,1.2039924E0,-6.4540344E-1,-5.417174E-3,8.274526E-2,4.1037786E-1,-3.486966E-1,4.506983E-1,4.9642723E-2,-1.0589805E0,-7.0170397E-1,-1.3463216E0,-8.3896095E-1,5.5535916E-2,-1.5548128E-1,-1.7935494E0,-4.821494E-1,6.2496066E-1,-4.018624E-1,-6.296053E-3,2.3541911E-1,-1.901644E-1,1.5599222E-1,3.821325E-1,7.8103533E-3,-1.6231522E-1,2.9575932E-1,5.2761346E-2,-4.0282634E-1,8.0946326E-2,-1.7524133E-2,3.3734277E-1,-1.3389872E-1,-7.860895E-2,-3.3852553E-1,7.8061424E-2,-1.2885292E-1,-4.298522E-1,-1.3365184E-1,-1.7814119E-1,1.3782866E-1,-3.9753183E-3,3.2995534E-1,-2.4497283E-1,3.3466984E-2,-3.1539768E-1,3.2024887E-1,9.624874E-2,-9.24402E-2,6.86009E-2,-3.2701576E-1,-5.1521678E-2,2.5150374E-1,-1.11323595E-1,8.168121E-4,2.772635E-1,5.5247754E-2,1.4854336E-1,-4.1890594E-1,1.18285336E-1,-9.907827E-3,1.5449393E-1,-2.3885499E-1,9.0279825E-2,-1.9990659E-1,1.8522002E-1,-5.764185E-2,3.9000008E-1,8.70889E-2],"split_indices":[26,15,25,28,5,14,22,17,14,26,0,2,28,25,4,28,14,25,25,25,2,22,24,17,24,12,8,25,16,25,14,0,3,17,4,25,28,2,18,22,6,0,16,0,0,4,14,15,2,22,25,22,15,22,0,0,16,0,0,0,0,0,0,0,0,0,0,0,0,0,0,0,0,0,0,0,0,0,0,0,0,0,0,0,0,0,0,0,0,0,0,0,0,0,0,0,0,0,0,0,0,0,0,0,0],"split_type":[0,0,0,0,0,0,0,0,0,0,0,0,0,0,0,0,0,0,0,0,0,0,0,0,0,0,0,0,0,0,0,0,0,0,0,0,0,0,0,0,0,0,0,0,0,0,0,0,0,0,0,0,0,0,0,0,0,0,0,0,0,0,0,0,0,0,0,0,0,0,0,0,0,0,0,0,0,0,0,0,0,0,0,0,0,0,0,0,0,0,0,0,0,0,0,0,0,0,0,0,0,0,0,0,0],"sum_hessian":[1.9679409E3,6.115676E2,1.3563733E3,5.8738007E2,2.4187567E1,6.4035486E2,7.1601843E2,3.6071075E1,5.51309E2,2.164228E1,2.5452852E0,1.4206511E1,6.261483E2,5.225594E2,1.9345908E2,2.0387865E1,1.5683211E1,4.516762E2,9.963278E1,1.42208E1,7.42148E0,6.8589487E0,7.3475614E0,2.6537683E2,3.607715E2,1.1116795E2,4.1139142E2,1.8535008E2,8.108994E0,1.35606E1,6.8272643E0,2.6032658E0,1.3079946E1,4.3962848E2,1.2047735E1,3.639084E1,6.3241947E1,1.1162137E1,3.0586638E0,2.8321002E0,4.5893803E0,1.7051849E0,5.153764E0,6.2632637E0,1.0842978E0,2.4459315E2,2.0783665E1,3.780813E1,3.229634E2,1.0002998E2,1.1137975E1,3.8853818E2,2.2853254E1,6.524966E1,1.2010043E2,1.1446729E0,6.9643207E0,8.4176035E0,5.1429973E0,3.439449E0,3.3878155E0,1.1246952E0,1.4785705E0,1.5997974E0,1.1480148E1,3.1531616E2,1.2431233E2,1.0985612E1,1.0621238E0,2.714221E1,9.248628E0,4.709541E1,1.6146534E1,8.211961E0,2.9501765E0,1.6824182E0,1.3762455E0,1.1308419E0,1.7012583E0,3.4598982E0,1.1294818E0,3.9157023E0,1.2380613E0,3.570588E1,2.0888727E2,2.1038516E0,1.8679813E1,9.384129E0,2.8424E1,9.0549835E1,2.3241356E2,5.1267136E1,4.8762848E1,5.9698114E0,5.1681633E0,6.0481422E1,3.2805673E2,4.140783E0,1.8712471E1,1.2553087E1,5.2696568E1,1.4367044E1,1.0573339E2,5.5253716E0,1.4389493E0],"tree_param":{"num_deleted":"0","num_feature":"29","num_nodes":"105","size_leaf_vector":"1"}},{"base_weights":[1.9276574E-4,-3.7190178E-3,8.88691E-1,2.0043783E-1,-1.881571E-2,1.1991217E0,-1.2791783E-1,3.282276E-1,-2.2159909E-1,-5.590926E-2,7.673934E-2,1.05137914E-1,4.2330268E-1,4.9624914E-1,-6.799583E-2,6.710202E-1,-3.8946924E-1,-3.8234058E-3,-2.132111E-1,4.3003044E-1,2.876704E-2,5.558082E-1,-2.9114214E-1,-6.248895E-1,2.8077108E-1,3.0371484E-1,-1.1137237E-1,2.58297E-1,-4.7713047E-1,1.3047083E-1,-8.098757E-2,-4.169431E-1,-4.7605976E-2,5.1426816E-1,-3.174269E-1,4.924471E-2,-7.745494E-1,8.448261E-2,2.8008503E-1,8.711824E-2,-3.1179178E-1,1.203927E-1,-2.3929952E-1,-2.0847993E-1,5.7408847E-2,2.4885498E-2,2.079025E-1,-1.2829608E-1,-4.042182E-3,-6.2333602E-2,-2.638397E-1,1.6835679E-1,-3.991992E-2,8.9623034E-2,2.6463345E-1,2.4031906E-3,1.5706728E-1,-4.140869E-1,-4.8947863E-2],"categories":[],"categories_nodes":[],"categories_segments":[],"categories_sizes":[],"default_left":[0,0,0,0,0,0,0,0,0,0,0,0,0,0,0,0,0,0,0,0,0,0,0,0,0,0,0,0,0,0,0,0,0,0,0,0,0,0,0,0,0,0,0,0,0,0,0,0,0,0,0,0,0,0,0,0,0,0,0],"id":10,"left_children":[1,3,5,7,9,11,-1,13,15,17,19,-1,-1,21,23,25,27,29,31,33,35,37,-1,39,41,-1,-1,-1,43,45,47,49,51,53,-1,55,57,-1,-1,-1,-1,-1,-1,-1,-1,-1,-1,-1,-1,-1,-1,-1,-1,-1,-1,-1,-1,-1,-1],"loss_changes":[6.783296E0,5.992824E0,4.0038075E0,7.2933245E0,6.420835E0,7.972441E-1,0E0,6.9021454E0,5.01348E0,1.0688414E1,8.574395E0,0E0,0E0,6.878689E0,6.313261E0,2.2926161E0,3.4062452E0,1.0177722E1,1.0929037E1,8.128133E0,7.393755E0,7.0272713E0,0E0,5.0354295E0,2.9357884E0,0E0,0E0,0E0,3.9447412E0,9.523312E0,1.4592169E1,1.3881744E1,9.446837E0,4.329237E0,0E0,8.542068E0,3.9133358E0,0E0,0E0,0E0,0E0,0E0,0E0,0E0,0E0,0E0,0E0,0E0,0E0,0E0,0E0,0E0,0E0,0E0,0E0,0E0,0E0,0E0,0E0],"parents":[2147483647,0,0,1,1,2,2,3,3,4,4,5,5,7,7,8,8,9,9,10,10,13,13,14,14,15,15,16,16,17,17,18,18,19,19,20,20,21,21,23,23,24,24,28,28,29,29,30,30,31,31,32,32,33,33,35,35,36,36],"right_children":[2,4,6,8,10,12,-1,14,16,18,20,-1,-1,22,24,26,28,30,32,34,36,38,-1,40,42,-1,-1,-1,44,46,48,50,52,54,-1,56,58,-1,-1,-1,-1,-1,-1,-1,-1,-1,-1,-1,-1,-1,-1,-1,-1,-1,-1,-1,-1,-1,-1],"split_conditions":[1.4464629E0,-6.853218E-1,8.558588E-1,9.790893E-1,9.508893E-1,-3.6282343E-1,-1.2791783E-1,-1.316079E0,-7.7211195E-1,-1.8337268E-2,-3.2233974E-1,1.05137914E-1,4.2330268E-1,5.588344E-1,-7.210091E-1,1.4096369E-1,-9.0743047E-1,-4.6967998E-1,-7.307292E-2,1.0517164E0,2.6426635E0,-9.1804737E-1,-2.9114214E-1,-1.1653577E0,6.928263E-2,3.0371484E-1,-1.1137237E-1,2.58297E-1,6.676674E-1,-6.5688413E-1,-8.845815E-1,2.4921241E-1,-1.3580147E0,1.2087802E-1,-3.174269E-1,1.5065306E0,-4.398317E-1,8.448261E-2,2.8008503E-1,8.711824E-2,-3.1179178E-1,1.203927E-1,-2.3929952E-1,-2.0847993E-1,5.7408847E-2,2.4885498E-2,2.079025E-1,-1.2829608E-1,-4.042182E-3,-6.2333602E-2,-2.638397E-1,1.6835679E-1,-3.991992E-2,8.9623034E-2,2.6463345E-1,2.4031906E-3,1.5706728E-1,-4.140869E-1,-4.8947863E-2],"split_indices":[7,18,26,4,28,23,0,26,14,17,24,0,0,3,18,5,16,14,16,17,16,28,0,15,14,0,0,0,15,28,28,17,15,15,0,16,15,0,0,0,0,0,0,0,0,0,0,0,0,0,0,0,0,0,0,0,0,0,0],"split_type":[0,0,0,0,0,0,0,0,0,0,0,0,0,0,0,0,0,0,0,0,0,0,0,0,0,0,0,0,0,0,0,0,0,0,0,0,0,0,0,0,0,0,0,0,0,0,0,0,0,0,0,0,0,0,0,0,0,0,0],"sum_hessian":[1.9497324E3,1.9421774E3,7.5549936E0,1.328832E2,1.8092942E3,6.1835265E0,1.3714675E0,1.0216933E2,3.0713875E1,1.3036462E3,5.0564804E2,1.7656481E0,4.417878E0,7.1567955E1,3.0601372E1,4.387401E0,2.6326473E1,9.801296E2,3.2351663E2,5.9499676E1,4.4614835E2,6.9372025E1,2.195928E0,1.1479603E1,1.9121769E1,3.3265524E0,1.0608487E0,1.1467447E0,2.5179728E1,3.5741107E2,6.2271844E2,1.4437941E2,1.7913722E2,5.693139E1,2.5682878E0,4.3597348E2,1.0174881E1,4.120925E1,2.8162775E1,3.6710227E0,7.80858E0,1.7764132E1,1.3576369E0,1.896211E1,6.217618E0,3.3062933E2,2.6781755E1,1.0063714E2,5.2208136E2,1.0041736E2,4.396205E1,2.1365925E1,1.577713E2,3.7040794E1,1.9890594E1,4.0203934E2,3.3934135E1,4.4793234E0,5.6955576E0],"tree_param":{"num_deleted":"0","num_feature":"29","num_nodes":"59","size_leaf_vector":"1"}},{"base_weights":[-6.539946E-5,3.6610816E-2,-8.6249895E-2,-1.868053E-1,5.8871306E-2,-1.5980037E-1,1.0271506E-1,-2.3677917E-1,7.1000946E-1,3.5301444E-1,3.4900222E-2,-3.1429863E-1,-2.7927412E-2,5.028885E-1,-1.2607051E-2,-9.636418E-2,-6.0851777E-1,9.316435E-2,3.4397712E-1,4.3593654E-1,-6.9150436E-1,2.4528104E-1,6.6562006E-3,-5.9795465E-2,-5.308839E-1,1.6750522E-1,-2.1175268E-1,6.6630733E-1,-6.247174E-1,8.7187454E-2,-3.8393518E-1,3.4224308E-1,-2.5835103E-1,-3.8972613E-1,-1.3775109E0,-7.589192E-2,1.4761247E-1,1.6459738E-1,7.752067E-1,5.466798E-2,-1.0766029E0,2.9719138E-1,-7.842701E-1,7.338719E-2,-9.8201655E-2,5.7130747E-2,-8.173873E-1,-8.1109995E-1,-3.0303764E-1,2.5399128E-1,-5.945193E-1,9.0097773E-1,-2.8197342E-1,2.7490956E-1,1.2066016E0,7.9260655E-2,-4.086956E-1,-4.9725807E-1,2.0864433E-1,-4.131426E-1,-1.9490905E-1,2.2876665E-1,1.0000637E-2,3.8358446E-2,-1.3496603E-1,-3.1570828E-1,4.9526338E-2,-1.0714335E-1,-4.7062188E-1,-2.0213585E-2,2.788124E-1,-1.8808822E-1,2.8054535E-1,2.4698707E-1,-2.0079546E-1,-3.984429E-1,-1.3145132E-1,9.555123E-3,1.616036E-1,-3.7239036E-1,2.226981E-2,-1.8684173E-2,5.2215327E-2,-4.8016656E-2,7.3901705E-2,4.253308E-1,-8.222092E-3,-2.9354826E-1,1.0787104E-1,-2.8717363E-1,1.1063028E-2,-9.351365E-3,-1.7496821E-1,1.09533705E-1,-1.5290383E-1,-4.2581126E-1,-8.966221E-3,-7.650435E-2,4.3289998E-1,1.6762808E-1,-1.1255489E-1,1.8520929E-1,-2.4470781E-1,4.1543743E-1,-8.791286E-2,1.5933536E-1,-3.1986433E-1,2.5173214E-1,2.2239054E-2,-1.7319192E-1,7.127467E-2],"categories":[],"categories_nodes":[],"categories_segments":[],"categories_sizes":[],"default_left":[0,0,0,0,0,0,0,0,0,0,0,0,0,0,0,0,0,0,0,0,0,0,0,0,0,0,0,0,0,0,0,0,0,0,0,0,0,0,0,0,0,0,0,0,0,0,0,0,0,0,0,0,0,0,0,0,0,0,0,0,0,0,0,0,0,0,0,0,0,0,0,0,0,0,0,0,0,0,0,0,0,0,0,0,0,0,0,0,0,0,0,0,0,0,0,0,0,0,0,0,0,0,0,0,0,0,0,0,0,0,0],"id":11,"left_children":[1,3,5,7,9,11,13,15,17,19,21,23,25,27,29,31,33,35,-1,37,39,41,43,45,47,49,51,53,55,57,59,61,63,65,67,-1,-1,69,71,73,75,77,79,81,83,85,87,89,91,93,95,97,99,101,103,-1,-1,105,107,-1,109,-1,-1,-1,-1,-1,-1,-1,-1,-1,-1,-1,-1,-1,-1,-1,-1,-1,-1,-1,-1,-1,-1,-1,-1,-1,-1,-1,-1,-1,-1,-1,-1,-1,-1,-1,-1,-1,-1,-1,-1,-1,-1,-1,-1,-1,-1,-1,-1,-1,-1],"loss_changes":[6.1314197E0,6.778262E0,8.064368E0,5.7044706E0,8.717952E0,8.49148E0,7.5214744E0,6.088223E0,1.7164655E0,8.37309E0,6.807792E0,1.0553005E1,8.161186E0,7.1338606E0,4.7541294E0,6.2457247E0,4.8636045E0,6.621527E-1,0E0,7.8768234E0,2.139492E0,7.480794E0,7.084031E0,7.966983E0,6.3695545E0,7.412919E0,9.395599E0,6.5038977E0,3.72389E0,7.288944E0,4.832405E0,3.0652635E0,4.7814026E0,9.873108E0,7.4999714E-1,0E0,0E0,8.858864E0,9.191277E0,2.4522436E0,1.9277859E-1,8.301773E0,2.7540197E0,8.459233E0,8.430697E0,9.055867E0,2.6310158E0,5.7199135E0,4.4565554E0,8.643054E0,5.327768E0,4.868798E0,8.893275E0,7.9881954E0,3.9556103E0,0E0,0E0,1.0929377E1,7.104747E0,0E0,4.104726E0,0E0,0E0,0E0,0E0,0E0,0E0,0E0,0E0,0E0,0E0,0E0,0E0,0E0,0E0,0E0,0E0,0E0,0E0,0E0,0E0,0E0,0E0,0E0,0E0,0E0,0E0,0E0,0E0,0E0,0E0,0E0,0E0,0E0,0E0,0E0,0E0,0E0,0E0,0E0,0E0,0E0,0E0,0E0,0E0,0E0,0E0,0E0,0E0,0E0,0E0],"parents":[2147483647,0,0,1,1,2,2,3,3,4,4,5,5,6,6,7,7,8,8,9,9,10,10,11,11,12,12,13,13,14,14,15,15,16,16,17,17,19,19,20,20,21,21,22,22,23,23,24,24,25,25,26,26,27,27,28,28,29,29,30,30,31,31,32,32,33,33,34,34,37,37,38,38,39,39,40,40,41,41,42,42,43,43,44,44,45,45,46,46,47,47,48,48,49,49,50,50,51,51,52,52,53,53,54,54,57,57,58,58,60,60],"right_children":[2,4,6,8,10,12,14,16,18,20,22,24,26,28,30,32,34,36,-1,38,40,42,44,46,48,50,52,54,56,58,60,62,64,66,68,-1,-1,70,72,74,76,78,80,82,84,86,88,90,92,94,96,98,100,102,104,-1,-1,106,108,-1,110,-1,-1,-1,-1,-1,-1,-1,-1,-1,-1,-1,-1,-1,-1,-1,-1,-1,-1,-1,-1,-1,-1,-1,-1,-1,-1,-1,-1,-1,-1,-1,-1,-1,-1,-1,-1,-1,-1,-1,-1,-1,-1,-1,-1,-1,-1,-1,-1,-1,-1],"split_conditions":[1.9339772E-1,-1.0378202E0,6.5874153E-1,-3.8666347E-1,-6.5276945E-1,4.987874E-1,8.995332E-1,-5.7683164E-1,-3.7651453E-2,1.4774231E0,-1.1896815E0,-5.2166796E-1,1.4957502E-1,2.0796218E0,2.0613005E0,-6.711249E-1,8.926756E-1,1.2208399E0,3.4397712E-1,-6.510376E-1,-9.2567307E-1,1.1272784E0,-1.8600269E-1,6.928263E-2,-6.882006E-2,2.2989604E0,-6.607687E-1,-6.753437E-2,9.031059E-1,-1.4052002E-1,-1.5604835E0,-2.7276134E-1,-6.970476E-1,-1.3360147E0,-4.070669E-1,-7.589192E-2,1.4761247E-1,1.1132237E0,-6.896602E-1,-6.9227004E-1,-8.657929E-1,-2.9185826E-1,1.4913692E0,-7.9793906E-1,1.4717852E0,-8.58336E-1,1.0106636E0,3.1156293E-1,-1.4938004E-1,8.2117206E-1,2.6797132E0,-5.6650907E-1,-1.4298434E0,-1.3166194E-1,2.3729517E0,7.9260655E-2,-4.086956E-1,-2.7502665E-1,1.1729838E0,-4.131426E-1,5.4617394E-2,2.2876665E-1,1.0000637E-2,3.8358446E-2,-1.3496603E-1,-3.1570828E-1,4.9526338E-2,-1.0714335E-1,-4.7062188E-1,-2.0213585E-2,2.788124E-1,-1.8808822E-1,2.8054535E-1,2.4698707E-1,-2.0079546E-1,-3.984429E-1,-1.3145132E-1,9.555123E-3,1.616036E-1,-3.7239036E-1,2.226981E-2,-1.8684173E-2,5.2215327E-2,-4.8016656E-2,7.3901705E-2,4.253308E-1,-8.222092E-3,-2.9354826E-1,1.0787104E-1,-2.8717363E-1,1.1063028E-2,-9.351365E-3,-1.7496821E-1,1.09533705E-1,-1.5290383E-1,-4.2581126E-1,-8.966221E-3,-7.650435E-2,4.3289998E-1,1.6762808E-1,-1.1255489E-1,1.8520929E-1,-2.4470781E-1,4.1543743E-1,-8.791286E-2,1.5933536E-1,-3.1986433E-1,2.5173214E-1,2.2239054E-2,-1.7319192E-1,7.127467E-2],"split_indices":[23,28,16,18,24,28,16,18,2,5,1,24,17,19,13,17,26,14,0,3,28,3,14,14,1,3,3,24,23,14,5,1,18,26,25,0,0,1,24,24,15,3,3,28,6,16,15,3,5,25,3,5,15,3,21,0,0,14,16,0,15,0,0,0,0,0,0,0,0,0,0,0,0,0,0,0,0,0,0,0,0,0,0,0,0,0,0,0,0,0,0,0,0,0,0,0,0,0,0,0,0,0,0,0,0,0,0,0,0,0,0],"split_type":[0,0,0,0,0,0,0,0,0,0,0,0,0,0,0,0,0,0,0,0,0,0,0,0,0,0,0,0,0,0,0,0,0,0,0,0,0,0,0,0,0,0,0,0,0,0,0,0,0,0,0,0,0,0,0,0,0,0,0,0,0,0,0,0,0,0,0,0,0,0,0,0,0,0,0,0,0,0,0,0,0,0,0,0,0,0,0,0,0,0,0,0,0,0,0,0,0,0,0,0,0,0,0,0,0,0,0,0,0,0,0],"sum_hessian":[1.9377584E3,1.3597048E3,5.780536E2,1.22531624E2,1.2371732E3,4.1620804E2,1.6184554E2,1.1676123E2,5.770396E0,9.219122E1,1.144982E3,1.9102533E2,2.251827E2,3.5454823E1,1.2639072E2,8.5663284E1,3.1097944E1,2.8943563E0,2.87604E0,8.595045E1,6.2407775E0,1.346124E2,1.0103696E3,8.8411545E1,1.0261379E2,1.0918847E2,1.15994225E2,3.1324238E1,4.130586E0,1.002214E2,2.616932E1,2.2804205E1,6.285908E1,2.5382883E1,5.7150617E0,1.7454649E0,1.1488912E0,4.8581455E1,3.7368996E1,2.4165256E0,3.824252E0,1.2882817E2,5.784223E0,6.1761975E2,3.9274985E2,7.739157E1,1.1019974E1,4.4870316E1,5.7743473E1,9.865797E1,1.0530508E1,6.183216E0,1.0981101E2,1.90401E1,1.2284138E1,2.1642048E0,1.9663813E0,1.6711624E1,8.350977E1,3.179212E0,2.2990107E1,9.038074E0,1.376613E1,2.0949322E1,4.190976E1,1.1158771E1,1.42241125E1,1.3546244E0,4.3604374E0,3.7974686E1,1.0606769E1,3.5272427E0,3.384175E1,1.1055994E0,1.3109262E0,1.9683921E0,1.8558599E0,6.1921764E1,6.69064E1,3.4837365E0,2.3004866E0,2.632334E2,3.5438635E2,3.334267E2,5.9323166E1,3.6045957E0,7.378698E1,9.841458E0,1.1785159E0,3.8164036E1,6.7062793E0,2.9871035E1,2.7872438E1,8.658147E1,1.2076496E1,3.6640396E0,6.8664684E0,2.142766E0,4.04045E0,1.0460897E1,9.935011E1,1.4820355E1,4.2197447E0,1.1047988E1,1.2361499E0,5.9762297E0,1.0735395E1,1.376336E1,6.9746414E1,1.2023981E1,1.09661255E1],"tree_param":{"num_deleted":"0","num_feature":"29","num_nodes":"111","size_leaf_vector":"1"}},{"base_weights":[-7.0571864E-4,6.0945716E-2,-3.9417304E-2,-8.253113E-1,7.145853E-2,-4.7733966E-1,-1.20335715E-2,9.85928E-2,-1.1488107E0,1.9869599E-1,5.544872E-3,-8.6914784E-1,1.0315993E-2,2.0806016E-1,-4.9526036E-2,-5.4712873E-3,-1.3394921E0,-4.8473004E-2,3.2994378E-1,2.8197696E-2,-5.947178E-1,5.6605184E-1,-9.848386E-1,-3.797432E-1,1.220567E-1,1.3078048E0,1.2842424E-1,-5.6459635E-1,-2.2993168E-2,-4.3512014E-1,-1.2136765E-1,-2.9824173E-1,3.2954547E-1,5.2906024E-1,-6.465123E-2,-3.3471376E-1,6.897537E-2,6.1507154E-1,-1.0630527E0,2.594181E-1,-4.860349E-3,1.711432E-1,-1.0483706E0,5.8359325E-1,-1.9368118E-1,1.5017022E0,1.1091401E-1,4.110858E-1,-7.1068965E-2,-8.0477256E-1,4.5943254E-1,-7.564602E-1,-7.860389E-3,9.248438E-2,-1.4904611E-1,1.7430214E-2,2.6711947E-1,1.8544477E-1,-1.7877673E-1,-1.7956057E-1,1.6096891E-1,3.053112E-1,-1.3390322E-1,-8.690106E-2,3.5327822E-2,3.300296E-1,9.3825794E-5,-9.221594E-3,-3.6829615E-1,-3.392138E-1,7.565783E-2,3.6967927E-1,-6.080829E-2,-1.9346598E-1,5.983156E-2,4.8533753E-1,1.4865738E-1,1.4825086E-1,-3.1693044E-1,-1.6234064E-1,5.0095603E-2,-2.0467216E-2,-3.514832E-1,2.512431E-1,-1.8503237E-1,1.1068393E-1,-3.270614E-1,2.9070058E-1,-7.238794E-3],"categories":[],"categories_nodes":[],"categories_segments":[],"categories_sizes":[],"default_left":[0,0,0,0,0,0,0,0,0,0,0,0,0,0,0,0,0,0,0,0,0,0,0,0,0,0,0,0,0,0,0,0,0,0,0,0,0,0,0,0,0,0,0,0,0,0,0,0,0,0,0,0,0,0,0,0,0,0,0,0,0,0,0,0,0,0,0,0,0,0,0,0,0,0,0,0,0,0,0,0,0,0,0,0,0,0,0,0,0],"id":12,"left_children":[1,3,5,7,9,11,13,-1,15,17,19,21,23,25,27,-1,29,31,33,35,37,39,41,-1,43,45,47,49,51,-1,-1,53,55,57,59,61,63,65,67,-1,-1,-1,69,71,73,75,-1,77,79,81,83,85,87,-1,-1,-1,-1,-1,-1,-1,-1,-1,-1,-1,-1,-1,-1,-1,-1,-1,-1,-1,-1,-1,-1,-1,-1,-1,-1,-1,-1,-1,-1,-1,-1,-1,-1,-1,-1],"loss_changes":[4.594083E0,6.9767046E0,1.4174047E1,3.6565576E0,6.1605616E0,1.3300015E1,9.201886E0,0E0,1.5025024E0,8.148456E0,6.611715E0,6.9638233E0,4.714518E0,1.4047983E1,1.3004974E1,0E0,4.024601E-2,8.389958E0,1.2909527E1,6.953658E0,1.0672754E1,6.2496936E-1,4.1622505E0,0E0,4.530832E0,1.4186325E0,8.626823E0,1.1836532E1,1.00605E1,0E0,0E0,6.5853863E0,5.3398E0,1.1294821E1,1.8247534E1,7.621949E0,7.4148045E0,1.6600313E0,2.190672E0,0E0,0E0,0E0,4.034092E0,6.6579046E0,3.4548326E0,2.1061897E-1,0E0,8.231765E0,1.0188032E1,1.0222258E1,4.37925E0,7.2843246E0,1.4161563E1,0E0,0E0,0E0,0E0,0E0,0E0,0E0,0E0,0E0,0E0,0E0,0E0,0E0,0E0,0E0,0E0,0E0,0E0,0E0,0E0,0E0,0E0,0E0,0E0,0E0,0E0,0E0,0E0,0E0,0E0,0E0,0E0,0E0,0E0,0E0,0E0],"parents":[2147483647,0,0,1,1,2,2,3,3,4,4,5,5,6,6,8,8,9,9,10,10,11,11,12,12,13,13,14,14,16,16,17,17,18,18,19,19,20,20,21,21,22,22,24,24,25,25,26,26,27,27,28,28,31,31,32,32,33,33,34,34,35,35,36,36,37,37,38,38,42,42,43,43,44,44,45,45,47,47,48,48,49,49,50,50,51,51,52,52],"right_children":[2,4,6,8,10,12,14,-1,16,18,20,22,24,26,28,-1,30,32,34,36,38,40,42,-1,44,46,48,50,52,-1,-1,54,56,58,60,62,64,66,68,-1,-1,-1,70,72,74,76,-1,78,80,82,84,86,88,-1,-1,-1,-1,-1,-1,-1,-1,-1,-1,-1,-1,-1,-1,-1,-1,-1,-1,-1,-1,-1,-1,-1,-1,-1,-1,-1,-1,-1,-1,-1,-1,-1,-1,-1,-1],"split_conditions":[-2.922138E-1,-1.7104766E0,-9.1804737E-1,-1.7349764E0,2.234849E-1,4.3263134E-2,-6.1423993E-1,9.85928E-2,-7.7437496E-1,-1.0378202E0,1.3467449E0,-1.6954428E0,-2.7555618E-1,-2.2125964E-1,-8.4213114E-1,-5.4712873E-3,-2.957811E-4,3.209878E-1,-6.148E-2,5.313932E-1,-5.5879664E-1,-1.5339345E0,-7.122408E-1,-3.797432E-1,-1.335906E-1,6.4333093E-1,-5.855329E-1,2.9409957E-1,-5.963173E-1,-4.3512014E-1,-1.2136765E-1,-6.9776195E-1,-1.0407604E-1,2.1136638E-2,-4.4408223E-1,-6.533439E-1,-9.727271E-1,-1.18350625E-1,9.5587265E-1,2.594181E-1,-4.860349E-3,1.711432E-1,1.1274857E-1,-1.3797984E0,-1.07161015E-1,-2.3824726E-1,1.1091401E-1,9.350066E-1,-7.3851323E-1,-6.53221E-1,-4.3473598E-1,-8.158145E-1,-5.817226E-1,9.248438E-2,-1.4904611E-1,1.7430214E-2,2.6711947E-1,1.8544477E-1,-1.7877673E-1,-1.7956057E-1,1.6096891E-1,3.053112E-1,-1.3390322E-1,-8.690106E-2,3.5327822E-2,3.300296E-1,9.3825794E-5,-9.221594E-3,-3.6829615E-1,-3.392138E-1,7.565783E-2,3.6967927E-1,-6.080829E-2,-1.9346598E-1,5.983156E-2,4.8533753E-1,1.4865738E-1,1.4825086E-1,-3.1693044E-1,-1.6234064E-1,5.0095603E-2,-2.0467216E-2,-3.514832E-1,2.512431E-1,-1.8503237E-1,1.1068393E-1,-3.270614E-1,2.9070058E-1,-7.238794E-3],"split_indices":[17,15,28,15,26,25,14,0,3,28,7,15,17,17,28,0,1,5,14,26,25,1,24,0,17,4,18,25,14,0,0,17,25,0,28,14,28,3,8,0,0,0,16,26,1,17,0,26,28,18,14,2,14,0,0,0,0,0,0,0,0,0,0,0,0,0,0,0,0,0,0,0,0,0,0,0,0,0,0,0,0,0,0,0,0,0,0,0,0],"split_type":[0,0,0,0,0,0,0,0,0,0,0,0,0,0,0,0,0,0,0,0,0,0,0,0,0,0,0,0,0,0,0,0,0,0,0,0,0,0,0,0,0,0,0,0,0,0,0,0,0,0,0,0,0,0,0,0,0,0,0,0,0,0,0,0,0,0,0,0,0,0,0,0,0,0,0,0,0,0,0,0,0,0,0,0,0,0,0,0,0],"sum_hessian":[1.9229222E3,7.414797E2,1.1814426E3,7.7837634E0,7.3369586E2,6.856208E1,1.1128805E3,1.7008318E0,6.0829315E0,2.4968948E2,4.840064E2,3.7583347E1,3.0978737E1,1.61321E2,9.515595E2,1.0360006E0,5.046931E0,8.6819534E1,1.6286995E2,4.673235E2,1.6682917E1,2.513191E0,3.5070156E1,1.6626346E0,2.9316101E1,9.851592E0,1.514694E2,4.5622955E1,9.059366E2,4.0188465E0,1.0280842E0,5.240496E1,3.4414574E1,1.0802082E2,5.4849133E1,4.6477417E1,4.2084607E2,4.568466E0,1.21144495E1,1.3404486E0,1.1727424E0,1.0631835E0,3.400697E1,1.1563931E1,1.775217E1,7.666228E0,2.1853642E0,6.2232143E1,8.923727E1,3.712885E1,8.494105E0,1.732302E1,8.886135E2,1.2789444E1,3.9615517E1,2.3934303E1,1.0480269E1,1.0051169E2,7.509134E0,2.905366E1,2.5795471E1,2.9249134E0,4.35525E1,4.9799232E1,3.7104684E2,2.1123793E0,2.456087E0,1.8291949E0,1.02852545E1,3.2104923E1,1.9020487E0,6.025679E0,5.538253E0,7.967264E0,9.784905E0,6.3282375E0,1.3379906E0,5.9525375E1,2.706767E0,2.9571558E1,5.966571E1,1.2738362E1,2.4390488E1,6.4501543E0,2.043951E0,3.938085E0,1.3384936E1,1.359745E1,8.750161E2],"tree_param":{"num_deleted":"0","num_feature":"29","num_nodes":"89","size_leaf_vector":"1"}},{"base_weights":[-8.988118E-4,2.994947E-2,-7.461262E-2,3.0011028E-1,1.2692347E-3,-2.3617907E-1,1.1516144E-2,1.6250905E-1,9.0258366E-1,-2.7414614E-1,3.0239746E-2,-3.726017E-1,7.483603E-2,1.0110562E-1,-2.549893E-1,-3.9524314E-1,2.644865E-1,-1.588809E-1,1.0082111E0,-5.581174E-2,-8.013581E-1,7.576865E-1,1.943869E-2,5.8115297E-3,-5.385694E-1,1.5506586E-1,-7.1033174E-1,2.8340542E-1,-8.586029E-2,-1.7437004E-1,-8.358181E-1,-7.0647687E-1,6.1747944E-1,1.7587267E-1,1.0224606E0,7.715394E-1,5.2587384E-1,5.247671E-1,-2.0288646E-1,-9.0510255E-1,1.9845524E-1,1.0882292E0,-3.3423156E-1,-4.0293176E-2,1.387567E-1,-5.18348E-1,3.9680886E-1,-5.969959E-1,6.894606E-1,4.0301538E-1,-1.2900636E-1,-1.1790497E-1,-3.737413E-1,-3.059392E-1,4.3024185E-1,-1.4401872E-1,7.7693826E-1,-3.1490132E-1,5.5715805E-1,1.6956566E-1,-1.053599E0,-2.5551757E-1,1.3714135E-1,3.1795296E-1,-7.128469E-2,2.0874827E-1,1.2318869E-2,3.7751654E-1,5.9605297E-2,2.9074088E-1,-2.1015872E-1,2.5997427E-1,-7.357142E-2,-1.5288293E-1,6.8944216E-2,-2.974745E-1,1.6261744E-1,2.9428232E-2,3.9984417E-1,-4.351775E-3,-1.7486438E-1,2.752725E-1,3.3113442E-2,1.4937177E-1,-2.4236993E-1,1.9331603E-1,-2.6093966E-1,-2.594949E-1,-1.0531315E-1,-2.9628651E-2,3.564369E-1,-1.8423486E-1,1.4982715E-1,-1.04399785E-1,1.2190659E-1,2.1262342E-1,-2.3187485E-1,3.2627383E-1,-1.4143898E-1,3.2858327E-1,1.07354224E-1,-3.1313217E-1,-1.7338552E-2,1.9363959E-3,3.056624E-1,-1.923314E-1,-3.551402E-3,3.6825496E-1,-4.3911148E-2,-3.806889E-1,8.692211E-2],"categories":[],"categories_nodes":[],"categories_segments":[],"categories_sizes":[],"default_left":[0,0,0,0,0,0,0,0,0,0,0,0,0,0,0,0,0,0,0,0,0,0,0,0,0,0,0,0,0,0,0,0,0,0,0,0,0,0,0,0,0,0,0,0,0,0,0,0,0,0,0,0,0,0,0,0,0,0,0,0,0,0,0,0,0,0,0,0,0,0,0,0,0,0,0,0,0,0,0,0,0,0,0,0,0,0,0,0,0,0,0,0,0,0,0,0,0,0,0,0,0,0,0,0,0,0,0,0,0,0,0],"id":13,"left_children":[1,3,5,7,9,11,13,15,17,19,21,23,25,27,29,31,33,-1,35,37,39,41,43,45,47,49,51,53,55,57,59,61,63,65,67,69,-1,71,73,75,-1,77,-1,79,81,83,85,87,89,91,93,95,-1,97,99,101,103,105,107,-1,109,-1,-1,-1,-1,-1,-1,-1,-1,-1,-1,-1,-1,-1,-1,-1,-1,-1,-1,-1,-1,-1,-1,-1,-1,-1,-1,-1,-1,-1,-1,-1,-1,-1,-1,-1,-1,-1,-1,-1,-1,-1,-1,-1,-1,-1,-1,-1,-1,-1,-1],"loss_changes":[4.331784E0,1.0405369E1,7.823324E0,1.053788E1,9.7034235E0,8.321479E0,8.801158E0,6.1415663E0,4.1258316E0,1.3278867E1,8.630892E0,8.546869E0,3.9168894E0,9.424179E0,4.1974835E0,5.733818E0,5.8875256E0,0E0,2.60561E0,7.1873903E0,5.7317696E0,1.1156537E1,7.7404213E0,8.908385E0,7.19722E0,3.9716418E0,1.6872003E0,1.2235417E1,6.9823046E0,8.678368E0,3.9644322E0,2.6410713E0,1.9482203E0,5.725161E0,1.547245E0,6.1553516E0,0E0,4.6974134E0,8.994181E0,4.5428524E0,0E0,3.2998772E0,0E0,1.0121587E1,7.905671E0,5.8683996E0,8.364836E0,5.6821136E0,1.9880106E0,3.244197E0,3.2708735E0,2.632094E0,0E0,7.082449E0,5.0188656E0,9.956449E0,1.6343274E0,6.9147296E0,6.6360517E0,0E0,3.2332802E0,0E0,0E0,0E0,0E0,0E0,0E0,0E0,0E0,0E0,0E0,0E0,0E0,0E0,0E0,0E0,0E0,0E0,0E0,0E0,0E0,0E0,0E0,0E0,0E0,0E0,0E0,0E0,0E0,0E0,0E0,0E0,0E0,0E0,0E0,0E0,0E0,0E0,0E0,0E0,0E0,0E0,0E0,0E0,0E0,0E0,0E0,0E0,0E0,0E0,0E0],"parents":[2147483647,0,0,1,1,2,2,3,3,4,4,5,5,6,6,7,7,8,8,9,9,10,10,11,11,12,12,13,13,14,14,15,15,16,16,18,18,19,19,20,20,21,21,22,22,23,23,24,24,25,25,26,26,27,27,28,28,29,29,30,30,31,31,32,32,33,33,34,34,35,35,37,37,38,38,39,39,41,41,43,43,44,44,45,45,46,46,47,47,48,48,49,49,50,50,51,51,53,53,54,54,55,55,56,56,57,57,58,58,60,60],"right_children":[2,4,6,8,10,12,14,16,18,20,22,24,26,28,30,32,34,-1,36,38,40,42,44,46,48,50,52,54,56,58,60,62,64,66,68,70,-1,72,74,76,-1,78,-1,80,82,84,86,88,90,92,94,96,-1,98,100,102,104,106,108,-1,110,-1,-1,-1,-1,-1,-1,-1,-1,-1,-1,-1,-1,-1,-1,-1,-1,-1,-1,-1,-1,-1,-1,-1,-1,-1,-1,-1,-1,-1,-1,-1,-1,-1,-1,-1,-1,-1,-1,-1,-1,-1,-1,-1,-1,-1,-1,-1,-1,-1,-1],"split_conditions":[7.3976785E-2,-8.1830573E-1,7.06224E-1,-1.3166194E-1,-7.1954805E-1,2.683699E-1,7.335254E-1,-5.518237E-1,-1.250572E0,-4.2453757E-3,-7.088924E-1,-4.8385146E-1,5.3820217E-1,1.0811515E0,2.0965512E0,9.791409E-1,-8.249047E-1,-1.588809E-1,1.0988996E0,-1.3311417E0,1.5346239E0,8.498598E-2,-2.4789093E-1,-6.889492E-1,3.0729055E0,3.6851436E-1,1.7765003E0,-1.0801655E0,1.5800481E0,1.7194817E0,-7.127217E-1,9.5795715E-1,1.3375124E0,-1.1397444E0,-3.1011665E-1,1.9040793E-1,5.2587384E-1,8.049117E-1,-8.45009E-1,2.107711E0,1.9845524E-1,1.1483045E-1,-3.3423156E-1,1.7101282E-1,-1.3924042E0,-4.630933E-1,7.365097E-1,-6.7257667E-1,6.5874153E-1,9.644125E-1,9.6166414E-1,-4.4828942E-1,-3.737413E-1,-5.699359E-1,-8.657929E-1,-7.9671925E-1,5.8815306E-1,-3.3195175E-2,1.0165601E0,1.6956566E-1,2.699446E0,-2.5551757E-1,1.3714135E-1,3.1795296E-1,-7.128469E-2,2.0874827E-1,1.2318869E-2,3.7751654E-1,5.9605297E-2,2.9074088E-1,-2.1015872E-1,2.5997427E-1,-7.357142E-2,-1.5288293E-1,6.8944216E-2,-2.974745E-1,1.6261744E-1,2.9428232E-2,3.9984417E-1,-4.351775E-3,-1.7486438E-1,2.752725E-1,3.3113442E-2,1.4937177E-1,-2.4236993E-1,1.9331603E-1,-2.6093966E-1,-2.594949E-1,-1.0531315E-1,-2.9628651E-2,3.564369E-1,-1.8423486E-1,1.4982715E-1,-1.04399785E-1,1.2190659E-1,2.1262342E-1,-2.3187485E-1,3.2627383E-1,-1.4143898E-1,3.2858327E-1,1.07354224E-1,-3.1313217E-1,-1.7338552E-2,1.9363959E-3,3.056624E-1,-1.923314E-1,-3.551402E-3,3.6825496E-1,-4.3911148E-2,-3.806889E-1,8.692211E-2],"split_indices":[3,16,28,3,16,18,17,25,26,14,16,24,28,7,10,2,16,0,8,26,15,17,28,16,3,2,24,15,4,28,16,8,15,15,0,14,0,22,28,21,0,22,0,17,26,14,22,25,16,7,15,4,0,14,15,16,26,16,17,0,12,0,0,0,0,0,0,0,0,0,0,0,0,0,0,0,0,0,0,0,0,0,0,0,0,0,0,0,0,0,0,0,0,0,0,0,0,0,0,0,0,0,0,0,0,0,0,0,0,0,0],"split_type":[0,0,0,0,0,0,0,0,0,0,0,0,0,0,0,0,0,0,0,0,0,0,0,0,0,0,0,0,0,0,0,0,0,0,0,0,0,0,0,0,0,0,0,0,0,0,0,0,0,0,0,0,0,0,0,0,0,0,0,0,0,0,0,0,0,0,0,0,0,0,0,0,0,0,0,0,0,0,0,0,0,0,0,0,0,0,0,0,0,0,0,0,0,0,0,0,0,0,0,0,0,0,0,0,0,0,0,0,0,0,0],"sum_hessian":[1.902982E3,1.341976E3,5.6100604E2,1.27883224E2,1.2140928E3,1.9446765E2,3.665384E2,1.05139694E2,2.274353E1,1.1474813E2,1.0993446E3,1.3503731E2,5.9430336E1,2.7478595E2,9.1752464E1,1.5807404E1,8.933229E1,1.2864798E0,2.145705E1,8.192597E1,3.2822163E1,1.5072442E1,1.0842722E3,4.1463596E1,9.3573715E1,5.4648735E1,4.7815986E0,1.3886794E2,1.35918E2,8.1711136E1,1.00413265E1,1.2322733E1,3.4846704E0,8.108479E1,8.247496E0,1.7827404E1,3.6296456E0,1.6039978E1,6.5885994E1,3.1004652E1,1.817508E0,1.3166045E1,1.9063971E0,7.2299536E2,3.6127682E2,1.757601E1,2.3887587E1,8.981444E1,3.75928E0,2.8956043E1,2.5692692E1,2.8493612E0,1.9322375E0,2.748206E1,1.1138587E2,1.2811525E2,7.8027525E0,6.902123E1,1.2689898E1,1.1362433E0,8.905084E0,1.1193534E1,1.1291989E0,2.138778E0,1.3458924E0,1.583776E1,6.524703E1,6.001184E0,2.2463117E0,1.6018833E1,1.8085703E0,1.102184E1,5.018138E0,3.8451553E1,2.743444E1,2.9553415E1,1.4512378E0,2.8855875E0,1.02804575E1,6.9117316E2,3.1822233E1,1.1599805E1,3.4967703E2,3.737777E0,1.3838232E1,2.0392761E1,3.4948263E0,4.1777355E1,4.8037083E1,1.7674551E0,1.9918249E0,2.0420458E0,2.6913998E1,1.848235E1,7.2103434E0,1.223377E0,1.6259842E0,2.326355E0,2.5155704E1,9.547805E0,1.01838066E2,1.0232475E1,1.17882774E2,2.1099555E0,5.692797E0,3.270436E1,3.6316875E1,6.1167455E0,6.573152E0,7.7223964E0,1.1826873E0],"tree_param":{"num_deleted":"0","num_feature":"29","num_nodes":"111","size_leaf_vector":"1"}},{"base_weights":[-3.9381062E-4,6.4582364E-3,-3.360155E-1,3.5009608E-3,7.3749834E-1,-6.037977E-1,8.652725E-2,7.6425105E-2,-2.5925506E-2,9.9433243E-1,7.001906E-2,-7.170016E-1,2.510912E-1,3.8230562E-1,-6.660171E-1,-4.8058826E-2,1.9336812E-1,-3.6794093E-2,3.3635068E-1,3.520403E-1,6.711428E-2,-1.9886495E-1,2.3774345E-1,-1.0275013E0,-2.799953E-1,-5.000576E-1,6.3801366E-1,4.4937447E-2,-3.401702E-1,-8.1882894E-2,5.488976E-1,9.7996074E-1,1.5881036E-1,-1.1688482E-2,-1.9534352E-1,-2.3261707E-1,4.1035494E-1,3.2510847E-2,-1.153611E0,-6.202668E-1,2.9326272E-1,-5.26998E-3,-2.2430032E-1,2.1653774E-1,3.407764E-1,8.00159E-3,-8.7999806E-2,-8.337798E-2,2.7605587E-1,3.914337E-1,-4.4701688E-2,1.4965361E-1,2.551212E-2,-2.9442122E-2,2.0916063E-2,-1.4374077E-1,4.5657365E-4,3.8042995E-1,7.930303E-2,-3.2132328E-2,-4.1286483E-1,-2.9855102E-1,1.5223275E-1,-1.1367865E-1,1.8755032E-1],"categories":[],"categories_nodes":[],"categories_segments":[],"categories_sizes":[],"default_left":[0,0,0,0,0,0,0,0,0,0,0,0,0,0,0,0,0,0,0,0,0,0,0,0,0,0,0,0,0,0,0,0,0,0,0,0,0,0,0,0,0,0,0,0,0,0,0,0,0,0,0,0,0,0,0,0,0,0,0,0,0,0,0,0,0],"id":14,"left_children":[1,3,5,7,9,11,13,15,17,19,21,23,-1,25,27,29,31,33,35,-1,-1,-1,-1,37,39,41,43,-1,-1,45,47,49,51,53,55,-1,57,-1,59,61,-1,-1,-1,63,-1,-1,-1,-1,-1,-1,-1,-1,-1,-1,-1,-1,-1,-1,-1,-1,-1,-1,-1,-1,-1],"loss_changes":[4.331036E0,3.9875796E0,4.3157487E0,3.948834E0,1.20437E0,4.3822775E0,3.7027347E0,7.7109613E0,5.1751437E0,4.678445E-1,2.1882968E0,2.702714E0,0E0,2.9714527E0,1.9773738E0,5.235449E0,7.2649345E0,5.0685E0,3.468439E0,0E0,0E0,0E0,0E0,1.9169369E0,5.1117144E0,3.694014E-1,1.7589457E0,0E0,0E0,5.612009E0,4.5272784E0,4.336442E0,6.547033E0,7.754433E0,9.726387E0,0E0,4.242854E0,0E0,2.495572E0,4.2671094E0,0E0,0E0,0E0,1.7964948E0,0E0,0E0,0E0,0E0,0E0,0E0,0E0,0E0,0E0,0E0,0E0,0E0,0E0,0E0,0E0,0E0,0E0,0E0,0E0,0E0,0E0],"parents":[2147483647,0,0,1,1,2,2,3,3,4,4,5,5,6,6,7,7,8,8,9,9,10,10,11,11,13,13,14,14,15,15,16,16,17,17,18,18,23,23,24,24,25,25,26,26,29,29,30,30,31,31,32,32,33,33,34,34,36,36,38,38,39,39,43,43],"right_children":[2,4,6,8,10,12,14,16,18,20,22,24,-1,26,28,30,32,34,36,-1,-1,-1,-1,38,40,42,44,-1,-1,46,48,50,52,54,56,-1,58,-1,60,62,-1,-1,-1,64,-1,-1,-1,-1,-1,-1,-1,-1,-1,-1,-1,-1,-1,-1,-1,-1,-1,-1,-1,-1,-1],"split_conditions":[2.0513587E0,1.4464629E0,1.1901829E0,-6.267117E-1,1.9040793E-1,9.347498E-1,1.1964266E0,-3.6142968E-2,2.5813544E0,1.581473E0,-4.7142252E-1,3.3632052E-1,2.510912E-1,1.026758E0,1.3922513E0,-6.5834117E-1,1.7310988E-2,4.5532295E-1,-7.7437496E-1,3.520403E-1,6.711428E-2,-1.9886495E-1,2.3774345E-1,-6.9498666E-2,1.1030945E0,4.8098394E-1,8.558588E-1,4.4937447E-2,-3.401702E-1,-8.259339E-2,-7.469217E-1,8.7322414E-1,-6.2560064E-1,-6.676889E-1,6.7133045E-1,-2.3261707E-1,-6.432343E-1,3.2510847E-2,-6.7200524E-1,1.514917E0,2.9326272E-1,-5.26998E-3,-2.2430032E-1,-5.968692E-1,3.407764E-1,8.00159E-3,-8.7999806E-2,-8.337798E-2,2.7605587E-1,3.914337E-1,-4.4701688E-2,1.4965361E-1,2.551212E-2,-2.9442122E-2,2.0916063E-2,-1.4374077E-1,4.5657365E-4,3.8042995E-1,7.930303E-2,-3.2132328E-2,-4.1286483E-1,-2.9855102E-1,1.5223275E-1,-1.1367865E-1,1.8755032E-1],"split_indices":[27,7,7,4,14,26,16,15,0,1,16,25,0,6,24,4,15,17,3,0,0,0,0,26,15,14,26,0,0,3,16,26,18,28,17,0,3,0,23,14,0,0,0,0,0,0,0,0,0,0,0,0,0,0,0,0,0,0,0,0,0,0,0,0,0],"split_type":[0,0,0,0,0,0,0,0,0,0,0,0,0,0,0,0,0,0,0,0,0,0,0,0,0,0,0,0,0,0,0,0,0,0,0,0,0,0,0,0,0,0,0,0,0,0,0,0,0,0,0,0,0,0,0,0,0,0,0,0,0,0,0,0,0],"sum_hessian":[1.8813649E3,1.8446846E3,3.6680294E1,1.838253E3,6.4314933E0,2.2189169E1,1.4491124E1,5.2805054E2,1.3102025E3,4.290791E0,2.1407022E0,2.1038483E1,1.1506861E0,1.0755707E1,3.7354167E0,2.5606384E2,2.719867E2,1.2729125E3,3.7289997E1,3.057333E0,1.233458E0,1.1036061E0,1.037096E0,1.1509545E1,9.528938E0,2.2019458E0,8.5537615E0,1.6092892E0,2.1261275E0,2.431496E2,1.2914233E1,1.0295127E1,2.616916E2,1.0998325E3,1.7307996E2,1.7358137E0,3.5554184E1,1.164205E0,1.034534E1,7.898484E0,1.6304545E0,1.1099845E0,1.0919614E0,5.4095254E0,3.1442358E0,1.612436E2,8.190598E1,4.0799737E0,8.83426E0,7.873959E0,2.4211679E0,4.5625126E1,2.1606645E2,5.3329486E2,5.665377E2,7.030197E1,1.02777985E2,4.054003E0,3.150018E1,2.0744002E0,8.27094E0,6.0160108E0,1.8824735E0,2.231056E0,3.1784697E0],"tree_param":{"num_deleted":"0","num_feature":"29","num_nodes":"65","size_leaf_vector":"1"}},{"base_weights":[3.049983E-4,1.1118353E-1,-1.9782575E-2,5.7980335E-1,7.076687E-2,-2.1817632E-1,7.8583724E-4,-3.5180828E-1,8.376023E-1,4.4886712E-2,8.1540143E-1,-5.360549E-2,-5.158755E-1,9.5951027E-1,-3.3301017E-3,-9.861739E-1,2.767505E-1,-1.9411258E-1,1.0359844E0,6.406129E-2,-4.0235355E-1,1.1248353E0,-8.194425E-2,6.188287E-2,-6.4641273E-1,-5.7623076E-1,5.7190794E-1,3.8541782E-1,2.7853783E-2,-5.689788E-1,2.6378017E-3,-6.690557E-2,-3.483355E-1,-2.3217697E-1,1.44368E-1,-3.9160646E-2,1.1903214E0,1.620143E-1,-1.4653365E-1,3.8739315E-1,4.726884E-2,-1.8698561E-1,4.9677446E-1,4.2110384E-2,